{"learner":{"attributes":{"best_iteration":"992","best_score":"0.5906411321014166","scikit_learn":"{\"_estimator_type\": \"classifier\"}"},"feature_names":[],"feature_types":[],"gradient_booster":{"model":{"cats":{"enc":[],"feature_segments":[],"sorted_idx":[]},"gbtree_model_param":{"num_parallel_tree":"1","num_trees":"1073"},"iteration_indptr":[0,1,2,3,4,5,6,7,8,9,10,11,12,13,14,15,16,17,18,19,20,21,22,23,24,25,26,27,28,29,30,31,32,33,34,35,36,37,38,39,40,41,42,43,44,45,46,47,48,49,50,51,52,53,54,55,56,57,58,59,60,61,62,63,64,65,66,67,68,69,70,71,72,73,74,75,76,77,78,79,80,81,82,83,84,85,86,87,88,89,90,91,92,93,94,95,96,97,98,99,100,101,102,103,104,105,106,107,108,109,110,111,112,113,114,115,116,117,118,119,120,121,122,123,124,125,126,127,128,129,130,131,132,133,134,135,136,137,138,139,140,141,142,143,144,145,146,147,148,149,150,151,152,153,154,155,156,157,158,159,160,161,162,163,164,165,166,167,168,169,170,171,172,173,174,175,176,177,178,179,180,181,182,183,184,185,186,187,188,189,190,191,192,193,194,195,196,197,198,199,200,201,202,203,204,205,206,207,208,209,210,211,212,213,214,215,216,217,218,219,220,221,222,223,224,225,226,227,228,229,230,231,232,233,234,235,236,237,238,239,240,241,242,243,244,245,246,247,248,249,250,251,252,253,254,255,256,257,258,259,260,261,262,263,264,265,266,267,268,269,270,271,272,273,274,275,276,277,278,279,280,281,282,283,284,285,286,287,288,289,290,291,292,293,294,295,296,297,298,299,300,301,302,303,304,305,306,307,308,309,310,311,312,313,314,315,316,317,318,319,320,321,322,323,324,325,326,327,328,329,330,331,332,333,334,335,336,337,338,339,340,341,342,343,344,345,346,347,348,349,350,351,352,353,354,355,356,357,358,359,360,361,362,363,364,365,366,367,368,369,370,371,372,373,374,375,376,377,378,379,380,381,382,383,384,385,386,387,388,389,390,391,392,393,394,395,396,397,398,399,400,401,402,403,404,405,406,407,408,409,410,411,412,413,414,415,416,417,418,419,420,421,422,423,424,425,426,427,428,429,430,431,432,433,434,435,436,437,438,439,440,441,442,443,444,445,446,447,448,449,450,451,452,453,454,455,456,457,458,459,460,461,462,463,464,465,466,467,468,469,470,471,472,473,474,475,476,477,478,479,480,481,482,483,484,485,486,487,488,489,490,491,492,493,494,495,496,497,498,499,500,501,502,503,504,505,506,507,508,509,510,511,512,513,514,515,516,517,518,519,520,521,522,523,524,525,526,527,528,529,530,531,532,533,534,535,536,537,538,539,540,541,542,543,544,545,546,547,548,549,550,551,552,553,554,555,556,557,558,559,560,561,562,563,564,565,566,567,568,569,570,571,572,573,574,575,576,577,578,579,580,581,582,583,584,585,586,587,588,589,590,591,592,593,594,595,596,597,598,599,600,601,602,603,604,605,606,607,608,609,610,611,612,613,614,615,616,617,618,619,620,621,622,623,624,625,626,627,628,629,630,631,632,633,634,635,636,637,638,639,640,641,642,643,644,645,646,647,648,649,650,651,652,653,654,655,656,657,658,659,660,661,662,663,664,665,666,667,668,669,670,671,672,673,674,675,676,677,678,679,680,681,682,683,684,685,686,687,688,689,690,691,692,693,694,695,696,697,698,699,700,701,702,703,704,705,706,707,708,709,710,711,712,713,714,715,716,717,718,719,720,721,722,723,724,725,726,727,728,729,730,731,732,733,734,735,736,737,738,739,740,741,742,743,744,745,746,747,748,749,750,751,752,753,754,755,756,757,758,759,760,761,762,763,764,765,766,767,768,769,770,771,772,773,774,775,776,777,778,779,780,781,782,783,784,785,786,787,788,789,790,791,792,793,794,795,796,797,798,799,800,801,802,803,804,805,806,807,808,809,810,811,812,813,814,815,816,817,818,819,820,821,822,823,824,825,826,827,828,829,830,831,832,833,834,835,836,837,838,839,840,841,842,843,844,845,846,847,848,849,850,851,852,853,854,855,856,857,858,859,860,861,862,863,864,865,866,867,868,869,870,871,872,873,874,875,876,877,878,879,880,881,882,883,884,885,886,887,888,889,890,891,892,893,894,895,896,897,898,899,900,901,902,903,904,905,906,907,908,909,910,911,912,913,914,915,916,917,918,919,920,921,922,923,924,925,926,927,928,929,930,931,932,933,934,935,936,937,938,939,940,941,942,943,944,945,946,947,948,949,950,951,952,953,954,955,956,957,958,959,960,961,962,963,964,965,966,967,968,969,970,971,972,973,974,975,976,977,978,979,980,981,982,983,984,985,986,987,988,989,990,991,992,993,994,995,996,997,998,999,1000,1001,1002,1003,1004,1005,1006,1007,1008,1009,1010,1011,1012,1013,1014,1015,1016,1017,1018,1019,1020,1021,1022,1023,1024,1025,1026,1027,1028,1029,1030,1031,1032,1033,1034,1035,1036,1037,1038,1039,1040,1041,1042,1043,1044,1045,1046,1047,1048,1049,1050,1051,1052,1053,1054,1055,1056,1057,1058,1059,1060,1061,1062,1063,1064,1065,1066,1067,1068,1069,1070,1071,1072,1073],"tree_info":[0,0,0,0,0,0,0,0,0,0,0,0,0,0,0,0,0,0,0,0,0,0,0,0,0,0,0,0,0,0,0,0,0,0,0,0,0,0,0,0,0,0,0,0,0,0,0,0,0,0,0,0,0,0,0,0,0,0,0,0,0,0,0,0,0,0,0,0,0,0,0,0,0,0,0,0,0,0,0,0,0,0,0,0,0,0,0,0,0,0,0,0,0,0,0,0,0,0,0,0,0,0,0,0,0,0,0,0,0,0,0,0,0,0,0,0,0,0,0,0,0,0,0,0,0,0,0,0,0,0,0,0,0,0,0,0,0,0,0,0,0,0,0,0,0,0,0,0,0,0,0,0,0,0,0,0,0,0,0,0,0,0,0,0,0,0,0,0,0,0,0,0,0,0,0,0,0,0,0,0,0,0,0,0,0,0,0,0,0,0,0,0,0,0,0,0,0,0,0,0,0,0,0,0,0,0,0,0,0,0,0,0,0,0,0,0,0,0,0,0,0,0,0,0,0,0,0,0,0,0,0,0,0,0,0,0,0,0,0,0,0,0,0,0,0,0,0,0,0,0,0,0,0,0,0,0,0,0,0,0,0,0,0,0,0,0,0,0,0,0,0,0,0,0,0,0,0,0,0,0,0,0,0,0,0,0,0,0,0,0,0,0,0,0,0,0,0,0,0,0,0,0,0,0,0,0,0,0,0,0,0,0,0,0,0,0,0,0,0,0,0,0,0,0,0,0,0,0,0,0,0,0,0,0,0,0,0,0,0,0,0,0,0,0,0,0,0,0,0,0,0,0,0,0,0,0,0,0,0,0,0,0,0,0,0,0,0,0,0,0,0,0,0,0,0,0,0,0,0,0,0,0,0,0,0,0,0,0,0,0,0,0,0,0,0,0,0,0,0,0,0,0,0,0,0,0,0,0,0,0,0,0,0,0,0,0,0,0,0,0,0,0,0,0,0,0,0,0,0,0,0,0,0,0,0,0,0,0,0,0,0,0,0,0,0,0,0,0,0,0,0,0,0,0,0,0,0,0,0,0,0,0,0,0,0,0,0,0,0,0,0,0,0,0,0,0,0,0,0,0,0,0,0,0,0,0,0,0,0,0,0,0,0,0,0,0,0,0,0,0,0,0,0,0,0,0,0,0,0,0,0,0,0,0,0,0,0,0,0,0,0,0,0,0,0,0,0,0,0,0,0,0,0,0,0,0,0,0,0,0,0,0,0,0,0,0,0,0,0,0,0,0,0,0,0,0,0,0,0,0,0,0,0,0,0,0,0,0,0,0,0,0,0,0,0,0,0,0,0,0,0,0,0,0,0,0,0,0,0,0,0,0,0,0,0,0,0,0,0,0,0,0,0,0,0,0,0,0,0,0,0,0,0,0,0,0,0,0,0,0,0,0,0,0,0,0,0,0,0,0,0,0,0,0,0,0,0,0,0,0,0,0,0,0,0,0,0,0,0,0,0,0,0,0,0,0,0,0,0,0,0,0,0,0,0,0,0,0,0,0,0,0,0,0,0,0,0,0,0,0,0,0,0,0,0,0,0,0,0,0,0,0,0,0,0,0,0,0,0,0,0,0,0,0,0,0,0,0,0,0,0,0,0,0,0,0,0,0,0,0,0,0,0,0,0,0,0,0,0,0,0,0,0,0,0,0,0,0,0,0,0,0,0,0,0,0,0,0,0,0,0,0,0,0,0,0,0,0,0,0,0,0,0,0,0,0,0,0,0,0,0,0,0,0,0,0,0,0,0,0,0,0,0,0,0,0,0,0,0,0,0,0,0,0,0,0,0,0,0,0,0,0,0,0,0,0,0,0,0,0,0,0,0,0,0,0,0,0,0,0,0,0,0,0,0,0,0,0,0,0,0,0,0,0,0,0,0,0,0,0,0,0,0,0,0,0,0,0,0,0,0,0,0,0,0,0,0,0,0,0,0,0,0,0,0,0,0,0,0,0,0,0,0,0,0,0,0,0,0,0,0,0,0,0,0,0,0,0,0,0,0,0,0,0,0,0,0,0,0,0,0,0,0,0,0,0,0,0,0,0,0,0,0,0,0,0,0,0,0,0,0,0,0,0,0,0,0,0,0,0,0,0,0,0,0,0,0,0,0,0,0,0,0,0,0,0,0,0,0,0,0,0,0,0,0,0,0,0,0,0,0,0,0,0,0,0,0,0,0,0,0,0,0,0,0,0,0,0,0,0,0,0,0,0,0,0,0,0,0,0,0,0,0,0,0,0,0,0,0,0,0,0,0,0,0,0,0,0,0,0,0,0,0,0,0,0,0,0,0,0,0,0,0,0,0,0,0,0,0,0,0,0,0,0,0,0,0,0,0,0,0,0,0,0,0,0,0,0,0,0,0,0,0,0,0,0,0,0,0,0,0,0,0,0,0,0,0,0,0,0,0,0,0],"trees":[{"base_weights":[4.4159447E-3,-1.1444976E-1,7.766659E-1,5.9294924E-2,-3.9117682E-1,3.0032934E-3,1.0824119E-2,-3.0002927E-3,2.1216995E-3,-8.544042E-4,-8.1076175E-3],"categories":[],"categories_nodes":[],"categories_segments":[],"categories_sizes":[],"default_left":[0,0,0,0,0,0,0,0,0,0,0],"id":0,"left_children":[1,3,5,7,9,-1,-1,-1,-1,-1,-1],"loss_changes":[1.5203231E1,6.939114E0,1.8873959E0,4.839005E0,6.5118914E0,0E0,0E0,0E0,0E0,0E0,0E0],"parents":[2147483647,0,0,1,1,2,2,3,3,4,4],"right_children":[2,4,6,8,10,-1,-1,-1,-1,-1,-1],"split_conditions":[2.924848E0,7.2727275E-1,-6.530711E-2,8.308419E0,1.3868382E1,3.0032934E-3,1.0824119E-2,-3.0002927E-3,2.1216995E-3,-8.544042E-4,-8.1076175E-3],"split_indices":[56,80,13,1,32,0,0,0,0,0,0],"split_type":[0,0,0,0,0,0,0,0,0,0,0],"sum_hessian":[1.580795E2,1.3790857E2,2.0170927E1,8.457333E1,5.3335236E1,1.0074806E1,1.0096122E1,2.3691645E1,6.0881687E1,3.2935352E1,2.0399883E1],"tree_param":{"num_deleted":"0","num_feature":"90","num_nodes":"11","size_leaf_vector":"1"}},{"base_weights":[-2.3317933E-2,-2.1474923E-1,4.278904E-1,3.3325432E-3,-3.4127662E-1,-0E0,7.873282E-1,-8.577533E-3,-1.9540195E-3,-3.0802526E-3,3.2247496E-3,1.184041E-2,1.4121035E-3],"categories":[],"categories_nodes":[],"categories_segments":[],"categories_sizes":[],"default_left":[0,0,0,0,0,0,0,0,0,0,0,0,0],"id":1,"left_children":[1,3,5,-1,7,9,11,-1,-1,-1,-1,-1,-1],"loss_changes":[1.37603445E1,8.089866E0,7.2254877E0,0E0,6.205596E0,2.5349712E0,5.5549994E0,0E0,0E0,0E0,0E0,0E0,0E0],"parents":[2147483647,0,0,1,1,2,2,4,4,5,5,6,6],"right_children":[2,4,6,-1,8,10,12,-1,-1,-1,-1,-1,-1],"split_conditions":[2.202428E0,6E-1,-7.27303E-1,3.3325432E-3,1.2087617E0,1.4454506E1,6.2E1,-8.577533E-3,-1.9540195E-3,-3.0802526E-3,3.2247496E-3,1.184041E-2,1.4121035E-3],"split_indices":[56,80,52,0,56,17,77,0,0,0,0,0,0],"split_type":[0,0,0,0,0,0,0,0,0,0,0,0,0],"sum_hessian":[1.5641475E2,1.1133542E2,4.5079323E1,1.9529905E1,9.180551E1,2.1517757E1,2.3561567E1,1.7314587E1,7.449093E1,1.102044E1,1.0497317E1,1.3087171E1,1.0474396E1],"tree_param":{"num_deleted":"0","num_feature":"90","num_nodes":"13","size_leaf_vector":"1"}},{"base_weights":[-4.205528E-2,-1.3943525E-1,9.064067E-3,-5.5507046E-1,-0E0,-1.3700183E-3,-7.6985424E-3,2.0292054E-3,-2.484983E-3],"categories":[],"categories_nodes":[],"categories_segments":[],"categories_sizes":[],"default_left":[0,0,0,0,0,0,0,0,0],"id":2,"left_children":[1,3,-1,5,7,-1,-1,-1,-1],"loss_changes":[1.4272295E1,8.266047E0,0E0,2.5585737E0,5.639366E0,0E0,0E0,0E0,0E0],"parents":[2147483647,0,0,1,1,3,3,4,4],"right_children":[2,4,-1,6,8,-1,-1,-1,-1],"split_conditions":[3.0731292E0,5.3132796E-1,9.064067E-3,8E-1,2.977841E2,-1.3700183E-3,-7.6985424E-3,2.0292054E-3,-2.484983E-3],"split_indices":[24,23,0,53,6,0,0,0,0],"split_type":[0,0,0,0,0,0,0,0,0],"sum_hessian":[1.5394223E2,1.4163365E2,1.2308587E1,3.389251E1,1.07741135E2,1.3404599E1,2.0487911E1,5.9279587E1,4.8461548E1],"tree_param":{"num_deleted":"0","num_feature":"90","num_nodes":"9","size_leaf_vector":"1"}},{"base_weights":[-2.352444E-3,-1.9232409E-1,6.086694E-1,-4.3970796E-1,9.009892E-2,1.09281195E-2,1.0885079E-3,-5.96406E-3,-0E0,-3.6815312E-3,2.9802613E-3],"categories":[],"categories_nodes":[],"categories_segments":[],"categories_sizes":[],"default_left":[0,0,0,0,0,0,0,0,0,0,0],"id":3,"left_children":[1,3,5,7,9,-1,-1,-1,-1,-1,-1],"loss_changes":[1.8624907E1,8.943527E0,8.32219E0,4.5716496E0,5.786015E0,0E0,0E0,0E0,0E0,0E0,0E0],"parents":[2147483647,0,0,1,1,2,2,3,3,4,4],"right_children":[2,4,6,8,10,-1,-1,-1,-1,-1,-1],"split_conditions":[2.3022473E0,7.4558365E-1,5.895745E3,5.679375E-1,3.0192506E0,1.09281195E-2,1.0885079E-3,-5.96406E-3,-0E0,-3.6815312E-3,2.9802613E-3],"split_indices":[24,23,26,51,29,0,0,0,0,0,0],"split_type":[0,0,0,0,0,0,0,0,0,0,0],"sum_hessian":[1.5822972E2,1.2237205E2,3.5857674E1,6.5582596E1,5.6789448E1,1.6501005E1,1.9356668E1,4.7587494E1,1.79951E1,1.649349E1,4.029596E1],"tree_param":{"num_deleted":"0","num_feature":"90","num_nodes":"11","size_leaf_vector":"1"}},{"base_weights":[1.2616274E-3,-2.1380943E-1,5.161295E-1,-4.94415E-2,-5.336412E-1,8.265707E-1,6.94937E-2,-4.5412765E-3,9.751776E-4,-7.160858E-3,-5.895179E-5,1.6555716E-3,1.1711631E-2,-3.6776785E-3,5.243799E-3],"categories":[],"categories_nodes":[],"categories_segments":[],"categories_sizes":[],"default_left":[0,0,0,0,0,0,0,0,0,0,0,0,0,0,0],"id":4,"left_children":[1,3,5,7,9,11,13,-1,-1,-1,-1,-1,-1,-1,-1],"loss_changes":[1.789045E1,5.560391E0,6.076516E0,4.8717446E0,3.1826725E0,5.1862907E0,4.9352374E0,0E0,0E0,0E0,0E0,0E0,0E0,0E0,0E0],"parents":[2147483647,0,0,1,1,2,2,3,3,4,4,5,5,6,6],"right_children":[2,4,6,8,10,12,14,-1,-1,-1,-1,-1,-1,-1,-1],"split_conditions":[2.202428E0,7.5E-1,2.4021122E0,8.308419E0,3.32533E-1,-1.3864459E2,-2.2134659E-1,-4.5412765E-3,9.751776E-4,-7.160858E-3,-5.895179E-5,1.6555716E-3,1.1711631E-2,-3.6776785E-3,5.243799E-3],"split_indices":[56,80,11,1,51,27,39,0,0,0,0,0,0,0,0],"split_type":[0,0,0,0,0,0,0,0,0,0,0,0,0,0,0],"sum_hessian":[1.5620537E2,1.1032052E2,4.588485E1,7.5428696E1,3.489182E1,2.5405535E1,2.0479315E1,1.9887068E1,5.554163E1,2.469385E1,1.01979685E1,1.0217575E1,1.518796E1,1.0076799E1,1.0402515E1],"tree_param":{"num_deleted":"0","num_feature":"90","num_nodes":"15","size_leaf_vector":"1"}},{"base_weights":[-1.0964278E-3,-1.6755527E-1,8.347873E-1,-3.9201656E-1,5.2003846E-2,1.7775709E-3,1.1970729E-2,-6.003614E-3,6.208418E-4,3.75042E-3,-1.8609448E-3],"categories":[],"categories_nodes":[],"categories_segments":[],"categories_sizes":[],"default_left":[0,0,0,0,0,0,0,0,0,0,0],"id":5,"left_children":[1,3,5,7,9,-1,-1,-1,-1,-1,-1],"loss_changes":[2.223849E1,6.9019995E0,5.181158E0,6.824168E0,5.5623755E0,0E0,0E0,0E0,0E0,0E0,0E0],"parents":[2147483647,0,0,1,1,2,2,3,3,4,4],"right_children":[2,4,6,8,10,-1,-1,-1,-1,-1,-1],"split_conditions":[3.6677752E0,7.4558365E-1,1.1770648E0,3.3448548E0,2.8723486E2,1.7775709E-3,1.1970729E-2,-6.003614E-3,6.208418E-4,3.75042E-3,-1.8609448E-3],"split_indices":[25,23,23,11,6,0,0,0,0,0,0],"split_type":[0,0,0,0,0,0,0,0,0,0,0],"sum_hessian":[1.5821504E2,1.3377267E2,2.4442379E1,6.6497154E1,6.727551E1,1.0237462E1,1.4204917E1,4.5896427E1,2.0600725E1,2.894893E1,3.8326584E1],"tree_param":{"num_deleted":"0","num_feature":"90","num_nodes":"11","size_leaf_vector":"1"}},{"base_weights":[9.610527E-3,-1.9037063E-1,6.552614E-1,4.380711E-2,-3.9790773E-1,9.1867644E-1,9.5427065E-4,-4.6597905E-3,2.3300587E-3,-6.4397412E-3,-4.8205824E-5,1.2350504E-2,3.3609997E-3],"categories":[],"categories_nodes":[],"categories_segments":[],"categories_sizes":[],"default_left":[0,0,0,0,0,0,0,0,0,0,0,0,0],"id":6,"left_children":[1,3,5,7,9,11,-1,-1,-1,-1,-1,-1,-1],"loss_changes":[2.0710157E1,6.071873E0,4.934799E0,5.629293E0,5.9810505E0,3.0037575E0,0E0,0E0,0E0,0E0,0E0,0E0,0E0],"parents":[2147483647,0,0,1,1,2,2,3,3,4,4,5,5],"right_children":[2,4,6,8,10,12,-1,-1,-1,-1,-1,-1,-1],"split_conditions":[2.3740866E0,5.194305E-1,1.7853426E1,2.4761018E-1,1.5737079E1,2.357462E2,9.5427065E-4,-4.6597905E-3,2.3300587E-3,-6.4397412E-3,-4.8205824E-5,1.2350504E-2,3.3609997E-3],"split_indices":[56,16,7,57,17,0,0,0,0,0,0,0,0],"split_type":[0,0,0,0,0,0,0,0,0,0,0,0,0],"sum_hessian":[1.5466461E2,1.1857391E2,3.6090694E1,5.5320637E1,6.325328E1,2.306364E1,1.3027056E1,1.3466722E1,4.1853912E1,3.733419E1,2.5919092E1,1.2938849E1,1.0124791E1],"tree_param":{"num_deleted":"0","num_feature":"90","num_nodes":"13","size_leaf_vector":"1"}},{"base_weights":[-1.3203714E-2,-1.18827626E-1,9.862724E-3,-3.4350726E-1,3.7083592E-2,-4.552521E-3,1.4047202E-3,3.3832248E-3,-2.137469E-3],"categories":[],"categories_nodes":[],"categories_segments":[],"categories_sizes":[],"default_left":[0,0,0,0,0,0,0,0,0],"id":7,"left_children":[1,3,-1,5,7,-1,-1,-1,-1],"loss_changes":[1.6676064E1,5.321501E0,0E0,3.6194973E0,6.7927647E0,0E0,0E0,0E0,0E0],"parents":[2147483647,0,0,1,1,3,3,4,4],"right_children":[2,4,-1,6,8,-1,-1,-1,-1],"split_conditions":[3.1064322E0,1.206659E0,9.862724E-3,1.8813658E0,2.8723486E2,-4.552521E-3,1.4047202E-3,3.3832248E-3,-2.137469E-3],"split_indices":[24,21,0,24,6,0,0,0,0],"split_type":[0,0,0,0,0,0,0,0,0],"sum_hessian":[1.5785242E2,1.4481134E2,1.3041076E1,5.9650726E1,8.5160614E1,4.9397312E1,1.0253418E1,3.92811E1,4.5879513E1],"tree_param":{"num_deleted":"0","num_feature":"90","num_nodes":"9","size_leaf_vector":"1"}},{"base_weights":[-3.3259537E-2,-2.2710663E-1,5.2867854E-1,4.304449E-2,-3.979116E-1,2.263577E-4,8.697974E-1,-4.730399E-3,2.3332895E-3,-6.015236E-3,6.4522435E-4,1.1987984E-2,3.160927E-3],"categories":[],"categories_nodes":[],"categories_segments":[],"categories_sizes":[],"default_left":[0,0,0,0,0,0,0,0,0,0,0,0,0],"id":8,"left_children":[1,3,5,7,9,-1,11,-1,-1,-1,-1,-1,-1],"loss_changes":[1.7301798E1,5.727933E0,6.4999332E0,4.7141976E0,7.367325E0,0E0,2.7709866E0,0E0,0E0,0E0,0E0,0E0,0E0],"parents":[2147483647,0,0,1,1,2,2,3,3,4,4,6,6],"right_children":[2,4,6,8,10,-1,12,-1,-1,-1,-1,-1,-1],"split_conditions":[2.2072587E0,6.666667E-1,-1.2016743E-1,2.6391083E-1,1.3961656E0,2.263577E-4,2.8713438E1,-4.730399E-3,2.3332895E-3,-6.015236E-3,6.4522435E-4,1.1987984E-2,3.160927E-3],"split_indices":[24,80,13,59,21,0,2,0,0,0,0,0,0],"split_type":[0,0,0,0,0,0,0,0,0,0,0,0,0],"sum_hessian":[1.560138E2,1.175463E2,3.8467487E1,4.4977303E1,7.2569E1,1.6938322E1,2.1529165E1,1.060773E1,3.436957E1,5.071751E1,2.185149E1,1.1476774E1,1.0052391E1],"tree_param":{"num_deleted":"0","num_feature":"90","num_nodes":"13","size_leaf_vector":"1"}},{"base_weights":[3.7204586E-3,-2.2323886E-1,4.4780597E-1,2.4176526E-3,-3.3562043E-1,9.0801455E-3,1.20435596E-1,-4.623918E-3,-0E0,-2.6943407E-3,4.3088E-3],"categories":[],"categories_nodes":[],"categories_segments":[],"categories_sizes":[],"default_left":[0,0,0,0,0,0,0,0,0,0,0],"id":9,"left_children":[1,3,5,-1,7,-1,9,-1,-1,-1,-1],"loss_changes":[1.6081694E1,5.6509194E0,7.452032E0,0E0,3.6126986E0,0E0,4.511094E0,0E0,0E0,0E0,0E0],"parents":[2147483647,0,0,1,1,2,2,4,4,6,6],"right_children":[2,4,6,-1,8,-1,10,-1,-1,-1,-1],"split_conditions":[2.0692585E0,6E-1,2.8368024E2,2.4176526E-3,1.3961656E0,9.0801455E-3,1.1877663E0,-4.623918E-3,-0E0,-2.6943407E-3,4.3088E-3],"split_indices":[56,80,6,0,21,0,23,0,0,0,0],"split_type":[0,0,0,0,0,0,0,0,0,0,0],"sum_hessian":[1.5445973E2,1.02131805E2,5.2327923E1,1.8564651E1,8.3567154E1,1.9641615E1,3.268631E1,5.9977047E1,2.3590105E1,1.3892772E1,1.8793537E1],"tree_param":{"num_deleted":"0","num_feature":"90","num_nodes":"11","size_leaf_vector":"1"}},{"base_weights":[-0E0,-1.66663E-1,5.528976E-1,-2.9519694E-3,-4.7842804E-1,1.04674315E-2,3.489985E-4,-3.7715621E-3,1.5173116E-3,-6.9786888E-3,-5.3401727E-5],"categories":[],"categories_nodes":[],"categories_segments":[],"categories_sizes":[],"default_left":[0,0,0,0,0,0,0,0,0,0,0],"id":10,"left_children":[1,3,5,7,9,-1,-1,-1,-1,-1,-1],"loss_changes":[1.4755892E1,6.1386166E0,8.827586E0,5.150333E0,4.000086E0,0E0,0E0,0E0,0E0,0E0,0E0],"parents":[2147483647,0,0,1,1,2,2,3,3,4,4],"right_children":[2,4,6,8,10,-1,-1,-1,-1,-1,-1],"split_conditions":[2.3022473E0,7.5E-1,2.2890392E2,4.617851E3,2.40605E-1,1.04674315E-2,3.489985E-4,-3.7715621E-3,1.5173116E-3,-6.9786888E-3,-5.3401727E-5],"split_indices":[24,80,0,26,51,0,0,0,0,0,0],"split_type":[0,0,0,0,0,0,0,0,0,0,0],"sum_hessian":[1.5795128E2,1.23043274E2,3.490801E1,8.305366E1,3.998962E1,1.6331362E1,1.8576649E1,2.4394709E1,5.8658947E1,2.5947E1,1.404262E1],"tree_param":{"num_deleted":"0","num_feature":"90","num_nodes":"11","size_leaf_vector":"1"}},{"base_weights":[6.20618E-4,-8.5979216E-2,1.0089641E-2,-5.911904E-1,4.3332907E-3,-1.7402766E-3,-8.836969E-3,4.5735794E-3,-7.225412E-4],"categories":[],"categories_nodes":[],"categories_segments":[],"categories_sizes":[],"default_left":[0,0,0,0,0,0,0,0,0],"id":11,"left_children":[1,3,-1,5,7,-1,-1,-1,-1],"loss_changes":[1.4546947E1,7.0560293E0,0E0,2.008438E0,4.6577015E0,0E0,0E0,0E0,0E0],"parents":[2147483647,0,0,1,1,3,3,4,4],"right_children":[2,4,-1,6,8,-1,-1,-1,-1],"split_conditions":[3.1064322E0,1.1598574E0,1.0089641E-2,1.9110811E-1,9.706557E-1,-1.7402766E-3,-8.836969E-3,4.5735794E-3,-7.225412E-4],"split_indices":[24,24,0,38,18,0,0,0,0],"split_type":[0,0,0,0,0,0,0,0,0],"sum_hessian":[1.5731717E2,1.4610297E2,1.1214197E1,2.1314297E1,1.24788666E2,1.0804524E1,1.0509773E1,1.7551905E1,1.0723676E2],"tree_param":{"num_deleted":"0","num_feature":"90","num_nodes":"9","size_leaf_vector":"1"}},{"base_weights":[3.402617E-2,-8.82811E-2,8.853347E-3,9.842006E-3,-4.760673E-1,-4.7678277E-3,1.3897166E-3,-7.677242E-3,-0E0],"categories":[],"categories_nodes":[],"categories_segments":[],"categories_sizes":[],"default_left":[0,0,0,0,0,0,0,0,0],"id":12,"left_children":[1,3,-1,5,7,-1,-1,-1,-1],"loss_changes":[1.688392E1,5.509919E0,0E0,6.9642177E0,4.0813036E0,0E0,0E0,0E0,0E0],"parents":[2147483647,0,0,1,1,3,3,4,4],"right_children":[2,4,-1,6,8,-1,-1,-1,-1],"split_conditions":[2.9597168E0,1.5468311E1,8.853347E-3,1.642435E0,2.4451227E1,-4.7678277E-3,1.3897166E-3,-7.677242E-3,-0E0],"split_indices":[56,32,0,25,33,0,0,0,0],"split_type":[0,0,0,0,0,0,0,0,0],"sum_hessian":[1.5482756E2,1.3643172E2,1.8395842E1,1.09407715E2,2.7024006E1,2.1002651E1,8.840507E1,1.6085E1,1.0939007E1],"tree_param":{"num_deleted":"0","num_feature":"90","num_nodes":"9","size_leaf_vector":"1"}},{"base_weights":[-1.698319E-2,-1.5474401E-1,7.0086044E-1,-5.6928605E-1,-1.1005233E-3,2.3466267E-3,1.1465028E-2,-8.501327E-3,-1.876339E-3,-4.7645257E-3,1.4372056E-3],"categories":[],"categories_nodes":[],"categories_segments":[],"categories_sizes":[],"default_left":[0,0,0,0,0,0,0,0,0,0,0],"id":13,"left_children":[1,3,5,7,9,-1,-1,-1,-1,-1,-1],"loss_changes":[1.5843534E1,8.446688E0,4.103339E0,3.0415392E0,7.388575E0,0E0,0E0,0E0,0E0,0E0,0E0],"parents":[2147483647,0,0,1,1,2,2,3,3,4,4],"right_children":[2,4,6,8,10,-1,-1,-1,-1,-1,-1],"split_conditions":[3.8894758E0,1.5887222E1,1.0349672E0,-4.68833E-2,2.5746664E-1,2.3466267E-3,1.1465028E-2,-8.501327E-3,-1.876339E-3,-4.7645257E-3,1.4372056E-3],"split_indices":[25,33,57,15,57,0,0,0,0,0,0],"split_type":[0,0,0,0,0,0,0,0,0,0,0],"sum_hessian":[1.5878033E2,1.3511577E2,2.3664568E1,3.4193714E1,1.0092205E2,1.3606052E1,1.0058516E1,1.7529305E1,1.6664408E1,2.330378E1,7.761827E1],"tree_param":{"num_deleted":"0","num_feature":"90","num_nodes":"11","size_leaf_vector":"1"}},{"base_weights":[-7.1456204E-3,-2.4408934E-1,4.4871956E-1,2.4340528E-3,-3.5624188E-1,2.336165E-1,9.975103E-3,-5.002863E-3,-1.2845189E-5,5.457658E-3,-3.733691E-4],"categories":[],"categories_nodes":[],"categories_segments":[],"categories_sizes":[],"default_left":[0,0,0,0,0,0,0,0,0,0,0],"id":14,"left_children":[1,3,5,-1,7,9,-1,-1,-1,-1,-1],"loss_changes":[1.7407944E1,6.099101E0,5.3792725E0,0E0,4.2942905E0,3.8968225E0,0E0,0E0,0E0,0E0,0E0],"parents":[2147483647,0,0,1,1,2,2,4,4,5,5],"right_children":[2,4,6,-1,8,10,-1,-1,-1,-1,-1],"split_conditions":[2.0692585E0,6E-1,3.383348E0,2.4340528E-3,1.3127818E1,5.16158E-1,9.975103E-3,-5.002863E-3,-1.2845189E-5,5.457658E-3,-3.733691E-4],"split_indices":[56,80,56,0,31,16,0,0,0,0,0],"split_type":[0,0,0,0,0,0,0,0,0,0,0],"sum_hessian":[1.580824E2,1.0535057E2,5.273183E1,1.8432222E1,8.691835E1,4.0586212E1,1.2145618E1,6.024358E1,2.6674768E1,1.8774303E1,2.1811907E1],"tree_param":{"num_deleted":"0","num_feature":"90","num_nodes":"11","size_leaf_vector":"1"}},{"base_weights":[-1.9289913E-2,-1.15802705E-1,9.488111E-3,-2.9319173E-1,9.2615046E-2,-3.9217817E-3,2.456004E-3,-1.1660985E-3,4.8095393E-3],"categories":[],"categories_nodes":[],"categories_segments":[],"categories_sizes":[],"default_left":[0,0,0,0,0,0,0,0,0],"id":15,"left_children":[1,3,-1,5,7,-1,-1,-1,-1],"loss_changes":[1.4658509E1,5.58307E0,0E0,4.5910196E0,5.797795E0,0E0,0E0,0E0,0E0],"parents":[2147483647,0,0,1,1,3,3,4,4],"right_children":[2,4,-1,6,8,-1,-1,-1,-1],"split_conditions":[3.1064322E0,6.7953026E-1,9.488111E-3,2.6344427E2,7.56066E-1,-3.9217817E-3,2.456004E-3,-1.1660985E-3,4.8095393E-3],"split_indices":[24,59,0,85,52,0,0,0,0],"split_type":[0,0,0,0,0,0,0,0,0],"sum_hessian":[1.5699182E2,1.4483049E2,1.2161332E1,7.90958E1,6.573469E1,6.806347E1,1.10323305E1,4.279174E1,2.2942947E1],"tree_param":{"num_deleted":"0","num_feature":"90","num_nodes":"9","size_leaf_vector":"1"}},{"base_weights":[-1.6816972E-2,-1.21683285E-1,4.9871188E-1,1.9145392E-1,-2.617452E-1,-0E0,9.4512785E-3,-1.0231684E-3,6.1100456E-3,-1.2389314E-4,-5.9237974E-3],"categories":[],"categories_nodes":[],"categories_segments":[],"categories_sizes":[],"default_left":[0,0,0,0,0,0,0,0,0,0,0],"id":16,"left_children":[1,3,5,7,9,-1,-1,-1,-1,-1,-1],"loss_changes":[8.380045E0,5.935821E0,5.5715475E0,5.4234495E0,7.377466E0,0E0,0E0,0E0,0E0,0E0,0E0],"parents":[2147483647,0,0,1,1,2,2,3,3,4,4],"right_children":[2,4,6,8,10,-1,-1,-1,-1,-1,-1],"split_conditions":[3.6677752E0,2.9327986E-1,-9.044585E-1,2.5239979E1,2.60528E1,-0E0,9.4512785E-3,-1.0231684E-3,6.1100456E-3,-1.2389314E-4,-5.9237974E-3],"split_indices":[25,16,52,2,2,0,0,0,0,0,0],"split_type":[0,0,0,0,0,0,0,0,0,0,0],"sum_hessian":[1.5425116E2,1.3025345E2,2.3997704E1,3.8924976E1,9.1328476E1,1.2521854E1,1.1475848E1,2.3082817E1,1.5842161E1,5.410847E1,3.7220005E1],"tree_param":{"num_deleted":"0","num_feature":"90","num_nodes":"11","size_leaf_vector":"1"}},{"base_weights":[-1.6608443E-2,-1.700625E-1,6.263214E-1,-4.432349E-1,-0E0,-0E0,1.148637E-2,-6.6829217E-3,-1.011098E-3,-1.2346967E-3,4.973385E-3],"categories":[],"categories_nodes":[],"categories_segments":[],"categories_sizes":[],"default_left":[0,0,0,0,0,0,0,0,0,0,0],"id":17,"left_children":[1,3,5,7,9,-1,-1,-1,-1,-1,-1],"loss_changes":[1.5572202E1,5.876697E0,9.713925E0,3.2541294E0,5.0758796E0,0E0,0E0,0E0,0E0,0E0,0E0],"parents":[2147483647,0,0,1,1,2,2,3,3,4,4],"right_children":[2,4,6,8,10,-1,-1,-1,-1,-1,-1],"split_conditions":[3.5137677E0,-4.57056E-1,-4.222979E-1,4.8217306E-1,3.5456792E-1,-0E0,1.148637E-2,-6.6829217E-3,-1.011098E-3,-1.2346967E-3,4.973385E-3],"split_indices":[25,51,15,14,30,0,0,0,0,0,0],"split_type":[0,0,0,0,0,0,0,0,0,0,0],"sum_hessian":[1.5598979E2,1.2774773E2,2.8242075E1,4.701406E1,8.0733665E1,1.3887839E1,1.4354235E1,2.6327257E1,2.0686804E1,6.6429825E1,1.4303841E1],"tree_param":{"num_deleted":"0","num_feature":"90","num_nodes":"11","size_leaf_vector":"1"}},{"base_weights":[-4.1246194E-2,-2.1885043E-1,4.763897E-1,-4.3035582E-1,-1.8819368E-2,6.241838E-2,8.913348E-3,-6.8232077E-3,-1.6102844E-3,1.5108567E-3,-4.516628E-3,4.358098E-3,-2.6550922E-3],"categories":[],"categories_nodes":[],"categories_segments":[],"categories_sizes":[],"default_left":[0,0,0,0,0,0,0,0,0,0,0,0,0],"id":18,"left_children":[1,3,5,7,9,11,-1,-1,-1,-1,-1,-1,-1],"loss_changes":[1.4998397E1,4.9592614E0,6.5173006E0,3.3240595E0,5.175495E0,3.1892E0,0E0,0E0,0E0,0E0,0E0,0E0,0E0],"parents":[2147483647,0,0,1,1,2,2,3,3,4,4,5,5],"right_children":[2,4,6,8,10,12,-1,-1,-1,-1,-1,-1,-1],"split_conditions":[2.238327E0,4.9255386E-1,4E3,-2.350593E0,4.6697144E3,3.0765E3,8.913348E-3,-6.8232077E-3,-1.6102844E-3,1.5108567E-3,-4.516628E-3,4.358098E-3,-2.6550922E-3],"split_indices":[24,59,81,50,81,81,0,0,0,0,0,0,0],"split_type":[0,0,0,0,0,0,0,0,0,0,0,0,0],"sum_hessian":[1.6027509E2,1.20910324E2,3.9364765E1,5.6435272E1,6.447505E1,2.146048E1,1.7904285E1,2.6613811E1,2.9821459E1,4.6405956E1,1.8069096E1,1.0439927E1,1.1020553E1],"tree_param":{"num_deleted":"0","num_feature":"90","num_nodes":"13","size_leaf_vector":"1"}},{"base_weights":[-0E0,-1.631569E-1,5.185951E-1,-1.9374518E-3,-4.2935413E-1,7.015641E-4,9.5471945E-3,-3.6753386E-3,2.8536448E-3,-5.442931E-4,-8.414459E-3],"categories":[],"categories_nodes":[],"categories_segments":[],"categories_sizes":[],"default_left":[0,0,0,0,0,0,0,0,0,0,0],"id":19,"left_children":[1,3,5,7,9,-1,-1,-1,-1,-1,-1],"loss_changes":[1.37039995E1,5.012204E0,6.960326E0,8.556113E0,6.37973E0,0E0,0E0,0E0,0E0,0E0,0E0],"parents":[2147483647,0,0,1,1,2,2,3,3,4,4],"right_children":[2,4,6,8,10,-1,-1,-1,-1,-1,-1],"split_conditions":[2.3022473E0,7.3333335E-1,4E3,-2.673251E0,1.3208508E1,7.015641E-4,9.5471945E-3,-3.6753386E-3,2.8536448E-3,-5.442931E-4,-8.414459E-3],"split_indices":[24,80,81,50,32,0,0,0,0,0,0],"split_type":[0,0,0,0,0,0,0,0,0,0,0],"sum_hessian":[1.5674828E2,1.1985415E2,3.6894127E1,7.707025E1,4.2783894E1,1.9900208E1,1.699392E1,3.4434105E1,4.263615E1,2.422304E1,1.8560854E1],"tree_param":{"num_deleted":"0","num_feature":"90","num_nodes":"11","size_leaf_vector":"1"}},{"base_weights":[3.4586634E-2,-2.320567E-1,3.4873557E-1,-4.6472448E-1,8.221375E-2,5.527418E-1,-1.559315E-1,1.9766747E-3,-6.5094316E-3,-2.180711E-3,4.3149823E-3,9.925604E-3,1.8401404E-3,-4.596874E-3,1.4398359E-3],"categories":[],"categories_nodes":[],"categories_segments":[],"categories_sizes":[],"default_left":[0,0,0,0,0,0,0,0,0,0,0,0,0,0,0],"id":20,"left_children":[1,3,5,7,9,11,13,-1,-1,-1,-1,-1,-1,-1,-1],"loss_changes":[1.3789422E1,6.6993623E0,8.198487E0,6.868148E0,4.30187E0,8.012812E0,2.3619761E0,0E0,0E0,0E0,0E0,0E0,0E0,0E0,0E0],"parents":[2147483647,0,0,1,1,2,2,3,3,4,4,5,5,6,6],"right_children":[2,4,6,8,10,12,14,-1,-1,-1,-1,-1,-1,-1,-1],"split_conditions":[6.7953026E-1,-2.810455E-1,2.8E1,-1.0845831E1,1.4323169E1,2.0527428E-2,5.528363E3,1.9766747E-3,-6.5094316E-3,-2.180711E-3,4.3149823E-3,9.925604E-3,1.8401404E-3,-4.596874E-3,1.4398359E-3],"split_indices":[59,50,79,11,7,40,88,0,0,0,0,0,0,0,0],"split_type":[0,0,0,0,0,0,0,0,0,0,0,0,0,0,0],"sum_hessian":[1.5999023E2,8.596007E1,7.403016E1,4.975663E1,3.620344E1,5.3288918E1,2.0741241E1,1.0302388E1,3.945424E1,1.9101467E1,1.7101974E1,2.2140272E1,3.1148645E1,1.0603568E1,1.0137673E1],"tree_param":{"num_deleted":"0","num_feature":"90","num_nodes":"15","size_leaf_vector":"1"}},{"base_weights":[3.0870656E-3,-1.3331638E-1,5.202968E-1,-3.9717424E-1,9.83598E-2,-0E0,8.888084E-3,-6.8011116E-3,1.0344985E-4,-3.5647E-3,2.8260313E-3],"categories":[],"categories_nodes":[],"categories_segments":[],"categories_sizes":[],"default_left":[0,0,0,0,0,0,0,0,0,0,0],"id":21,"left_children":[1,3,5,7,9,-1,-1,-1,-1,-1,-1],"loss_changes":[1.1522496E1,7.9507623E0,7.0039835E0,7.321784E0,5.8517947E0,0E0,0E0,0E0,0E0,0E0,0E0],"parents":[2147483647,0,0,1,1,2,2,3,3,4,4],"right_children":[2,4,6,8,10,-1,-1,-1,-1,-1,-1],"split_conditions":[1.0525063E0,7.4558365E-1,-1.4991465E0,-6.712995E-1,-8.22683E-1,-0E0,8.888084E-3,-6.8011116E-3,1.0344985E-4,-3.5647E-3,2.8260313E-3],"split_indices":[57,23,15,50,51,0,0,0,0,0,0],"split_type":[0,0,0,0,0,0,0,0,0,0,0],"sum_hessian":[1.5661667E2,1.2434182E2,3.227485E1,5.847437E1,6.586745E1,1.3663596E1,1.8611252E1,3.4447147E1,2.4027222E1,1.7668064E1,4.8199383E1],"tree_param":{"num_deleted":"0","num_feature":"90","num_nodes":"11","size_leaf_vector":"1"}},{"base_weights":[6.02592E-2,-1.1008835E-1,6.628613E-1,-4.922803E-1,-0E0,1.758884E-3,1.1396287E-2,-8.041137E-3,-1.9769087E-3,1.5257448E-3,-3.1784212E-3],"categories":[],"categories_nodes":[],"categories_segments":[],"categories_sizes":[],"default_left":[0,0,0,0,0,0,0,0,0,0,0],"id":22,"left_children":[1,3,5,7,9,-1,-1,-1,-1,-1,-1],"loss_changes":[1.6370302E1,5.2546563E0,7.1070824E0,1.7343726E0,4.7335124E0,0E0,0E0,0E0,0E0,0E0,0E0],"parents":[2147483647,0,0,1,1,2,2,3,3,4,4],"right_children":[2,4,6,8,10,-1,-1,-1,-1,-1,-1],"split_conditions":[2.3022473E0,1.2059677E0,4E3,2.2480793E-1,7.5E-1,1.758884E-3,1.1396287E-2,-8.041137E-3,-1.9769087E-3,1.5257448E-3,-3.1784212E-3],"split_indices":[24,24,81,57,80,0,0,0,0,0,0],"split_type":[0,0,0,0,0,0,0,0,0,0,0],"sum_hessian":[1.533599E2,1.2018897E2,3.317093E1,2.5793688E1,9.439529E1,1.828307E1,1.4887857E1,1.0025182E1,1.5768505E1,6.497227E1,2.9423014E1],"tree_param":{"num_deleted":"0","num_feature":"90","num_nodes":"11","size_leaf_vector":"1"}},{"base_weights":[-0E0,-1.2703216E-1,6.603991E-1,-6.5335643E-1,-2.7245656E-3,2.2104846E-3,9.711452E-3,-9.681659E-3,-1.77288E-3,5.858613E-3,-1.0856865E-3],"categories":[],"categories_nodes":[],"categories_segments":[],"categories_sizes":[],"default_left":[0,0,0,0,0,0,0,0,0,0,0],"id":23,"left_children":[1,3,5,7,9,-1,-1,-1,-1,-1,-1],"loss_changes":[1.3808654E1,8.598446E0,2.6077642E0,2.875804E0,6.9401145E0,0E0,0E0,0E0,0E0,0E0,0E0],"parents":[2147483647,0,0,1,1,2,2,3,3,4,4],"right_children":[2,4,6,8,10,-1,-1,-1,-1,-1,-1],"split_conditions":[2.6118152E0,1.1598574E0,4.2E1,1.1232752E1,5.0293994E-1,2.2104846E-3,9.711452E-3,-9.681659E-3,-1.77288E-3,5.858613E-3,-1.0856865E-3],"split_indices":[24,24,77,32,22,0,0,0,0,0,0],"split_type":[0,0,0,0,0,0,0,0,0,0,0],"sum_hessian":[1.5910228E2,1.3449057E2,2.4611704E1,2.3300583E1,1.1118999E2,1.2280524E1,1.2331181E1,1.2149128E1,1.1151455E1,1.4844935E1,9.6345055E1],"tree_param":{"num_deleted":"0","num_feature":"90","num_nodes":"11","size_leaf_vector":"1"}},{"base_weights":[3.9261296E-2,-1.2414506E-1,6.970756E-1,-4.376334E-1,-3.1144242E-3,2.1813503E-3,1.01791425E-2,-9.7484794E-4,-8.395164E-3,-5.1923566E-3,9.520099E-4],"categories":[],"categories_nodes":[],"categories_segments":[],"categories_sizes":[],"default_left":[0,0,0,0,0,0,0,0,0,0,0],"id":24,"left_children":[1,3,5,7,9,-1,-1,-1,-1,-1,-1],"loss_changes":[1.7497124E1,4.635424E0,3.9242382E0,4.084323E0,5.1593323E0,0E0,0E0,0E0,0E0,0E0,0E0],"parents":[2147483647,0,0,1,1,2,2,3,3,4,4],"right_children":[2,4,6,8,10,-1,-1,-1,-1,-1,-1],"split_conditions":[3.3915863E0,1.5724148E1,-7.27303E-1,2.296422E0,-1.303613E1,2.1813503E-3,1.01791425E-2,-9.7484794E-4,-8.395164E-3,-5.1923566E-3,9.520099E-4],"split_indices":[25,33,52,35,50,0,0,0,0,0,0],"split_type":[0,0,0,0,0,0,0,0,0,0,0],"sum_hessian":[1.5650233E2,1.26052376E2,3.0449963E1,3.2502598E1,9.354978E1,1.4188255E1,1.6261705E1,1.9623123E1,1.2879473E1,1.4412461E1,7.913732E1],"tree_param":{"num_deleted":"0","num_feature":"90","num_nodes":"11","size_leaf_vector":"1"}},{"base_weights":[4.4455417E-2,-6.442358E-2,7.5234634E-1,2.4825832E-1,-2.079713E-1,1.1290164E-2,2.0272017E-3,-2.2247832E-3,9.104818E-3,-8.278295E-5,-5.5585527E-3],"categories":[],"categories_nodes":[],"categories_segments":[],"categories_sizes":[],"default_left":[0,0,0,0,0,0,0,0,0,0,0],"id":25,"left_children":[1,3,5,7,9,-1,-1,-1,-1,-1,-1],"loss_changes":[1.2846565E1,6.399785E0,3.4778185E0,1.4495038E1,6.560945E0,0E0,0E0,0E0,0E0,0E0,0E0],"parents":[2147483647,0,0,1,1,2,2,3,3,4,4],"right_children":[2,4,6,8,10,-1,-1,-1,-1,-1,-1],"split_conditions":[2.924848E0,2.8428698E-1,2.276444E0,1.3087922E0,2.419706E0,1.1290164E-2,2.0272017E-3,-2.2247832E-3,9.104818E-3,-8.278295E-5,-5.5585527E-3],"split_indices":[56,16,11,34,35,0,0,0,0,0,0],"split_type":[0,0,0,0,0,0,0,0,0,0,0],"sum_hessian":[1.5895691E2,1.3873073E2,2.022618E1,4.209516E1,9.663557E1,1.0210618E1,1.0015561E1,2.4939886E1,1.7155275E1,6.3608025E1,3.3027542E1],"tree_param":{"num_deleted":"0","num_feature":"90","num_nodes":"11","size_leaf_vector":"1"}},{"base_weights":[-3.243475E-2,-1.6499795E-1,7.218842E-1,2.13932E-1,-3.0670044E-1,1.0844883E-2,2.2303334E-3,-2.1345092E-3,7.809906E-3,-1.1774943E-3,-6.24827E-3],"categories":[],"categories_nodes":[],"categories_segments":[],"categories_sizes":[],"default_left":[0,0,0,0,0,0,0,0,0,0,0],"id":26,"left_children":[1,3,5,7,9,-1,-1,-1,-1,-1,-1],"loss_changes":[1.5852599E1,7.5538216E0,3.1249895E0,9.731217E0,5.5986843E0,0E0,0E0,0E0,0E0,0E0,0E0],"parents":[2147483647,0,0,1,1,2,2,3,3,4,4],"right_children":[2,4,6,8,10,-1,-1,-1,-1,-1,-1],"split_conditions":[2.6118152E0,2.4173793E-1,6.418494E3,1.337469E0,7.5E-1,1.0844883E-2,2.2303334E-3,-2.1345092E-3,7.809906E-3,-1.1774943E-3,-6.24827E-3],"split_indices":[24,16,26,34,80,0,0,0,0,0,0],"split_type":[0,0,0,0,0,0,0,0,0,0,0],"sum_hessian":[1.5693628E2,1.353716E2,2.1564686E1,3.560676E1,9.976484E1,1.0547606E1,1.1017079E1,2.0512352E1,1.5094406E1,6.529494E1,3.44699E1],"tree_param":{"num_deleted":"0","num_feature":"90","num_nodes":"11","size_leaf_vector":"1"}},{"base_weights":[-5.2623685E-2,-1.4337473E-1,8.572466E-3,-2.34211E-1,3.759268E-1,2.2189713E-3,-3.3265422E-3,8.171237E-3,-8.1447937E-4],"categories":[],"categories_nodes":[],"categories_segments":[],"categories_sizes":[],"default_left":[0,0,0,0,0,0,0,0,0],"id":27,"left_children":[1,3,-1,5,7,-1,-1,-1,-1],"loss_changes":[1.364339E1,7.354637E0,0E0,6.1682534E0,5.1074934E0,0E0,0E0,0E0,0E0],"parents":[2147483647,0,0,1,1,3,3,4,4],"right_children":[2,4,-1,6,8,-1,-1,-1,-1],"split_conditions":[3.1064322E0,5.9E1,8.572466E-3,2.3625E3,1.3550852E1,2.2189713E-3,-3.3265422E-3,8.171237E-3,-8.1447937E-4],"split_indices":[24,76,0,81,7,0,0,0,0],"split_type":[0,0,0,0,0,0,0,0,0],"sum_hessian":[1.6457663E2,1.5168213E2,1.2894499E1,1.3085396E2,2.0828175E1,2.1882156E1,1.08971794E2,1.0357307E1,1.0470868E1],"tree_param":{"num_deleted":"0","num_feature":"90","num_nodes":"9","size_leaf_vector":"1"}},{"base_weights":[1.3953699E-2,-6.0594983E-2,7.4194255E-3,3.4728527E-1,-1.4928807E-1,-3.2504796E-4,6.4526675E-3,-4.928585E-3,-2.0594691E-4],"categories":[],"categories_nodes":[],"categories_segments":[],"categories_sizes":[],"default_left":[0,0,0,0,0,0,0,0,0],"id":28,"left_children":[1,3,-1,5,7,-1,-1,-1,-1],"loss_changes":[8.817467E0,5.1203213E0,0E0,3.1607766E0,4.965017E0,0E0,0E0,0E0,0E0],"parents":[2147483647,0,0,1,1,3,3,4,4],"right_children":[2,4,-1,6,8,-1,-1,-1,-1],"split_conditions":[3.1064322E0,2.3625E3,7.4194255E-3,1.3884933E0,7.4056435E1,-3.2504796E-4,6.4526675E-3,-4.928585E-3,-2.0594691E-4],"split_indices":[24,81,0,24,87,0,0,0,0],"split_type":[0,0,0,0,0,0,0,0,0],"sum_hessian":[1.5253809E2,1.3940883E2,1.3129262E1,2.2851439E1,1.1655739E2,1.0092278E1,1.2759161E1,2.9161314E1,8.739607E1],"tree_param":{"num_deleted":"0","num_feature":"90","num_nodes":"9","size_leaf_vector":"1"}},{"base_weights":[-0E0,-5.741793E-1,1.08171955E-1,-8.129155E-3,-1.5151198E-3,-2.3349012E-1,2.3870283E-1,8.8839827E-4,-5.9734127E-3,5.014819E-4,6.255616E-3],"categories":[],"categories_nodes":[],"categories_segments":[],"categories_sizes":[],"default_left":[0,0,0,0,0,0,0,0,0,0,0],"id":29,"left_children":[1,3,5,-1,-1,7,9,-1,-1,-1,-1],"loss_changes":[9.860948E0,1.800827E0,6.2005863E0,0E0,0E0,4.779401E0,6.9519796E0,0E0,0E0,0E0,0E0],"parents":[2147483647,0,0,1,1,2,2,5,5,6,6],"right_children":[2,4,6,-1,-1,8,10,-1,-1,-1,-1],"split_conditions":[1.1598574E0,-2.1271095E0,-2.755354E0,-8.129155E-3,-1.5151198E-3,5.926064E3,3.0426097E0,8.8839827E-4,-5.9734127E-3,5.014819E-4,6.255616E-3],"split_indices":[24,11,52,0,0,26,25,0,0,0,0],"split_type":[0,0,0,0,0,0,0,0,0,0,0],"sum_hessian":[1.5754327E2,2.3066624E1,1.3447665E2,1.2804605E1,1.0262019E1,3.567914E1,9.8797516E1,1.8991951E1,1.6687185E1,6.8810875E1,2.9986645E1],"tree_param":{"num_deleted":"0","num_feature":"90","num_nodes":"11","size_leaf_vector":"1"}},{"base_weights":[-0E0,-1.0215921E-1,7.035113E-3,-4.944867E-1,1.6315749E-2,-1.5124764E-3,-9.613254E-3,-2.4697757E-3,3.1728786E-3],"categories":[],"categories_nodes":[],"categories_segments":[],"categories_sizes":[],"default_left":[0,0,0,0,0,0,0,0,0],"id":30,"left_children":[1,3,-1,5,7,-1,-1,-1,-1],"loss_changes":[1.1793344E1,6.883089E0,0E0,4.6195116E0,8.946553E0,0E0,0E0,0E0,0E0],"parents":[2147483647,0,0,1,1,3,3,4,4],"right_children":[2,4,-1,6,8,-1,-1,-1,-1],"split_conditions":[2.7804577E0,2.6257637E-1,7.035113E-3,4.6632E3,5.89745E-1,-1.5124764E-3,-9.613254E-3,-2.4697757E-3,3.1728786E-3],"split_indices":[24,57,0,81,59,0,0,0,0],"split_type":[0,0,0,0,0,0,0,0,0],"sum_hessian":[1.5941466E2,1.4059311E2,1.8821548E1,3.2115623E1,1.0847748E2,2.0651089E1,1.1464534E1,5.7165802E1,5.131168E1],"tree_param":{"num_deleted":"0","num_feature":"90","num_nodes":"9","size_leaf_vector":"1"}},{"base_weights":[-2.816765E-2,-1.6321582E-1,4.3825322E-1,-6.7272284E-3,-6.2299166E-2,7.715211E-1,-1.1905972E-3,4.212551E-3,-2.067232E-3,2.2213252E-3,1.1180475E-2],"categories":[],"categories_nodes":[],"categories_segments":[],"categories_sizes":[],"default_left":[0,0,0,0,0,0,0,0,0,0,0],"id":31,"left_children":[1,3,5,-1,7,9,-1,-1,-1,-1,-1],"loss_changes":[1.0125178E1,6.0721803E0,7.1562147E0,0E0,7.673608E0,3.2541027E0,0E0,0E0,0E0,0E0,0E0],"parents":[2147483647,0,0,1,1,2,2,4,4,5,5],"right_children":[2,4,6,-1,8,10,-1,-1,-1,-1,-1],"split_conditions":[3.3707068E0,1.3914397E-1,2.080371E1,-6.7272284E-3,-4.6465808E-1,-5.63632E-1,-1.1905972E-3,4.212551E-3,-2.067232E-3,2.2213252E-3,1.1180475E-2],"split_indices":[25,58,33,0,38,52,0,0,0,0,0],"split_type":[0,0,0,0,0,0,0,0,0,0,0],"sum_hessian":[1.5865648E2,1.2487277E2,3.378371E1,1.7951677E1,1.0692109E2,2.122175E1,1.2561961E1,2.291212E1,8.400897E1,1.0035792E1,1.1185958E1],"tree_param":{"num_deleted":"0","num_feature":"90","num_nodes":"11","size_leaf_vector":"1"}},{"base_weights":[-3.2409623E-2,-3.167481E-1,2.966863E-1,-4.1038948E-1,2.2868966E-3,-2.8859E-1,5.35577E-1,9.406162E-4,-5.4224315E-3,-6.0434276E-3,3.7279312E-4,8.692334E-3,1.8257478E-3],"categories":[],"categories_nodes":[],"categories_segments":[],"categories_sizes":[],"default_left":[0,0,0,0,0,0,0,0,0,0,0,0,0],"id":32,"left_children":[1,3,5,7,-1,9,11,-1,-1,-1,-1,-1,-1],"loss_changes":[1.5164993E1,4.7523155E0,1.0828891E1,5.3980913E0,0E0,2.6175427E0,5.529916E0,0E0,0E0,0E0,0E0,0E0,0E0],"parents":[2147483647,0,0,1,1,2,2,3,3,5,5,6,6],"right_children":[2,4,6,8,-1,10,12,-1,-1,-1,-1,-1,-1],"split_conditions":[6.7953026E-1,1.108327E0,-7.235625E-1,6E-1,2.2868966E-3,1.2736124E0,3.74095E-1,9.406162E-4,-5.4224315E-3,-6.0434276E-3,3.7279312E-4,8.692334E-3,1.8257478E-3],"split_indices":[59,57,51,80,0,3,51,0,0,0,0,0,0],"split_type":[0,0,0,0,0,0,0,0,0,0,0,0,0],"sum_hessian":[1.5794731E2,8.559108E1,7.235624E1,7.4254814E1,1.1336262E1,2.0245697E1,5.2110542E1,1.4719919E1,5.9534897E1,1.0193704E1,1.0051993E1,2.4557583E1,2.7552961E1],"tree_param":{"num_deleted":"0","num_feature":"90","num_nodes":"13","size_leaf_vector":"1"}},{"base_weights":[3.3378072E-2,-1.0432571E-1,4.982717E-1,-2.7092972E-1,1.4669088E-1,7.5655174E-5,9.237598E-3,-4.768125E-3,2.8665052E-5,6.8138996E-3,-3.828315E-4],"categories":[],"categories_nodes":[],"categories_segments":[],"categories_sizes":[],"default_left":[0,0,0,0,0,0,0,0,0,0,0],"id":33,"left_children":[1,3,5,7,9,-1,-1,-1,-1,-1,-1],"loss_changes":[1.0564744E1,5.348836E0,7.415457E0,4.565577E0,5.2965918E0,0E0,0E0,0E0,0E0,0E0,0E0],"parents":[2147483647,0,0,1,1,2,2,3,3,4,4],"right_children":[2,4,6,8,10,-1,-1,-1,-1,-1,-1],"split_conditions":[2.3022473E0,6.7953026E-1,-6.609575E-1,-2.810455E-1,8.4571725E-1,7.5655174E-5,9.237598E-3,-4.768125E-3,2.8665052E-5,6.8138996E-3,-3.828315E-4],"split_indices":[24,59,52,50,59,0,0,0,0,0,0],"split_type":[0,0,0,0,0,0,0,0,0,0,0],"sum_hessian":[1.5832785E2,1.22514206E2,3.5813644E1,7.474074E1,4.7773468E1,1.8123217E1,1.7690428E1,4.28572E1,3.1883541E1,1.1594179E1,3.617929E1],"tree_param":{"num_deleted":"0","num_feature":"90","num_nodes":"11","size_leaf_vector":"1"}},{"base_weights":[2.6595477E-2,-9.213634E-2,7.880456E-1,-4.822361E-1,1.4066395E-2,3.7240195E-3,1.02948295E-2,-6.209353E-4,-8.082943E-3,-3.3400075E-3,2.6132348E-3],"categories":[],"categories_nodes":[],"categories_segments":[],"categories_sizes":[],"default_left":[0,0,0,0,0,0,0,0,0,0,0],"id":34,"left_children":[1,3,5,7,9,-1,-1,-1,-1,-1,-1],"loss_changes":[1.4800387E1,5.9701824E0,7.5254345E-1,3.659297E0,9.562444E0,0E0,0E0,0E0,0E0,0E0,0E0],"parents":[2147483647,0,0,1,1,2,2,3,3,4,4],"right_children":[2,4,6,8,10,-1,-1,-1,-1,-1,-1],"split_conditions":[2.924848E0,2.5106195E-1,-2.100185E-1,2.1861455E0,-1.4441762E0,3.7240195E-3,1.02948295E-2,-6.209353E-4,-8.082943E-3,-3.3400075E-3,2.6132348E-3],"split_indices":[56,57,51,25,15,0,0,0,0,0,0],"split_type":[0,0,0,0,0,0,0,0,0,0,0],"sum_hessian":[1.5625107E2,1.3612642E2,2.0124641E1,2.862152E1,1.075049E2,1.0023908E1,1.0100734E1,1.4216798E1,1.4404722E1,4.351891E1,6.3985992E1],"tree_param":{"num_deleted":"0","num_feature":"90","num_nodes":"11","size_leaf_vector":"1"}},{"base_weights":[-7.947485E-3,-8.084235E-2,7.0765507E-3,-1.1955499E-2,-6.5927384E-3,3.688278E-3,-1.2419303E-3],"categories":[],"categories_nodes":[],"categories_segments":[],"categories_sizes":[],"default_left":[0,0,0,0,0,0,0],"id":35,"left_children":[1,3,-1,5,-1,-1,-1],"loss_changes":[8.304147E0,5.6402264E0,0E0,5.831911E0,0E0,0E0,0E0],"parents":[2147483647,0,0,1,1,3,3],"right_children":[2,4,-1,6,-1,-1,-1],"split_conditions":[3.1064322E0,1.0455459E1,7.0765507E-3,1.6412446E-1,-6.5927384E-3,3.688278E-3,-1.2419303E-3],"split_indices":[24,19,0,16,0,0,0],"split_type":[0,0,0,0,0,0,0],"sum_hessian":[1.6100851E2,1.483678E2,1.2640718E1,1.3517519E2,1.3192606E1,2.8717953E1,1.0645724E2],"tree_param":{"num_deleted":"0","num_feature":"90","num_nodes":"7","size_leaf_vector":"1"}},{"base_weights":[2.5077563E-2,-4.1984994E-2,8.168898E-3,-1.938746E-1,2.0757072E-1,-4.8724157E-3,3.1167566E-4,3.8372907E-3,-4.1530468E-3],"categories":[],"categories_nodes":[],"categories_segments":[],"categories_sizes":[],"default_left":[0,0,0,0,0,0,0,0,0],"id":36,"left_children":[1,3,-1,5,7,-1,-1,-1,-1],"loss_changes":[8.786429E0,5.6058207E0,0E0,6.398776E0,6.331346E0,0E0,0E0,0E0,0E0],"parents":[2147483647,0,0,1,1,3,3,4,4],"right_children":[2,4,-1,6,8,-1,-1,-1,-1],"split_conditions":[3.383348E0,6.411473E-1,8.168898E-3,-1.663812E0,8.901747E0,-4.8724157E-3,3.1167566E-4,3.8372907E-3,-4.1530468E-3],"split_indices":[56,12,0,50,37,0,0,0,0],"split_type":[0,0,0,0,0,0,0,0,0],"sum_hessian":[1.5487822E2,1.4394896E2,1.0929272E1,9.1007774E1,5.2941177E1,3.9459545E1,5.1548233E1,4.2493885E1,1.044729E1],"tree_param":{"num_deleted":"0","num_feature":"90","num_nodes":"9","size_leaf_vector":"1"}},{"base_weights":[-5.164628E-2,-2.848668E-1,2.142166E-1,-4.5994005E-1,4.0541995E-2,3.795465E-1,-2.8018795E-3,-6.488577E-3,6.786683E-4,-3.054823E-3,4.253859E-3,2.892255E-4,6.491726E-3],"categories":[],"categories_nodes":[],"categories_segments":[],"categories_sizes":[],"default_left":[0,0,0,0,0,0,0,0,0,0,0,0,0],"id":37,"left_children":[1,3,5,7,9,11,-1,-1,-1,-1,-1,-1,-1],"loss_changes":[1.0267255E1,5.3012652E0,6.5017977E0,6.246063E0,4.5642495E0,5.183238E0,0E0,0E0,0E0,0E0,0E0,0E0,0E0],"parents":[2147483647,0,0,1,1,2,2,3,3,4,4,5,5],"right_children":[2,4,6,8,10,12,-1,-1,-1,-1,-1,-1,-1],"split_conditions":[6.747609E-1,1.4317368E0,1.5612927E1,-9.28E2,-2.7660027E-1,7.468443E-1,-2.8018795E-3,-6.488577E-3,6.786683E-4,-3.054823E-3,4.253859E-3,2.892255E-4,6.491726E-3],"split_indices":[59,21,1,84,40,20,0,0,0,0,0,0,0],"split_type":[0,0,0,0,0,0,0,0,0,0,0,0,0],"sum_hessian":[1.6105032E2,8.671756E1,7.433276E1,5.6844387E1,2.9873177E1,5.6810997E1,1.7521763E1,4.22209E1,1.4623483E1,1.5262989E1,1.4610187E1,2.646485E1,3.0346148E1],"tree_param":{"num_deleted":"0","num_feature":"90","num_nodes":"13","size_leaf_vector":"1"}},{"base_weights":[-2.9752748E-2,-1.9312248E-1,4.8689055E-1,-2.9853958E-1,1.8296477E-1,5.91511E-4,7.737643E-1,-4.7497633E-3,1.8540211E-4,-3.0881034E-3,6.865638E-3,1.0521311E-2,3.2021233E-3],"categories":[],"categories_nodes":[],"categories_segments":[],"categories_sizes":[],"default_left":[0,0,0,0,0,0,0,0,0,0,0,0,0],"id":38,"left_children":[1,3,5,7,9,-1,11,-1,-1,-1,-1,-1,-1],"loss_changes":[1.3699912E1,5.127359E0,4.242073E0,5.8135357E0,7.446642E0,0E0,1.4561615E0,0E0,0E0,0E0,0E0,0E0,0E0],"parents":[2147483647,0,0,1,1,2,2,3,3,4,4,6,6],"right_children":[2,4,6,8,10,-1,12,-1,-1,-1,-1,-1,-1],"split_conditions":[2.238327E0,7.2357607E0,-1.2016743E-1,6.7953026E-1,-1.2373211E0,5.91511E-4,1.3057615E0,-4.7497633E-3,1.8540211E-4,-3.0881034E-3,6.865638E-3,1.0521311E-2,3.2021233E-3],"split_indices":[24,11,13,59,15,0,34,0,0,0,0,0,0],"split_type":[0,0,0,0,0,0,0,0,0,0,0,0,0],"sum_hessian":[1.5982594E2,1.2311536E2,3.671059E1,9.752188E1,2.5593472E1,1.6405174E1,2.0305416E1,6.3030155E1,3.449173E1,1.283781E1,1.2755661E1,1.0263983E1,1.0041433E1],"tree_param":{"num_deleted":"0","num_feature":"90","num_nodes":"13","size_leaf_vector":"1"}},{"base_weights":[-0E0,-1.8422948E-1,3.6717805E-1,8.4051296E-2,-3.8690522E-1,-2.2289194E-2,7.3204654E-1,-3.2342821E-3,3.832393E-3,-5.390002E-3,-0E0,-3.4781152E-3,3.5875763E-3,8.940979E-4,1.1591999E-2],"categories":[],"categories_nodes":[],"categories_segments":[],"categories_sizes":[],"default_left":[0,0,0,0,0,0,0,0,0,0,0,0,0,0,0],"id":39,"left_children":[1,3,5,7,9,11,13,-1,-1,-1,-1,-1,-1,-1,-1],"loss_changes":[1.0439514E1,5.743229E0,7.7548647E0,5.681425E0,3.5545645E0,3.5131521E0,6.714424E0,0E0,0E0,0E0,0E0,0E0,0E0,0E0,0E0],"parents":[2147483647,0,0,1,1,2,2,3,3,4,4,5,5,6,6],"right_children":[2,4,6,8,10,12,14,-1,-1,-1,-1,-1,-1,-1,-1],"split_conditions":[2.0692585E0,8E-1,-5.90624E-1,-1.5357606E0,1.4114965E0,1.656705E1,3.4918928E0,-3.2342821E-3,3.832393E-3,-5.390002E-3,-0E0,-3.4781152E-3,3.5875763E-3,8.940979E-4,1.1591999E-2],"split_indices":[56,53,52,15,21,17,25,0,0,0,0,0,0,0,0],"split_type":[0,0,0,0,0,0,0,0,0,0,0,0,0,0,0],"sum_hessian":[1.4948813E2,9.964344E1,4.984468E1,4.2323566E1,5.7319878E1,2.4355087E1,2.5489594E1,1.7142748E1,2.5180817E1,4.0800636E1,1.6519241E1,1.3936214E1,1.0418872E1,1.1610775E1,1.38788185E1],"tree_param":{"num_deleted":"0","num_feature":"90","num_nodes":"15","size_leaf_vector":"1"}},{"base_weights":[-4.629647E-3,-8.930519E-2,8.814141E-3,-4.5217034E-1,1.7880203E-2,-1.5969875E-3,-7.4892836E-3,-2.4891554E-3,2.482904E-3],"categories":[],"categories_nodes":[],"categories_segments":[],"categories_sizes":[],"default_left":[0,0,0,0,0,0,0,0,0],"id":40,"left_children":[1,3,-1,5,7,-1,-1,-1,-1],"loss_changes":[1.14934E1,5.8753757E0,0E0,2.2764115E0,7.06013E0,0E0,0E0,0E0,0E0],"parents":[2147483647,0,0,1,1,3,3,4,4],"right_children":[2,4,-1,6,8,-1,-1,-1,-1],"split_conditions":[3.1064322E0,2.6862508E-1,8.814141E-3,9.993115E-1,-5.4201955E-1,-1.5969875E-3,-7.4892836E-3,-2.4891554E-3,2.482904E-3],"split_indices":[24,57,0,52,15,0,0,0,0],"split_type":[0,0,0,0,0,0,0,0,0],"sum_hessian":[1.5437228E2,1.4306306E2,1.1309221E1,3.221845E1,1.1084461E2,1.8624313E1,1.3594138E1,5.028644E1,6.0558167E1],"tree_param":{"num_deleted":"0","num_feature":"90","num_nodes":"9","size_leaf_vector":"1"}},{"base_weights":[2.592172E-2,-1.5620969E-1,4.0235388E-1,-6.064731E-1,-2.3496168E-2,-1.7258527E-3,5.969041E-1,-2.4221386E-3,-8.127367E-3,1.6834156E-3,-3.5797635E-3,8.204191E-3,1.073768E-3],"categories":[],"categories_nodes":[],"categories_segments":[],"categories_sizes":[],"default_left":[0,0,0,0,0,0,0,0,0,0,0,0,0],"id":41,"left_children":[1,3,5,7,9,-1,11,-1,-1,-1,-1,-1,-1],"loss_changes":[1.0896558E1,5.9434834E0,6.2452745E0,8.0783653E-1,5.617976E0,0E0,3.739025E0,0E0,0E0,0E0,0E0,0E0,0E0],"parents":[2147483647,0,0,1,1,2,2,3,3,4,4,6,6],"right_children":[2,4,6,8,10,-1,12,-1,-1,-1,-1,-1,-1],"split_conditions":[2.0644715E0,8.246174E0,2E0,6.1585414E-1,7.2727275E-1,-1.7258527E-3,2.481715E0,-2.4221386E-3,-8.127367E-3,1.6834156E-3,-3.5797635E-3,8.204191E-3,1.073768E-3],"split_indices":[56,32,82,58,80,0,35,0,0,0,0,0,0],"split_type":[0,0,0,0,0,0,0,0,0,0,0,0,0],"sum_hessian":[1.5330577E2,1.0321058E2,5.0095192E1,2.1012701E1,8.2197876E1,1.2072888E1,3.8022305E1,1.0045367E1,1.0967334E1,5.191888E1,3.0278994E1,2.4474243E1,1.3548061E1],"tree_param":{"num_deleted":"0","num_feature":"90","num_nodes":"13","size_leaf_vector":"1"}},{"base_weights":[2.2643793E-2,-8.956862E-2,6.662097E-1,-4.7626832E-1,1.2458839E-2,1.2781021E-2,-0E0,-2.9643188E-4,-7.607686E-3,3.611379E-3,-1.1401415E-3],"categories":[],"categories_nodes":[],"categories_segments":[],"categories_sizes":[],"default_left":[0,0,0,0,0,0,0,0,0,0,0],"id":42,"left_children":[1,3,5,7,9,-1,-1,-1,-1,-1,-1],"loss_changes":[1.2024004E1,5.6913466E0,9.506253E0,3.3587584E0,5.0644836E0,0E0,0E0,0E0,0E0,0E0,0E0],"parents":[2147483647,0,0,1,1,2,2,3,3,4,4],"right_children":[2,4,6,8,10,-1,-1,-1,-1,-1,-1],"split_conditions":[2.6118152E0,2.2480793E-1,2.246424E0,2.9302618E2,2.4173793E-1,1.2781021E-2,-0E0,-2.9643188E-4,-7.607686E-3,3.611379E-3,-1.1401415E-3],"split_indices":[24,57,35,6,16,0,0,0,0,0,0],"split_type":[0,0,0,0,0,0,0,0,0,0,0],"sum_hessian":[1.5885532E2,1.3607411E2,2.278121E1,2.789862E1,1.0817548E2,1.0552472E1,1.2228737E1,1.2399313E1,1.5499309E1,2.8858017E1,7.931747E1],"tree_param":{"num_deleted":"0","num_feature":"90","num_nodes":"11","size_leaf_vector":"1"}},{"base_weights":[-1.2697043E-2,-1.4811283E-1,4.0892997E-1,3.228457E-2,-5.2244776E-1,2.1352177E-4,7.8891E-3,-6.445617E-4,5.2055633E-3,7.357745E-5,-7.3150224E-3],"categories":[],"categories_nodes":[],"categories_segments":[],"categories_sizes":[],"default_left":[0,0,0,0,0,0,0,0,0,0,0],"id":43,"left_children":[1,3,5,7,9,-1,-1,-1,-1,-1,-1],"loss_changes":[9.114061E0,8.606025E0,5.2280984E0,4.272135E0,4.9270773E0,0E0,0E0,0E0,0E0,0E0,0E0],"parents":[2147483647,0,0,1,1,2,2,3,3,4,4],"right_children":[2,4,6,8,10,-1,-1,-1,-1,-1,-1],"split_conditions":[2.3022473E0,7.5E-1,4E3,2.6344427E2,3.2345924E-1,2.1352177E-4,7.8891E-3,-6.445617E-4,5.2055633E-3,7.357745E-5,-7.3150224E-3],"split_indices":[24,80,81,85,16,0,0,0,0,0,0],"split_type":[0,0,0,0,0,0,0,0,0,0,0],"sum_hessian":[1.577923E2,1.2131298E2,3.6479317E1,8.2194214E1,3.911877E1,1.9756268E1,1.6723051E1,6.919637E1,1.2997839E1,1.093759E1,2.8181181E1],"tree_param":{"num_deleted":"0","num_feature":"90","num_nodes":"11","size_leaf_vector":"1"}},{"base_weights":[-7.457063E-3,-2.6462972E-1,2.9533282E-1,-3.8514614E-1,2.58066E-3,5.161446E-1,-1.6789326E-1,-5.602503E-3,6.846413E-4,8.401274E-3,-0E0,-5.006252E-3,1.8295402E-3],"categories":[],"categories_nodes":[],"categories_segments":[],"categories_sizes":[],"default_left":[0,0,0,0,0,0,0,0,0,0,0,0,0],"id":44,"left_children":[1,3,5,7,-1,9,11,-1,-1,-1,-1,-1,-1],"loss_changes":[1.2306175E1,5.7064886E0,7.6917505E0,6.026492E0,0E0,7.9213676E0,3.1386266E0,0E0,0E0,0E0,0E0,0E0,0E0],"parents":[2147483647,0,0,1,1,2,2,3,3,5,5,6,6],"right_children":[2,4,6,8,-1,10,12,-1,-1,-1,-1,-1,-1],"split_conditions":[6.7953026E-1,1.0349672E0,2.7E1,5.7511024E0,2.58066E-3,6.207738E3,-9.609437E-1,-5.602503E-3,6.846413E-4,8.401274E-3,-0E0,-5.006252E-3,1.8295402E-3],"split_indices":[59,57,79,50,0,26,15,0,0,0,0,0,0],"split_type":[0,0,0,0,0,0,0,0,0,0,0,0,0],"sum_hessian":[1.5422618E2,8.44243E1,6.980188E1,6.981106E1,1.4613242E1,4.7845615E1,2.195626E1,5.0823917E1,1.8987143E1,2.8036947E1,1.980867E1,1.1562286E1,1.0393973E1],"tree_param":{"num_deleted":"0","num_feature":"90","num_nodes":"13","size_leaf_vector":"1"}},{"base_weights":[-2.4002371E-2,-4.2229134E-1,1.0319985E-1,-7.1988683E-3,-1.645525E-1,-1.7393482E-1,2.979728E-1,-5.0319117E-3,1.8404927E-3,6.936895E-4,-5.897472E-3,5.2196193E-3,-1.2207275E-3],"categories":[],"categories_nodes":[],"categories_segments":[],"categories_sizes":[],"default_left":[0,0,0,0,0,0,0,0,0,0,0,0,0],"id":45,"left_children":[1,3,5,-1,7,9,11,-1,-1,-1,-1,-1,-1],"loss_changes":[8.388121E0,2.4075818E0,6.7755175E0,0E0,3.3029695E0,5.475741E0,7.2623706E0,0E0,0E0,0E0,0E0,0E0,0E0],"parents":[2147483647,0,0,1,1,2,2,4,4,5,5,6,6],"right_children":[2,4,6,-1,8,10,12,-1,-1,-1,-1,-1,-1],"split_conditions":[5.3132796E-1,1.0458104E1,-1.2373211E0,-7.1988683E-3,-4.723698E1,9.2772606E1,3.9439573E0,-5.0319117E-3,1.8404927E-3,6.936895E-4,-5.897472E-3,5.2196193E-3,-1.2207275E-3],"split_indices":[23,32,15,0,27,27,89,0,0,0,0,0,0],"split_type":[0,0,0,0,0,0,0,0,0,0,0,0,0],"sum_hessian":[1.5869667E2,3.8243057E1,1.2045361E2,1.5184412E1,2.3058647E1,4.874425E1,7.1709366E1,1.197413E1,1.10845175E1,3.104362E1,1.7700632E1,4.7229397E1,2.4479969E1],"tree_param":{"num_deleted":"0","num_feature":"90","num_nodes":"13","size_leaf_vector":"1"}},{"base_weights":[1.6533636E-2,-1.9963637E-1,2.6315126E-1,-3.2152656E-1,2.052585E-3,-1.4079824E-1,5.698744E-1,1.7601647E-3,-4.472149E-3,-4.3857596E-3,4.151693E-3,1.4555631E-3,9.124123E-3],"categories":[],"categories_nodes":[],"categories_segments":[],"categories_sizes":[],"default_left":[0,0,0,0,0,0,0,0,0,0,0,0,0],"id":46,"left_children":[1,3,5,7,-1,9,11,-1,-1,-1,-1,-1,-1],"loss_changes":[8.616607E0,4.376225E0,9.821377E0,4.478049E0,0E0,5.9725595E0,5.6639185E0,0E0,0E0,0E0,0E0,0E0,0E0],"parents":[2147483647,0,0,1,1,2,2,3,3,5,5,6,6],"right_children":[2,4,6,8,-1,10,12,-1,-1,-1,-1,-1,-1],"split_conditions":[6.747609E-1,6.1269135E0,-3.11868E-1,6E-1,2.052585E-3,1.858E3,3.7714285E3,1.7601647E-3,-4.472149E-3,-4.3857596E-3,4.151693E-3,1.4555631E-3,9.124123E-3],"split_indices":[59,11,51,80,0,75,81,0,0,0,0,0,0],"split_type":[0,0,0,0,0,0,0,0,0,0,0,0,0],"sum_hessian":[1.5706148E2,8.282004E1,7.424143E1,6.492239E1,1.789765E1,3.1805666E1,4.243577E1,1.2129253E1,5.279314E1,2.1572828E1,1.0232837E1,2.0880121E1,2.1555645E1],"tree_param":{"num_deleted":"0","num_feature":"90","num_nodes":"13","size_leaf_vector":"1"}},{"base_weights":[-1.1884439E-2,-1.16258875E-1,4.9086407E-1,-3.2055497E-1,3.2449834E-2,8.866569E-3,6.5726816E-4,-0E0,-5.570089E-3,5.133513E-3,-9.3628507E-4],"categories":[],"categories_nodes":[],"categories_segments":[],"categories_sizes":[],"default_left":[0,0,0,0,0,0,0,0,0,0,0],"id":47,"left_children":[1,3,5,7,9,-1,-1,-1,-1,-1,-1],"loss_changes":[8.210814E0,4.2105966E0,3.899887E0,4.1628513E0,5.0030317E0,0E0,0E0,0E0,0E0,0E0,0E0],"parents":[2147483647,0,0,1,1,2,2,3,3,4,4],"right_children":[2,4,6,8,10,-1,-1,-1,-1,-1,-1],"split_conditions":[3.6677752E0,1.1008688E1,1.191966E1,-2.7560491E-2,7.751514E0,8.866569E-3,6.5726816E-4,-0E0,-5.570089E-3,5.133513E-3,-9.3628507E-4],"split_indices":[25,32,10,38,10,0,0,0,0,0,0],"split_type":[0,0,0,0,0,0,0,0,0,0,0],"sum_hessian":[1.5586806E2,1.3116852E2,2.4699547E1,5.5699547E1,7.546896E1,1.1057772E1,1.3641774E1,2.5172531E1,3.0527016E1,1.5223662E1,6.02453E1],"tree_param":{"num_deleted":"0","num_feature":"90","num_nodes":"11","size_leaf_vector":"1"}},{"base_weights":[1.0019364E-2,-1.16956025E-1,5.449047E-1,3.443621E-1,-2.2301799E-1,-3.2253633E-4,8.679053E-3,6.2097586E-3,-0E0,-4.035931E-3,7.933542E-4],"categories":[],"categories_nodes":[],"categories_segments":[],"categories_sizes":[],"default_left":[0,0,0,0,0,0,0,0,0,0,0],"id":48,"left_children":[1,3,5,7,9,-1,-1,-1,-1,-1,-1],"loss_changes":[1.0996885E1,6.3401575E0,6.291564E0,2.314171E0,6.008514E0,0E0,0E0,0E0,0E0,0E0,0E0],"parents":[2147483647,0,0,1,1,2,2,3,3,4,4],"right_children":[2,4,6,8,10,-1,-1,-1,-1,-1,-1],"split_conditions":[3.5137677E0,6E-1,-1.8684679E0,7.265727E0,1.3961656E0,-3.2253633E-4,8.679053E-3,6.2097586E-3,-0E0,-4.035931E-3,7.933542E-4],"split_indices":[25,80,15,37,21,0,0,0,0,0,0],"split_type":[0,0,0,0,0,0,0,0,0,0,0],"sum_hessian":[1.5488869E2,1.2568134E2,2.9207342E1,2.1772724E1,1.0390862E2,1.0570893E1,1.863645E1,1.131203E1,1.0460694E1,6.567151E1,3.823711E1],"tree_param":{"num_deleted":"0","num_feature":"90","num_nodes":"11","size_leaf_vector":"1"}},{"base_weights":[-7.669948E-3,-1.4367613E-1,4.3753332E-1,-0E0,-4.373387E-1,-0E0,8.0300085E-3,6.535624E-3,-1.0104328E-3,-1.0028862E-3,-8.346036E-3],"categories":[],"categories_nodes":[],"categories_segments":[],"categories_sizes":[],"default_left":[0,0,0,0,0,0,0,0,0,0,0],"id":49,"left_children":[1,3,5,7,9,-1,-1,-1,-1,-1,-1],"loss_changes":[9.809614E0,5.488498E0,5.627439E0,6.013629E0,5.0388927E0,0E0,0E0,0E0,0E0,0E0,0E0],"parents":[2147483647,0,0,1,1,2,2,3,3,4,4],"right_children":[2,4,6,8,10,-1,-1,-1,-1,-1,-1],"split_conditions":[2.2815735E0,7.5E-1,-6.609575E-1,1.536265E0,1.3208508E1,-0E0,8.0300085E-3,6.535624E-3,-1.0104328E-3,-1.0028862E-3,-8.346036E-3],"split_indices":[24,80,52,35,32,0,0,0,0,0,0],"split_type":[0,0,0,0,0,0,0,0,0,0,0],"sum_hessian":[1.6035759E2,1.24730896E2,3.5626694E1,8.435735E1,4.0373547E1,1.7728565E1,1.7898127E1,1.0259786E1,7.4097565E1,2.3878176E1,1.6495373E1],"tree_param":{"num_deleted":"0","num_feature":"90","num_nodes":"11","size_leaf_vector":"1"}},{"base_weights":[-3.8158856E-2,-1.637956E-1,7.2301644E-1,3.1801274E-1,-2.7372772E-1,1.8790843E-3,1.0846178E-2,3.95839E-5,6.269862E-3,-6.263101E-3,-1.5705138E-3],"categories":[],"categories_nodes":[],"categories_segments":[],"categories_sizes":[],"default_left":[0,0,0,0,0,0,0,0,0,0,0],"id":50,"left_children":[1,3,5,7,9,-1,-1,-1,-1,-1,-1],"loss_changes":[1.520447E1,7.516572E0,3.2891512E0,2.1938627E0,4.147908E0,0E0,0E0,0E0,0E0,0E0,0E0],"parents":[2147483647,0,0,1,1,2,2,3,3,4,4],"right_children":[2,4,6,8,10,-1,-1,-1,-1,-1,-1],"split_conditions":[2.6118152E0,2.4517646E3,3.9E1,5.6403E3,2.5746664E-1,1.8790843E-3,1.0846178E-2,3.95839E-5,6.269862E-3,-6.263101E-3,-1.5705138E-3],"split_indices":[24,81,77,88,57,0,0,0,0,0,0],"split_type":[0,0,0,0,0,0,0,0,0,0,0],"sum_hessian":[1.574371E2,1.3704369E2,2.0393415E1,2.39114E1,1.1313229E2,1.0006929E1,1.0386487E1,1.3665284E1,1.0246116E1,2.489159E1,8.82407E1],"tree_param":{"num_deleted":"0","num_feature":"90","num_nodes":"11","size_leaf_vector":"1"}},{"base_weights":[-1.3427482E-2,-5.2501017E-1,9.396526E-2,-7.1269315E-4,-7.568785E-3,-1.7033568E-1,2.7688897E-1,-3.4631544E-3,3.155716E-3,8.5034897E-4,7.395718E-3],"categories":[],"categories_nodes":[],"categories_segments":[],"categories_sizes":[],"default_left":[0,0,0,0,0,0,0,0,0,0,0],"id":51,"left_children":[1,3,5,-1,-1,7,9,-1,-1,-1,-1],"loss_changes":[9.158019E0,2.5333004E0,6.6227846E0,0E0,0E0,4.9285164E0,6.654817E0,0E0,0E0,0E0,0E0],"parents":[2147483647,0,0,1,1,2,2,5,5,6,6],"right_children":[2,4,6,-1,-1,8,10,-1,-1,-1,-1],"split_conditions":[2.1296579E-1,7.336667E-1,-1.2373211E0,-7.1269315E-4,-7.568785E-3,1E0,2.238327E0,-3.4631544E-3,3.155716E-3,8.5034897E-4,7.395718E-3],"split_indices":[57,21,15,0,0,53,24,0,0,0,0],"split_type":[0,0,0,0,0,0,0,0,0,0,0],"sum_hessian":[1.5897176E2,2.7040134E1,1.3193163E2,1.0758354E1,1.628178E1,5.2900925E1,7.903069E1,4.0013065E1,1.2887861E1,5.8303177E1,2.0727518E1],"tree_param":{"num_deleted":"0","num_feature":"90","num_nodes":"11","size_leaf_vector":"1"}},{"base_weights":[-2.620921E-2,-1.8002635E-1,5.1528144E-1,-3.695488E-1,9.4941646E-2,9.050998E-4,9.35478E-3,2.8487182E-5,-4.9518845E-3,3.7522595E-3,-1.7718053E-3],"categories":[],"categories_nodes":[],"categories_segments":[],"categories_sizes":[],"default_left":[0,0,0,0,0,0,0,0,0,0,0],"id":52,"left_children":[1,3,5,7,9,-1,-1,-1,-1,-1,-1],"loss_changes":[1.3295322E1,6.791747E0,5.576128E0,3.8179665E0,4.203232E0,0E0,0E0,0E0,0E0,0E0,0E0],"parents":[2147483647,0,0,1,1,2,2,3,3,4,4],"right_children":[2,4,6,8,10,-1,-1,-1,-1,-1,-1],"split_conditions":[2.2815735E0,5.7224937E3,3.962182E3,7.85E2,2.9657782E2,9.050998E-4,9.35478E-3,2.8487182E-5,-4.9518845E-3,3.7522595E-3,-1.7718053E-3],"split_indices":[24,88,81,75,6,0,0,0,0,0,0],"split_type":[0,0,0,0,0,0,0,0,0,0,0],"sum_hessian":[1.574109E2,1.2434703E2,3.306387E1,7.427988E1,5.006715E1,1.8242983E1,1.4820886E1,1.8227718E1,5.605216E1,2.5195532E1,2.487162E1],"tree_param":{"num_deleted":"0","num_feature":"90","num_nodes":"11","size_leaf_vector":"1"}},{"base_weights":[-1.6899412E-2,-2.5709593E-1,2.742318E-1,-4.2283398E-1,1.4759643E-2,7.969493E-3,1.159885E-1,-3.473014E-4,-7.3322123E-3,2.7353247E-3,-4.58958E-3,5.2816262E-3,-1.6663596E-3],"categories":[],"categories_nodes":[],"categories_segments":[],"categories_sizes":[],"default_left":[0,0,0,0,0,0,0,0,0,0,0,0,0],"id":53,"left_children":[1,3,5,7,9,-1,11,-1,-1,-1,-1,-1,-1],"loss_changes":[1.1302611E1,4.249012E0,5.333983E0,6.4086676E0,4.4105043E0,0E0,7.17457E0,0E0,0E0,0E0,0E0,0E0,0E0],"parents":[2147483647,0,0,1,1,2,2,3,3,4,4,6,6],"right_children":[2,4,6,8,10,-1,12,-1,-1,-1,-1,-1,-1],"split_conditions":[2.4655955E0,1.4363383E-1,8.753599E0,2.9657782E2,7.5E-1,7.969493E-3,2.8196725E2,-3.473014E-4,-7.3322123E-3,2.7353247E-3,-4.58958E-3,5.2816262E-3,-1.6663596E-3],"split_indices":[25,30,32,6,80,0,6,0,0,0,0,0,0],"split_type":[0,0,0,0,0,0,0,0,0,0,0,0,0],"sum_hessian":[1.5773659E2,8.749799E1,7.023859E1,5.4810814E1,3.2687183E1,1.3712055E1,5.652653E1,2.6060192E1,2.875062E1,2.2368708E1,1.0318476E1,2.3006243E1,3.352029E1],"tree_param":{"num_deleted":"0","num_feature":"90","num_nodes":"13","size_leaf_vector":"1"}},{"base_weights":[1.0314865E-2,-1.05448365E-1,4.1573933E-1,-1.8000479E-1,4.141904E-3,6.935219E-1,-1.6225831E-3,2.1065E-3,-2.8357466E-3,9.690573E-3,2.0852399E-3],"categories":[],"categories_nodes":[],"categories_segments":[],"categories_sizes":[],"default_left":[0,0,0,0,0,0,0,0,0,0,0],"id":54,"left_children":[1,3,5,7,-1,9,-1,-1,-1,-1,-1],"loss_changes":[7.5336514E0,4.738307E0,6.249616E0,4.544627E0,0E0,2.3731804E0,0E0,0E0,0E0,0E0,0E0],"parents":[2147483647,0,0,1,1,2,2,3,3,5,5],"right_children":[2,4,6,8,-1,10,-1,-1,-1,-1,-1],"split_conditions":[1.2363183E0,2.76503E2,1.8492123E1,6E-1,4.141904E-3,2.8316097E1,-1.6225831E-3,2.1065E-3,-2.8357466E-3,9.690573E-3,2.0852399E-3],"split_indices":[23,85,7,80,0,2,0,0,0,0,0],"split_type":[0,0,0,0,0,0,0,0,0,0,0],"sum_hessian":[1.5334464E2,1.1947638E2,3.3868256E1,1.0646977E2,1.3006609E1,2.3189041E1,1.0679215E1,2.086683E1,8.560294E1,1.2857448E1,1.03315935E1],"tree_param":{"num_deleted":"0","num_feature":"90","num_nodes":"11","size_leaf_vector":"1"}},{"base_weights":[4.3626636E-2,-5.3931743E-2,6.1931235E-1,-1.483713E-1,2.235714E-1,1.3849551E-3,9.613133E-3,-2.5012807E-3,1.5519672E-3,-1.3111297E-3,6.459861E-3],"categories":[],"categories_nodes":[],"categories_segments":[],"categories_sizes":[],"default_left":[0,0,0,0,0,0,0,0,0,0,0],"id":55,"left_children":[1,3,5,7,9,-1,-1,-1,-1,-1,-1],"loss_changes":[8.970086E0,3.4972062E0,2.9898062E0,3.253952E0,5.379663E0,0E0,0E0,0E0,0E0,0E0,0E0],"parents":[2147483647,0,0,1,1,2,2,3,3,4,4],"right_children":[2,4,6,8,10,-1,-1,-1,-1,-1,-1],"split_conditions":[2.7072086E0,1.507569E0,-1.4242262E-1,6.08274E-1,-7.312565E-1,1.3849551E-3,9.613133E-3,-2.5012807E-3,1.5519672E-3,-1.3111297E-3,6.459861E-3],"split_indices":[24,3,13,51,50,0,0,0,0,0,0],"split_type":[0,0,0,0,0,0,0,0,0,0,0],"sum_hessian":[1.5149251E2,1.3034735E2,2.114516E1,9.928966E1,3.1057692E1,1.05645E1,1.0580662E1,7.586025E1,2.34294E1,1.6988605E1,1.4069086E1],"tree_param":{"num_deleted":"0","num_feature":"90","num_nodes":"11","size_leaf_vector":"1"}},{"base_weights":[3.7659235E-2,-1.4912467E-1,5.141935E-1,4.514475E-3,-2.7338618E-1,8.949807E-3,2.469561E-1,-3.7053458E-3,3.8569837E-3,-1.0919281E-3,5.778437E-3],"categories":[],"categories_nodes":[],"categories_segments":[],"categories_sizes":[],"default_left":[0,0,0,0,0,0,0,0,0,0,0],"id":56,"left_children":[1,3,5,-1,7,-1,9,-1,-1,-1,-1],"loss_changes":[1.4465813E1,8.728247E0,3.6583185E0,0E0,6.494807E0,0E0,3.9557593E0,0E0,0E0,0E0,0E0],"parents":[2147483647,0,0,1,1,2,2,4,4,6,6],"right_children":[2,4,6,-1,8,-1,10,-1,-1,-1,-1],"split_conditions":[2.202428E0,6E-1,1.3124684E1,4.514475E-3,6E1,8.949807E-3,-1.2016743E-1,-3.7053458E-3,3.8569837E-3,-1.0919281E-3,5.778437E-3],"split_indices":[56,80,7,0,76,0,13,0,0,0,0],"split_type":[0,0,0,0,0,0,0,0,0,0,0],"sum_hessian":[1.5674722E2,1.1284214E2,4.3905087E1,1.7752434E1,9.508971E1,1.5396936E1,2.850815E1,8.429844E1,1.0791273E1,1.3647576E1,1.4860574E1],"tree_param":{"num_deleted":"0","num_feature":"90","num_nodes":"11","size_leaf_vector":"1"}},{"base_weights":[9.2026114E-2,-2.9894304E-1,2.2112781E-1,2.722505E-4,-4.5085672E-1,3.992965E-1,-1.8733965E-1,-6.8051997E-3,-9.073092E-4,-1.5346311E-3,5.331996E-3,-6.1380207E-3,6.7992776E-4],"categories":[],"categories_nodes":[],"categories_segments":[],"categories_sizes":[],"default_left":[0,0,0,0,0,0,0,0,0,0,0,0,0],"id":57,"left_children":[1,3,5,-1,7,9,11,-1,-1,-1,-1,-1,-1],"loss_changes":[7.8563485E0,2.1226208E0,8.823686E0,0E0,1.7348719E0,6.5314007E0,4.3053403E0,0E0,0E0,0E0,0E0,0E0,0E0],"parents":[2147483647,0,0,1,1,2,2,4,4,5,5,6,6],"right_children":[2,4,6,-1,8,10,12,-1,-1,-1,-1,-1,-1],"split_conditions":[5.3132796E-1,1.716889E0,2.7E1,2.722505E-4,-2.9967073E-1,2.5106195E-1,-1.945E3,-6.8051997E-3,-9.073092E-4,-1.5346311E-3,5.331996E-3,-6.1380207E-3,6.7992776E-4],"split_indices":[23,35,79,0,11,57,84,0,0,0,0,0,0],"split_type":[0,0,0,0,0,0,0,0,0,0,0,0,0],"sum_hessian":[1.5180052E2,3.6068203E1,1.15732315E2,1.09366865E1,2.5131517E1,8.146656E1,3.426576E1,1.3411098E1,1.1720419E1,1.510131E1,6.636525E1,1.2514351E1,2.175141E1],"tree_param":{"num_deleted":"0","num_feature":"90","num_nodes":"13","size_leaf_vector":"1"}},{"base_weights":[-6.349409E-2,-2.1425043E-1,3.3396828E-1,-8.9105316E-2,-6.194271E-1,4.8577502E-2,7.76739E-3,2.4659662E-3,-2.300095E-3,-8.896868E-3,-1.4703396E-3,4.020963E-3,-4.319253E-3],"categories":[],"categories_nodes":[],"categories_segments":[],"categories_sizes":[],"default_left":[0,0,0,0,0,0,0,0,0,0,0,0,0],"id":58,"left_children":[1,3,5,7,9,11,-1,-1,-1,-1,-1,-1,-1],"loss_changes":[9.554147E0,5.4539585E0,4.9877725E0,4.4786086E0,2.5733232E0,5.2875357E0,0E0,0E0,0E0,0E0,0E0,0E0,0E0],"parents":[2147483647,0,0,1,1,2,2,3,3,4,4,5,5],"right_children":[2,4,6,8,10,12,-1,-1,-1,-1,-1,-1,-1],"split_conditions":[2.1799042E0,4.9392E3,4.9392E3,1.0333215E0,3.054545E0,4.0963798E0,7.76739E-3,2.4659662E-3,-2.300095E-3,-8.896868E-3,-1.4703396E-3,4.020963E-3,-4.319253E-3],"split_indices":[24,81,81,34,9,29,0,0,0,0,0,0,0],"split_type":[0,0,0,0,0,0,0,0,0,0,0,0,0],"sum_hessian":[1.5605914E2,1.14724396E2,4.1334747E1,9.045869E1,2.4265709E1,2.7170502E1,1.41642475E1,2.5250668E1,6.5208015E1,1.3638092E1,1.0627617E1,1.6441198E1,1.0729302E1],"tree_param":{"num_deleted":"0","num_feature":"90","num_nodes":"13","size_leaf_vector":"1"}},{"base_weights":[-1.4090337E-2,-7.80806E-2,6.9795293E-3,3.1851715E-1,-1.6286166E-1,6.431099E-3,-1.1652537E-3,-3.1005284E-3,7.566075E-4],"categories":[],"categories_nodes":[],"categories_segments":[],"categories_sizes":[],"default_left":[0,0,0,0,0,0,0,0,0],"id":59,"left_children":[1,3,-1,5,7,-1,-1,-1,-1],"loss_changes":[7.0798125E0,5.037887E0,0E0,4.069207E0,4.5585904E0,0E0,0E0,0E0,0E0],"parents":[2147483647,0,0,1,1,3,3,4,4],"right_children":[2,4,-1,6,8,-1,-1,-1,-1],"split_conditions":[1.9182523E0,6E-1,6.9795293E-3,7.764523E0,1.276953E0,6.431099E-3,-1.1652537E-3,-3.1005284E-3,7.566075E-4],"split_indices":[23,80,0,37,3,0,0,0,0],"split_type":[0,0,0,0,0,0,0,0,0],"sum_hessian":[1.5779242E2,1.4705931E2,1.073311E1,2.3890478E1,1.2316882E2,1.37924595E1,1.0098019E1,7.709208E1,4.6076744E1],"tree_param":{"num_deleted":"0","num_feature":"90","num_nodes":"9","size_leaf_vector":"1"}},{"base_weights":[-4.9863193E-2,-2.7836615E-1,2.2068048E-1,1.1558677E-3,-3.8587072E-1,-8.681498E-2,4.6750244E-1,6.868232E-4,-4.795053E-3,2.7170875E-3,-4.440086E-3,-4.4587953E-4,7.514664E-3],"categories":[],"categories_nodes":[],"categories_segments":[],"categories_sizes":[],"default_left":[0,0,0,0,0,0,0,0,0,0,0,0,0],"id":60,"left_children":[1,3,5,-1,7,9,11,-1,-1,-1,-1,-1,-1],"loss_changes":[1.0320584E1,4.0809264E0,5.9964747E0,0E0,3.3781633E0,4.729199E0,6.681875E0,0E0,0E0,0E0,0E0,0E0,0E0],"parents":[2147483647,0,0,1,1,2,2,4,4,5,5,6,6],"right_children":[2,4,6,-1,8,10,12,-1,-1,-1,-1,-1,-1],"split_conditions":[2.4728088E0,-5.184804E-1,-2.2173242E-1,1.1558677E-3,2.1E1,5.63735E3,5.127317E3,6.868232E-4,-4.795053E-3,2.7170875E-3,-4.440086E-3,-4.4587953E-4,7.514664E-3],"split_indices":[25,38,13,0,78,26,26,0,0,0,0,0,0],"split_type":[0,0,0,0,0,0,0,0,0,0,0,0,0],"sum_hessian":[1.6249171E2,8.906074E1,7.3430984E1,1.8063887E1,7.099685E1,3.2372055E1,4.1058926E1,1.130574E1,5.969111E1,1.5696225E1,1.6675829E1,1.4619612E1,2.6439314E1],"tree_param":{"num_deleted":"0","num_feature":"90","num_nodes":"13","size_leaf_vector":"1"}},{"base_weights":[-0E0,-2.804452E-1,3.3964974E-1,-4.3139663E-1,2.820723E-3,1.667663E-1,1.081935E-2,-5.6076096E-3,1.6916636E-3,3.5868282E-3,-3.108442E-3],"categories":[],"categories_nodes":[],"categories_segments":[],"categories_sizes":[],"default_left":[0,0,0,0,0,0,0,0,0,0,0],"id":61,"left_children":[1,3,5,7,-1,9,-1,-1,-1,-1,-1],"loss_changes":[1.546356E1,7.8483195E0,8.457661E0,5.9335556E0,0E0,5.984327E0,0E0,0E0,0E0,0E0,0E0],"parents":[2147483647,0,0,1,1,2,2,3,3,5,5],"right_children":[2,4,6,8,-1,10,-1,-1,-1,-1,-1],"split_conditions":[6.7953026E-1,7.2357607E0,8.554319E-1,1.0525063E0,2.820723E-3,1.9670576E1,1.081935E-2,-5.6076096E-3,1.6916636E-3,3.5868282E-3,-3.108442E-3],"split_indices":[59,11,16,57,0,7,0,0,0,0,0],"split_type":[0,0,0,0,0,0,0,0,0,0,0],"sum_hessian":[1.5826595E2,8.668255E1,7.1583405E1,6.941113E1,1.727141E1,6.0593647E1,1.0989757E1,5.790352E1,1.1507616E1,4.432684E1,1.6266806E1],"tree_param":{"num_deleted":"0","num_feature":"90","num_nodes":"11","size_leaf_vector":"1"}},{"base_weights":[-1.3396199E-2,-2.2228414E-1,2.2179489E-1,-3.329642E-1,3.125618E-3,5.411277E-1,-2.0403538E-2,-7.6332205E-4,-7.5339633E-3,9.043213E-3,-0E0,3.2048288E-3,-3.5520266E-3],"categories":[],"categories_nodes":[],"categories_segments":[],"categories_sizes":[],"default_left":[0,0,0,0,0,0,0,0,0,0,0,0,0],"id":62,"left_children":[1,3,5,7,-1,9,11,-1,-1,-1,-1,-1,-1],"loss_changes":[7.9992375E0,5.385781E0,6.123144E0,7.4618435E0,0E0,6.9553432E0,5.2647014E0,0E0,0E0,0E0,0E0,0E0,0E0],"parents":[2147483647,0,0,1,1,2,2,3,3,5,5,6,6],"right_children":[2,4,6,8,-1,10,12,-1,-1,-1,-1,-1,-1],"split_conditions":[6.747609E-1,1.0525063E0,2.8108472E2,7.2727275E-1,3.125618E-3,6.868163E1,5.467094E-2,-7.6332205E-4,-7.5339633E-3,9.043213E-3,-0E0,3.2048288E-3,-3.5520266E-3],"split_indices":[59,57,6,80,0,27,40,0,0,0,0,0,0],"split_type":[0,0,0,0,0,0,0,0,0,0,0,0,0],"sum_hessian":[1.5881046E2,8.529252E1,7.351794E1,7.206854E1,1.3223971E1,3.1535328E1,4.1982613E1,4.6957825E1,2.511072E1,1.8512583E1,1.3022745E1,2.010458E1,2.187803E1],"tree_param":{"num_deleted":"0","num_feature":"90","num_nodes":"13","size_leaf_vector":"1"}},{"base_weights":[-4.0404655E-2,-4.3532863E-1,5.7601195E-2,-7.993404E-4,-6.917918E-3,2.9644486E-1,-1.8199395E-1,4.895217E-3,-2.1593706E-4,-5.2651227E-3,3.0593068E-4],"categories":[],"categories_nodes":[],"categories_segments":[],"categories_sizes":[],"default_left":[0,0,0,0,0,0,0,0,0,0,0],"id":63,"left_children":[1,3,5,-1,-1,7,9,-1,-1,-1,-1],"loss_changes":[6.384698E0,2.4947429E0,7.488049E0,0E0,0E0,4.3010793E0,4.973135E0,0E0,0E0,0E0,0E0],"parents":[2147483647,0,0,1,1,2,2,5,5,6,6],"right_children":[2,4,6,-1,-1,8,10,-1,-1,-1,-1],"split_conditions":[1.2576619E0,8E-1,2.977841E2,-7.993404E-4,-6.917918E-3,-9.29E2,2.582291E-1,4.895217E-3,-2.1593706E-4,-5.2651227E-3,3.0593068E-4],"split_indices":[24,53,6,0,0,84,14,0,0,0,0],"split_type":[0,0,0,0,0,0,0,0,0,0,0],"sum_hessian":[1.5678323E2,3.0817833E1,1.2596541E2,1.4834222E1,1.598361E1,6.3889046E1,6.207636E1,4.0061825E1,2.382722E1,2.345836E1,3.8618E1],"tree_param":{"num_deleted":"0","num_feature":"90","num_nodes":"11","size_leaf_vector":"1"}},{"base_weights":[-6.2469143E-2,-1.7318663E-1,4.812738E-1,2.8512906E-3,-2.5846583E-1,-0E0,8.2587255E-3,1.8445468E-3,-3.5531768E-3],"categories":[],"categories_nodes":[],"categories_segments":[],"categories_sizes":[],"default_left":[0,0,0,0,0,0,0,0,0],"id":64,"left_children":[1,3,5,-1,7,-1,-1,-1,-1],"loss_changes":[9.82807E0,5.515805E0,4.6987033E0,0E0,5.2810745E0,0E0,0E0,0E0,0E0],"parents":[2147483647,0,0,1,1,2,2,4,4],"right_children":[2,4,6,-1,8,-1,-1,-1,-1],"split_conditions":[3.6677752E0,9.706557E-1,-3.11868E-1,2.8512906E-3,2.4517646E3,-0E0,8.2587255E-3,1.8445468E-3,-3.5531768E-3],"split_indices":[25,18,51,0,81,0,0,0,0],"split_type":[0,0,0,0,0,0,0,0,0],"sum_hessian":[1.6104172E2,1.3569409E2,2.5347631E1,1.96326E1,1.16061485E2,1.117164E1,1.417599E1,1.9574114E1,9.648737E1],"tree_param":{"num_deleted":"0","num_feature":"90","num_nodes":"9","size_leaf_vector":"1"}},{"base_weights":[2.1850206E-2,-1.0649488E-1,3.9318874E-1,3.6687493E-2,-4.1416082E-1,-1.1759984E-3,6.6297877E-1,5.86032E-3,-1.0899645E-3,-9.938775E-4,-7.584191E-3,2.3727326E-3,1.0339377E-2],"categories":[],"categories_nodes":[],"categories_segments":[],"categories_sizes":[],"default_left":[0,0,0,0,0,0,0,0,0,0,0,0,0],"id":65,"left_children":[1,3,5,7,9,-1,11,-1,-1,-1,-1,-1,-1],"loss_changes":[7.7727475E0,5.427496E0,6.2292647E0,6.881663E0,3.6270285E0,0E0,3.3722763E0,0E0,0E0,0E0,0E0,0E0,0E0],"parents":[2147483647,0,0,1,1,2,2,3,3,4,4,6,6],"right_children":[2,4,6,8,10,-1,12,-1,-1,-1,-1,-1,-1],"split_conditions":[2.2072587E0,7.5E-1,-1.8684679E0,3.446883E0,1.3490218E1,-1.1759984E-3,2.2E1,5.86032E-3,-1.0899645E-3,-9.938775E-4,-7.584191E-3,2.3727326E-3,1.0339377E-2],"split_indices":[24,80,15,19,32,0,79,0,0,0,0,0,0],"split_type":[0,0,0,0,0,0,0,0,0,0,0,0,0],"sum_hessian":[1.5632436E2,1.1623143E2,4.009292E1,7.941121E1,3.6820225E1,1.3606637E1,2.648628E1,1.609753E1,6.3313675E1,2.1338833E1,1.5481391E1,1.4487642E1,1.1998639E1],"tree_param":{"num_deleted":"0","num_feature":"90","num_nodes":"13","size_leaf_vector":"1"}},{"base_weights":[1.3349572E-2,-3.437154E-1,1.2960458E-1,-5.479047E-1,-0E0,6.468131E-1,8.726333E-3,-1.3904377E-3,-7.651585E-3,2.337512E-3,9.475164E-3,6.2097334E-3,-8.9344516E-4],"categories":[],"categories_nodes":[],"categories_segments":[],"categories_sizes":[],"default_left":[0,0,0,0,0,0,0,0,0,0,0,0,0],"id":66,"left_children":[1,3,5,7,-1,9,11,-1,-1,-1,-1,-1,-1],"loss_changes":[6.7936916E0,2.9531918E0,7.5570526E0,1.6000633E0,0E0,1.8374834E0,6.6923957E0,0E0,0E0,0E0,0E0,0E0,0E0],"parents":[2147483647,0,0,1,1,2,2,3,3,5,5,6,6],"right_children":[2,4,6,8,-1,10,12,-1,-1,-1,-1,-1,-1],"split_conditions":[5.3132796E-1,-2.810455E-1,2.9019809E0,2.0907625E2,-0E0,2.071384E0,2.401875E3,-1.3904377E-3,-7.651585E-3,2.337512E-3,9.475164E-3,6.2097334E-3,-8.9344516E-4],"split_indices":[23,50,5,85,0,35,81,0,0,0,0,0,0],"split_type":[0,0,0,0,0,0,0,0,0,0,0,0,0],"sum_hessian":[1.6209433E2,3.7795483E1,1.2429885E2,2.3498512E1,1.429697E1,2.111493E1,1.0318392E2,1.0090383E1,1.340813E1,1.1093618E1,1.0021311E1,1.3477811E1,8.9706116E1],"tree_param":{"num_deleted":"0","num_feature":"90","num_nodes":"13","size_leaf_vector":"1"}},{"base_weights":[-2.4857791E-2,-3.2062468E-1,1.4244036E-1,2.8656465E-3,-5.331033E-1,-1.7878212E-2,6.0034144E-1,-7.4662482E-3,-9.3349814E-4,-1.4736801E-3,3.6564653E-3,1.785389E-3,8.108571E-3],"categories":[],"categories_nodes":[],"categories_segments":[],"categories_sizes":[],"default_left":[0,0,0,0,0,0,0,0,0,0,0,0,0],"id":67,"left_children":[1,3,5,-1,7,9,11,-1,-1,-1,-1,-1,-1],"loss_changes":[8.109829E0,8.116922E0,7.848941E0,0E0,3.7084837E0,3.8311365E0,1.656641E0,0E0,0E0,0E0,0E0,0E0,0E0],"parents":[2147483647,0,0,1,1,2,2,4,4,5,5,6,6],"right_children":[2,4,6,-1,8,10,12,-1,-1,-1,-1,-1,-1],"split_conditions":[-4.57056E-1,2.4173793E-1,2.2072587E0,2.8656465E-3,8.596853E1,2.5620444E2,1.0239753E1,-7.4662482E-3,-9.3349814E-4,-1.4736801E-3,3.6564653E-3,1.785389E-3,8.108571E-3],"split_indices":[51,16,24,0,87,85,10,0,0,0,0,0,0],"split_type":[0,0,0,0,0,0,0,0,0,0,0,0,0],"sum_hessian":[1.5825053E2,5.759098E1,1.0065955E2,1.4138261E1,4.3452717E1,7.517096E1,2.5488594E1,2.754543E1,1.5907289E1,5.809238E1,1.7078579E1,1.0507141E1,1.4981453E1],"tree_param":{"num_deleted":"0","num_feature":"90","num_nodes":"13","size_leaf_vector":"1"}},{"base_weights":[-0E0,-2.4347922E-1,2.7652952E-1,-5.978314E-1,-1.0389735E-1,7.046752E-1,-1.3201218E-2,-8.234311E-3,-2.4095918E-3,1.9927162E-3,-3.6198988E-3,2.6870393E-3,9.949325E-3,4.9814866E-3,-4.28115E-3],"categories":[],"categories_nodes":[],"categories_segments":[],"categories_sizes":[],"default_left":[0,0,0,0,0,0,0,0,0,0,0,0,0,0,0],"id":68,"left_children":[1,3,5,7,9,11,13,-1,-1,-1,-1,-1,-1,-1,-1],"loss_changes":[1.09797325E1,3.7671623E0,9.92741E0,9.069967E-1,5.3088264E0,2.863576E0,1.0415309E1,0E0,0E0,0E0,0E0,0E0,0E0,0E0,0E0],"parents":[2147483647,0,0,1,1,2,2,3,3,4,4,5,5,6,6],"right_children":[2,4,6,8,10,12,14,-1,-1,-1,-1,-1,-1,-1,-1],"split_conditions":[6.747609E-1,8.146415E0,2.8108472E2,1.2735598E0,2.0268515E1,1.5824404E0,5.6529507E3,-8.234311E-3,-2.4095918E-3,1.9927162E-3,-3.6198988E-3,2.6870393E-3,9.949325E-3,4.9814866E-3,-4.28115E-3],"split_indices":[59,1,6,34,33,18,26,0,0,0,0,0,0,0,0],"split_type":[0,0,0,0,0,0,0,0,0,0,0,0,0,0,0],"sum_hessian":[1.5886172E2,8.37694E1,7.5092316E1,2.0804783E1,6.296462E1,2.9847288E1,4.524503E1,1.0286387E1,1.0518394E1,2.827263E1,3.4691986E1,1.4157134E1,1.5690153E1,1.9547691E1,2.5697338E1],"tree_param":{"num_deleted":"0","num_feature":"90","num_nodes":"15","size_leaf_vector":"1"}},{"base_weights":[-1.3343857E-3,-1.13981E-1,5.269523E-1,-3.944901E-1,9.427141E-3,9.09045E-3,6.156113E-4,-6.4583197E-3,-5.809404E-4,-4.130828E-3,9.959374E-4],"categories":[],"categories_nodes":[],"categories_segments":[],"categories_sizes":[],"default_left":[0,0,0,0,0,0,0,0,0,0,0],"id":69,"left_children":[1,3,5,7,9,-1,-1,-1,-1,-1,-1],"loss_changes":[9.345098E0,4.8059793E0,4.280467E0,3.118782E0,3.4730256E0,0E0,0E0,0E0,0E0,0E0,0E0],"parents":[2147483647,0,0,1,1,2,2,3,3,4,4],"right_children":[2,4,6,8,10,-1,-1,-1,-1,-1,-1],"split_conditions":[3.6677752E0,1.632486E1,5.3225166E-1,-4.68833E-2,-1.3758666E1,9.09045E-3,6.156113E-4,-6.4583197E-3,-5.809404E-4,-4.130828E-3,9.959374E-4],"split_indices":[25,33,16,15,50,0,0,0,0,0,0],"split_type":[0,0,0,0,0,0,0,0,0,0,0],"sum_hessian":[1.5648604E2,1.3105591E2,2.543012E1,3.9936905E1,9.111901E1,1.2327841E1,1.310228E1,2.0954483E1,1.8982422E1,1.3790486E1,7.732852E1],"tree_param":{"num_deleted":"0","num_feature":"90","num_nodes":"11","size_leaf_vector":"1"}},{"base_weights":[9.808918E-3,-1.8511373E-1,2.5919712E-1,-4.975022E-1,-2.5252124E-2,5.413242E-1,-3.609951E-2,-9.542301E-4,-7.3128683E-3,4.601833E-3,-1.9366735E-3,1.8575788E-3,1.0242146E-2,-3.1344648E-3,4.747844E-3],"categories":[],"categories_nodes":[],"categories_segments":[],"categories_sizes":[],"default_left":[0,0,0,0,0,0,0,0,0,0,0,0,0,0,0],"id":70,"left_children":[1,3,5,7,9,11,13,-1,-1,-1,-1,-1,-1,-1,-1],"loss_changes":[7.9223394E0,4.207053E0,6.311405E0,2.2007003E0,5.169964E0,5.5292664E0,5.3622255E0,0E0,0E0,0E0,0E0,0E0,0E0,0E0,0E0],"parents":[2147483647,0,0,1,1,2,2,3,3,4,4,5,5,6,6],"right_children":[2,4,6,8,10,12,14,-1,-1,-1,-1,-1,-1,-1,-1],"split_conditions":[2.4728088E0,3.2012544E0,2.2784738E2,1.321926E1,3.3556993E0,1.30743E0,2.1309823E-1,-9.542301E-4,-7.3128683E-3,4.601833E-3,-1.9366735E-3,1.8575788E-3,1.0242146E-2,-3.1344648E-3,4.747844E-3],"split_indices":[25,29,0,27,28,23,13,0,0,0,0,0,0,0,0],"split_type":[0,0,0,0,0,0,0,0,0,0,0,0,0,0,0],"sum_hessian":[1.5823679E2,8.798106E1,7.025574E1,2.7293825E1,6.068723E1,3.5942802E1,3.4312935E1,1.18567705E1,1.5437054E1,1.39743185E1,4.671291E1,2.2891735E1,1.3051065E1,2.3374878E1,1.0938056E1],"tree_param":{"num_deleted":"0","num_feature":"90","num_nodes":"15","size_leaf_vector":"1"}},{"base_weights":[1.4254518E-3,-4.8613927E-1,8.920608E-2,-7.979869E-3,-9.873707E-4,1.7178614E-1,-6.038645E-3,4.2382735E-3,-7.310112E-4],"categories":[],"categories_nodes":[],"categories_segments":[],"categories_sizes":[],"default_left":[0,0,0,0,0,0,0,0,0],"id":71,"left_children":[1,3,5,-1,-1,7,-1,-1,-1],"loss_changes":[6.664145E0,2.244691E0,7.81665E0,0E0,0E0,7.9135904E0,0E0,0E0,0E0],"parents":[2147483647,0,0,1,1,2,2,5,5],"right_children":[2,4,6,-1,-1,8,-1,-1,-1],"split_conditions":[1.1598574E0,2.7178207E2,1.0455459E1,-7.979869E-3,-9.873707E-4,2.9302618E2,-6.038645E-3,4.2382735E-3,-7.310112E-4],"split_indices":[24,6,19,0,0,6,0,0,0],"split_type":[0,0,0,0,0,0,0,0,0],"sum_hessian":[1.563196E2,2.1595926E1,1.3472368E2,1.0075283E1,1.1520642E1,1.2236898E2,1.2354688E1,6.0589657E1,6.1779327E1],"tree_param":{"num_deleted":"0","num_feature":"90","num_nodes":"9","size_leaf_vector":"1"}},{"base_weights":[-2.8661814E-2,-1.3057911E-1,6.6380273E-3,-6.035171E-1,-1.08714355E-2,-9.344695E-3,-1.7811138E-3,-1.9031909E-3,2.9992545E-3],"categories":[],"categories_nodes":[],"categories_segments":[],"categories_sizes":[],"default_left":[0,0,0,0,0,0,0,0,0],"id":72,"left_children":[1,3,-1,5,7,-1,-1,-1,-1],"loss_changes":[1.1156513E1,7.676633E0,0E0,3.003811E0,6.5066876E0,0E0,0E0,0E0,0E0],"parents":[2147483647,0,0,1,1,3,3,4,4],"right_children":[2,4,-1,6,8,-1,-1,-1,-1],"split_conditions":[2.9597168E0,2.2243845E-1,6.6380273E-3,-7.103928E-2,1.4128892E0,-9.344695E-3,-1.7811138E-3,-1.9031909E-3,2.9992545E-3],"split_indices":[56,57,0,38,34,0,0,0,0],"split_type":[0,0,0,0,0,0,0,0,0],"sum_hessian":[1.5740358E2,1.3925314E2,1.8150436E1,2.5651165E1,1.1360198E2,1.2420075E1,1.323109E1,7.353085E1,4.0071136E1],"tree_param":{"num_deleted":"0","num_feature":"90","num_nodes":"9","size_leaf_vector":"1"}},{"base_weights":[-3.2947823E-2,-1.699754E-1,4.1084528E-1,-0E0,-4.8335496E-1,-1.7172664E-3,7.10343E-1,-2.930554E-3,2.127591E-3,-6.84307E-3,6.716023E-4,2.9996273E-3,9.373836E-3],"categories":[],"categories_nodes":[],"categories_segments":[],"categories_sizes":[],"default_left":[0,0,0,0,0,0,0,0,0,0,0,0,0],"id":73,"left_children":[1,3,5,7,9,-1,11,-1,-1,-1,-1,-1,-1],"loss_changes":[9.856401E0,6.5801044E0,7.123917E0,5.391935E0,5.238283E0,0E0,1.2395687E0,0E0,0E0,0E0,0E0,0E0,0E0],"parents":[2147483647,0,0,1,1,2,2,3,3,4,4,6,6],"right_children":[2,4,6,8,10,-1,12,-1,-1,-1,-1,-1,-1],"split_conditions":[2.2581499E0,7.5E-1,-4.9901822E-1,-3.3638E0,4.65692E-1,-1.7172664E-3,-3.924102E-1,-2.930554E-3,2.127591E-3,-6.84307E-3,6.716023E-4,2.9996273E-3,9.373836E-3],"split_indices":[24,80,39,50,51,0,15,0,0,0,0,0,0],"split_type":[0,0,0,0,0,0,0,0,0,0,0,0,0],"sum_hessian":[1.597639E2,1.23876015E2,3.5887882E1,8.214542E1,4.1730602E1,1.1908221E1,2.397966E1,3.4745968E1,4.739945E1,3.088058E1,1.085002E1,1.0979189E1,1.3000472E1],"tree_param":{"num_deleted":"0","num_feature":"90","num_nodes":"13","size_leaf_vector":"1"}},{"base_weights":[-3.132631E-2,-1.0671281E-1,7.4847247E-3,-5.199769E-1,-1.52460635E-2,-7.939443E-3,-1.5963301E-3,4.4414657E-3,-9.747576E-4],"categories":[],"categories_nodes":[],"categories_segments":[],"categories_sizes":[],"default_left":[0,0,0,0,0,0,0,0,0],"id":74,"left_children":[1,3,-1,5,7,-1,-1,-1,-1],"loss_changes":[9.288805E0,5.34552E0,0E0,1.8301206E0,4.634464E0,0E0,0E0,0E0,0E0],"parents":[2147483647,0,0,1,1,3,3,4,4],"right_children":[2,4,-1,6,8,-1,-1,-1,-1],"split_conditions":[3.383348E0,1.2366991E0,7.4847247E-3,-1.6336279E-1,5.0293994E-1,-7.939443E-3,-1.5963301E-3,4.4414657E-3,-9.747576E-4],"split_indices":[56,56,0,30,22,0,0,0,0],"split_type":[0,0,0,0,0,0,0,0,0],"sum_hessian":[1.5875073E2,1.469153E2,1.1835435E1,2.393522E1,1.2298008E2,1.14418745E1,1.2493346E1,1.6411402E1,1.0656868E2],"tree_param":{"num_deleted":"0","num_feature":"90","num_nodes":"9","size_leaf_vector":"1"}},{"base_weights":[3.6108665E-2,-8.765549E-2,4.6785894E-1,6.561519E-2,-3.4291884E-1,7.778286E-1,-0E0,-2.5989998E-3,3.133397E-3,-1.3204395E-3,-7.88998E-3,3.2140817E-3,1.0533141E-2],"categories":[],"categories_nodes":[],"categories_segments":[],"categories_sizes":[],"default_left":[0,0,0,0,0,0,0,0,0,0,0,0,0],"id":75,"left_children":[1,3,5,7,9,11,-1,-1,-1,-1,-1,-1,-1],"loss_changes":[8.738854E0,5.032411E0,5.668001E0,6.470569E0,3.8501735E0,1.4746828E0,0E0,0E0,0E0,0E0,0E0,0E0,0E0],"parents":[2147483647,0,0,1,1,2,2,3,3,4,4,5,5],"right_children":[2,4,6,8,10,12,-1,-1,-1,-1,-1,-1,-1],"split_conditions":[2.318073E0,7.2727275E-1,2.383251E0,-2.9119606E0,1.5563161E1,1.0789196E1,-0E0,-2.5989998E-3,3.133397E-3,-1.3204395E-3,-7.88998E-3,3.2140817E-3,1.0533141E-2],"split_indices":[24,80,35,50,32,10,0,0,0,0,0,0,0],"split_type":[0,0,0,0,0,0,0,0,0,0,0,0,0],"sum_hessian":[1.5644855E2,1.2193184E2,3.4516716E1,7.589092E1,4.6040913E1,2.057988E1,1.3936836E1,3.1881413E1,4.400951E1,3.3783394E1,1.2257517E1,1.0060372E1,1.0519506E1],"tree_param":{"num_deleted":"0","num_feature":"90","num_nodes":"13","size_leaf_vector":"1"}},{"base_weights":[-0E0,-2.3378071E-1,2.7518243E-1,-3.753469E-1,2.430274E-3,2.473026E-2,7.810679E-1,1.264205E-3,-5.008927E-3,-2.3801497E-3,3.705737E-3,1.9355168E-3,1.139337E-2],"categories":[],"categories_nodes":[],"categories_segments":[],"categories_sizes":[],"default_left":[0,0,0,0,0,0,0,0,0,0,0,0,0],"id":76,"left_children":[1,3,5,7,-1,9,11,-1,-1,-1,-1,-1,-1],"loss_changes":[1.045542E1,6.149486E0,9.057928E0,4.660638E0,0E0,5.047369E0,3.9654884E0,0E0,0E0,0E0,0E0,0E0,0E0],"parents":[2147483647,0,0,1,1,2,2,3,3,5,5,6,6],"right_children":[2,4,6,8,-1,10,12,-1,-1,-1,-1,-1,-1],"split_conditions":[6.7953026E-1,6.1672645E0,1.1595114E0,6E-1,2.430274E-3,2.2471288E-2,1.1906962E0,1.264205E-3,-5.008927E-3,-2.3801497E-3,3.705737E-3,1.9355168E-3,1.139337E-2],"split_indices":[59,11,52,80,0,13,34,0,0,0,0,0,0],"split_type":[0,0,0,0,0,0,0,0,0,0,0,0,0],"sum_hessian":[1.5839662E2,8.5420685E1,7.297593E1,6.7001816E1,1.8418873E1,5.0875023E1,2.2100904E1,1.26094055E1,5.4392406E1,2.8443596E1,2.2431427E1,1.0067522E1,1.2033383E1],"tree_param":{"num_deleted":"0","num_feature":"90","num_nodes":"13","size_leaf_vector":"1"}},{"base_weights":[-2.6207285E-2,-9.972964E-2,7.823157E-3,3.956607E-3,-1.6006485E-1,1.4907763E-3,-2.8955555E-3],"categories":[],"categories_nodes":[],"categories_segments":[],"categories_sizes":[],"default_left":[0,0,0,0,0,0,0],"id":77,"left_children":[1,3,-1,-1,5,-1,-1],"loss_changes":[9.404786E0,4.498891E0,0E0,0E0,5.6102085E0,0E0,0E0],"parents":[2147483647,0,0,1,1,4,4],"right_children":[2,4,-1,-1,6,-1,-1],"split_conditions":[3.1064322E0,1.397884E0,7.823157E-3,3.956607E-3,2.4173793E-1,1.4907763E-3,-2.8955555E-3],"split_indices":[24,35,0,0,16,0,0],"split_type":[0,0,0,0,0,0,0],"sum_hessian":[1.5932756E2,1.4822093E2,1.1106628E1,1.3985842E1,1.3423509E2,3.8398876E1,9.583621E1],"tree_param":{"num_deleted":"0","num_feature":"90","num_nodes":"7","size_leaf_vector":"1"}},{"base_weights":[-2.2879362E-3,-1.1509128E-1,3.070389E-1,2.9120848E-1,-2.2662912E-1,5.3619534E-1,-1.4684612E-3,-1.2439529E-3,7.1729063E-3,-3.897132E-3,6.7093276E-4,1.0059647E-2,2.741967E-4],"categories":[],"categories_nodes":[],"categories_segments":[],"categories_sizes":[],"default_left":[0,0,0,0,0,0,0,0,0,0,0,0,0],"id":78,"left_children":[1,3,5,7,9,11,-1,-1,-1,-1,-1,-1,-1],"loss_changes":[5.37155E0,5.3554907E0,4.5845385E0,4.882465E0,4.672568E0,6.1686153E0,0E0,0E0,0E0,0E0,0E0,0E0,0E0],"parents":[2147483647,0,0,1,1,2,2,3,3,4,4,5,5],"right_children":[2,4,6,8,10,12,-1,-1,-1,-1,-1,-1,-1],"split_conditions":[2.2072587E0,2.4705E3,2.7488909E0,1.4610353E0,1.4128892E0,-2.5182476E-2,-1.4684612E-3,-1.2439529E-3,7.1729063E-3,-3.897132E-3,6.7093276E-4,1.0059647E-2,2.741967E-4],"split_indices":[24,81,21,56,34,11,0,0,0,0,0,0,0],"split_type":[0,0,0,0,0,0,0,0,0,0,0,0,0],"sum_hessian":[1.5266809E2,1.13976234E2,3.8691853E1,2.289004E1,9.10862E1,2.620197E1,1.2489882E1,1.17103195E1,1.117972E1,5.924188E1,3.1844313E1,1.2096067E1,1.4105903E1],"tree_param":{"num_deleted":"0","num_feature":"90","num_nodes":"13","size_leaf_vector":"1"}},{"base_weights":[3.4801487E-2,-3.0335968E-2,7.7894237E-3,-4.1202298E-1,7.1697965E-2,-8.4374286E-4,-6.2588984E-3,2.495207E-3,-2.3149282E-3],"categories":[],"categories_nodes":[],"categories_segments":[],"categories_sizes":[],"default_left":[0,0,0,0,0,0,0,0,0],"id":79,"left_children":[1,3,-1,5,7,-1,-1,-1,-1],"loss_changes":[8.031896E0,5.902621E0,0E0,1.785687E0,6.3579946E0,0E0,0E0,0E0,0E0],"parents":[2147483647,0,0,1,1,3,3,4,4],"right_children":[2,4,-1,6,8,-1,-1,-1,-1],"split_conditions":[3.2041996E0,-3.2605493E0,7.7894237E-3,2.3E1,7.5E-1,-8.4374286E-4,-6.2588984E-3,2.495207E-3,-2.3149282E-3],"split_indices":[56,15,0,79,80,0,0,0,0],"split_type":[0,0,0,0,0,0,0,0,0],"sum_hessian":[1.550065E2,1.4367651E2,1.1329994E1,3.005845E1,1.1361806E2,1.3896164E1,1.6162287E1,7.2877975E1,4.074009E1],"tree_param":{"num_deleted":"0","num_feature":"90","num_nodes":"9","size_leaf_vector":"1"}},{"base_weights":[3.4418367E-2,-7.5157434E-2,4.2125875E-1,3.0095937E-2,-4.9592838E-1,7.7119586E-3,-8.4751507E-4,5.3161816E-3,-7.52525E-4,-0E0,-9.615629E-3],"categories":[],"categories_nodes":[],"categories_segments":[],"categories_sizes":[],"default_left":[0,0,0,0,0,0,0,0,0,0,0],"id":80,"left_children":[1,3,5,7,9,-1,-1,-1,-1,-1,-1],"loss_changes":[6.8557477E0,5.682698E0,6.809547E0,5.5297356E0,5.729567E0,0E0,0E0,0E0,0E0,0E0,0E0],"parents":[2147483647,0,0,1,1,2,2,3,3,4,4],"right_children":[2,4,6,8,10,-1,-1,-1,-1,-1,-1],"split_conditions":[2.3022473E0,7.8571427E-1,2.080371E1,1.562648E0,1.2421572E1,7.7119586E-3,-8.4751507E-4,5.3161816E-3,-7.52525E-4,-0E0,-9.615629E-3],"split_indices":[24,80,33,35,31,0,0,0,0,0,0],"split_type":[0,0,0,0,0,0,0,0,0,0,0],"sum_hessian":[1.541603E2,1.2038043E2,3.3779865E1,9.68281E1,2.3552326E1,1.9934155E1,1.384571E1,1.6227757E1,8.060034E1,1.2558612E1,1.0993714E1],"tree_param":{"num_deleted":"0","num_feature":"90","num_nodes":"11","size_leaf_vector":"1"}},{"base_weights":[-1.7944362E-2,-1.0282322E-1,4.2250547E-1,-4.72265E-1,-2.9808227E-3,1.8386112E-4,7.340462E-3,-8.608589E-3,-2.3939554E-5,5.4457057E-3,-9.70387E-4],"categories":[],"categories_nodes":[],"categories_segments":[],"categories_sizes":[],"default_left":[0,0,0,0,0,0,0,0,0,0,0],"id":81,"left_children":[1,3,5,7,9,-1,-1,-1,-1,-1,-1],"loss_changes":[5.8846216E0,4.7823343E0,2.767901E0,4.6571546E0,5.561388E0,0E0,0E0,0E0,0E0,0E0,0E0],"parents":[2147483647,0,0,1,1,2,2,3,3,4,4],"right_children":[2,4,6,8,10,-1,-1,-1,-1,-1,-1],"split_conditions":[3.931572E0,2.4761018E-1,-9.044585E-1,3.6538944E-1,6.95173E0,1.8386112E-4,7.340462E-3,-8.608589E-3,-2.3939554E-5,5.4457057E-3,-9.70387E-4],"split_indices":[25,57,52,14,10,0,0,0,0,0,0],"split_type":[0,0,0,0,0,0,0,0,0,0,0],"sum_hessian":[1.5735793E2,1.3417033E2,2.3187593E1,2.5892717E1,1.0827762E2,1.1714687E1,1.1472906E1,1.267875E1,1.3213967E1,1.3689542E1,9.458807E1],"tree_param":{"num_deleted":"0","num_feature":"90","num_nodes":"11","size_leaf_vector":"1"}},{"base_weights":[-4.3114897E-2,-1.6437326E-1,4.198523E-1,-5.6719357E-1,-5.1021498E-2,-6.504307E-4,9.269642E-3,-8.410964E-3,-2.545745E-3,-3.1481516E-3,1.9634662E-3],"categories":[],"categories_nodes":[],"categories_segments":[],"categories_sizes":[],"default_left":[0,0,0,0,0,0,0,0,0,0,0],"id":82,"left_children":[1,3,5,7,9,-1,-1,-1,-1,-1,-1],"loss_changes":[9.182356E0,5.6494513E0,8.817974E0,1.4017305E0,7.0995126E0,0E0,0E0,0E0,0E0,0E0,0E0],"parents":[2147483647,0,0,1,1,2,2,3,3,4,4],"right_children":[2,4,6,8,10,-1,-1,-1,-1,-1,-1],"split_conditions":[3.3915863E0,2.161691E-1,-1.2016743E-1,3.0458937E0,-1.444111E0,-6.504307E-4,9.269642E-3,-8.410964E-3,-2.545745E-3,-3.1481516E-3,1.9634662E-3],"split_indices":[25,57,13,28,50,0,0,0,0,0,0],"split_type":[0,0,0,0,0,0,0,0,0,0,0],"sum_hessian":[1.6138248E2,1.2976491E2,3.1617558E1,2.5769308E1,1.03995605E2,1.6550058E1,1.50675E1,1.1080612E1,1.4688697E1,5.1041183E1,5.295442E1],"tree_param":{"num_deleted":"0","num_feature":"90","num_nodes":"11","size_leaf_vector":"1"}},{"base_weights":[-2.4553698E-3,-4.9429783E-1,8.06658E-2,-9.196444E-3,-0E0,-4.2715624E-2,3.8291365E-1,-1.3317958E-3,5.349852E-3,5.779352E-3,-5.5406237E-4],"categories":[],"categories_nodes":[],"categories_segments":[],"categories_sizes":[],"default_left":[0,0,0,0,0,0,0,0,0,0,0],"id":83,"left_children":[1,3,5,-1,-1,7,9,-1,-1,-1,-1],"loss_changes":[6.8025317E0,5.336121E0,5.318906E0,0E0,0E0,5.06562E0,3.8424034E0,0E0,0E0,0E0,0E0],"parents":[2147483647,0,0,1,1,2,2,5,5,6,6],"right_children":[2,4,6,-1,-1,8,10,-1,-1,-1,-1],"split_conditions":[1.1598574E0,1.1232752E1,1.4245245E0,-9.196444E-3,-0E0,1.506368E0,2.882233E0,-1.3317958E-3,5.349852E-3,5.779352E-3,-5.5406237E-4],"split_indices":[24,32,3,0,0,59,35,0,0,0,0],"split_type":[0,0,0,0,0,0,0,0,0,0,0],"sum_hessian":[1.573828E2,2.2191818E1,1.3519098E2,1.1298221E1,1.0893598E1,9.604661E1,3.914437E1,8.512158E1,1.092502E1,2.7439426E1,1.1704944E1],"tree_param":{"num_deleted":"0","num_feature":"90","num_nodes":"11","size_leaf_vector":"1"}},{"base_weights":[-2.914739E-2,-1.02342434E-1,6.918639E-3,-4.2863938E-1,-2.0565297E-2,-7.174686E-3,-5.0838315E-4,1.5092085E-3,-2.486271E-3],"categories":[],"categories_nodes":[],"categories_segments":[],"categories_sizes":[],"default_left":[0,0,0,0,0,0,0,0,0],"id":84,"left_children":[1,3,-1,5,7,-1,-1,-1,-1],"loss_changes":[8.211585E0,3.6606207E0,0E0,2.5966105E0,4.8279457E0,0E0,0E0,0E0,0E0],"parents":[2147483647,0,0,1,1,3,3,4,4],"right_children":[2,4,-1,6,8,-1,-1,-1,-1],"split_conditions":[3.1064322E0,4.6518534E-1,6.918639E-3,-3.984151E-2,3.0409845E1,-7.174686E-3,-5.0838315E-4,1.5092085E-3,-2.486271E-3],"split_indices":[24,23,0,30,27,0,0,0,0],"split_type":[0,0,0,0,0,0,0,0,0],"sum_hessian":[1.5649965E2,1.4426396E2,1.2235687E1,2.5984911E1,1.1827905E2,1.2957395E1,1.3027516E1,6.664836E1,5.1630688E1],"tree_param":{"num_deleted":"0","num_feature":"90","num_nodes":"9","size_leaf_vector":"1"}},{"base_weights":[-2.1310741E-2,-1.12696186E-1,8.858489E-3,2.6164335E-1,-2.293694E-1,6.352864E-3,-4.2639566E-3,-3.351409E-3,1.5589772E-3],"categories":[],"categories_nodes":[],"categories_segments":[],"categories_sizes":[],"default_left":[0,0,0,0,0,0,0,0,0],"id":85,"left_children":[1,3,-1,5,7,-1,-1,-1,-1],"loss_changes":[1.2698923E1,6.3706884E0,0E0,9.389718E0,4.7367587E0,0E0,0E0,0E0,0E0],"parents":[2147483647,0,0,1,1,3,3,4,4],"right_children":[2,4,-1,6,8,-1,-1,-1,-1],"split_conditions":[3.1064322E0,1.6412446E-1,8.858489E-3,4.17404E0,8.7896544E-1,6.352864E-3,-4.2639566E-3,-3.351409E-3,1.5589772E-3],"split_indices":[24,16,0,29,16,0,0,0,0],"split_type":[0,0,0,0,0,0,0,0,0],"sum_hessian":[1.5343608E2,1.414858E2,1.1950286E1,3.2010704E1,1.094751E2,2.1315342E1,1.0695359E1,8.711618E1,2.2358917E1],"tree_param":{"num_deleted":"0","num_feature":"90","num_nodes":"9","size_leaf_vector":"1"}},{"base_weights":[-6.2196717E-2,-2.5141698E-1,1.6880058E-1,-8.7116145E-2,-6.0797274E-1,3.291307E-1,-2.4857312E-3,-3.258084E-3,2.4573207E-3,-1.4466214E-3,-8.633694E-3,3.3893663E-4,5.9902733E-3],"categories":[],"categories_nodes":[],"categories_segments":[],"categories_sizes":[],"default_left":[0,0,0,0,0,0,0,0,0,0,0,0,0],"id":86,"left_children":[1,3,5,7,9,11,-1,-1,-1,-1,-1,-1,-1],"loss_changes":[7.3328333E0,4.972857E0,5.1724796E0,5.4996076E0,2.5504065E0,4.054915E0,0E0,0E0,0E0,0E0,0E0,0E0,0E0],"parents":[2147483647,0,0,1,1,2,2,3,3,4,4,5,5],"right_children":[2,4,6,8,10,12,-1,-1,-1,-1,-1,-1,-1],"split_conditions":[2.4728088E0,7.5E-1,2.5389526E2,1.2268536E1,1.8541272E0,1.1582497E0,-2.4857312E-3,-3.258084E-3,2.4573207E-3,-1.4466214E-3,-8.633694E-3,3.3893663E-4,5.9902733E-3],"split_indices":[25,80,0,32,25,23,0,0,0,0,0,0,0],"split_type":[0,0,0,0,0,0,0,0,0,0,0,0,0],"sum_hessian":[1.6287646E2,9.0627304E1,7.224917E1,6.470309E1,2.5924215E1,5.3368847E1,1.8880318E1,3.8580624E1,2.6122467E1,1.1021282E1,1.4902933E1,2.744776E1,2.592109E1],"tree_param":{"num_deleted":"0","num_feature":"90","num_nodes":"13","size_leaf_vector":"1"}},{"base_weights":[2.0093368E-2,-3.940646E-2,6.649043E-3,3.1435964E-1,-1.3526244E-1,-0E0,5.9829224E-3,-3.3602812E-3,1.7415216E-3],"categories":[],"categories_nodes":[],"categories_segments":[],"categories_sizes":[],"default_left":[0,0,0,0,0,0,0,0,0],"id":87,"left_children":[1,3,-1,5,7,-1,-1,-1,-1],"loss_changes":[6.4533877E0,4.962042E0,0E0,2.7162647E0,7.5123568E0,0E0,0E0,0E0,0E0],"parents":[2147483647,0,0,1,1,3,3,4,4],"right_children":[2,4,-1,6,8,-1,-1,-1,-1],"split_conditions":[3.1064322E0,1.0908097E0,6.649043E-3,4E0,2.034832E0,-0E0,5.9829224E-3,-3.3602812E-3,1.7415216E-3],"split_indices":[24,18,0,74,18,0,0,0,0],"split_type":[0,0,0,0,0,0,0,0,0],"sum_hessian":[1.5668773E2,1.4446005E2,1.2227676E1,2.871379E1,1.1574627E2,1.4646169E1,1.4067622E1,7.107362E1,4.467265E1],"tree_param":{"num_deleted":"0","num_feature":"90","num_nodes":"9","size_leaf_vector":"1"}},{"base_weights":[-1.5828775E-2,-2.0162956E-1,1.9581737E-1,-3.0723882E-1,4.412738E-3,-2.2942021E-1,3.803093E-1,1.372528E-3,-4.2684507E-3,3.745474E-4,-4.882453E-3,1.8876097E-3,8.917577E-3],"categories":[],"categories_nodes":[],"categories_segments":[],"categories_sizes":[],"default_left":[0,0,0,0,0,0,0,0,0,0,0,0,0],"id":88,"left_children":[1,3,5,7,-1,9,11,-1,-1,-1,-1,-1,-1],"loss_changes":[6.279747E0,6.0549984E0,6.0113106E0,4.295089E0,0E0,1.8263611E0,4.2946835E0,0E0,0E0,0E0,0E0,0E0,0E0],"parents":[2147483647,0,0,1,1,2,2,3,3,5,5,6,6],"right_children":[2,4,6,8,-1,10,12,-1,-1,-1,-1,-1,-1],"split_conditions":[6.7953026E-1,2.7179242E2,-7.518795E-1,6E-1,4.412738E-3,3.8733333E3,7.8572327E-1,1.372528E-3,-4.2684507E-3,3.745474E-4,-4.882453E-3,1.8876097E-3,8.917577E-3],"split_indices":[59,85,51,80,0,81,16,0,0,0,0,0,0],"split_type":[0,0,0,0,0,0,0,0,0,0,0,0,0],"sum_hessian":[1.5561044E2,8.417321E1,7.143723E1,7.386191E1,1.0311303E1,2.0648071E1,5.078916E1,1.471208E1,5.9149826E1,1.0057027E1,1.0591043E1,3.9653748E1,1.1135416E1],"tree_param":{"num_deleted":"0","num_feature":"90","num_nodes":"13","size_leaf_vector":"1"}},{"base_weights":[-2.0577813E-2,-1.585645E-1,2.5183946E-1,-2.3156333E-1,3.6577284E-3,4.814264E-1,-2.3843704E-3,1.6489838E-3,-3.290606E-3,7.617619E-3,2.8876512E-4],"categories":[],"categories_nodes":[],"categories_segments":[],"categories_sizes":[],"default_left":[0,0,0,0,0,0,0,0,0,0,0],"id":89,"left_children":[1,3,5,7,-1,9,-1,-1,-1,-1,-1],"loss_changes":[6.158304E0,4.335799E0,6.467629E0,4.023129E0,0E0,4.428048E0,0E0,0E0,0E0,0E0,0E0],"parents":[2147483647,0,0,1,1,2,2,3,3,5,5],"right_children":[2,4,6,8,-1,10,-1,-1,-1,-1,-1],"split_conditions":[2.0692585E0,8.6843103E-1,2.7E1,6E-1,3.6577284E-3,2.276444E0,-2.3843704E-3,1.6489838E-3,-3.290606E-3,7.617619E-3,2.8876512E-4],"split_indices":[56,14,79,80,0,11,0,0,0,0,0],"split_type":[0,0,0,0,0,0,0,0,0,0,0],"sum_hessian":[1.609445E2,1.0860463E2,5.2339874E1,9.7149666E1,1.1454964E1,3.636622E1,1.5973654E1,1.78902E1,7.925947E1,2.0929745E1,1.5436476E1],"tree_param":{"num_deleted":"0","num_feature":"90","num_nodes":"11","size_leaf_vector":"1"}},{"base_weights":[-4.0436752E-2,-2.0073065E-1,1.7426671E-1,-3.1840414E-1,1.3738994E-1,7.836286E-3,2.935131E-2,2.1213607E-4,-5.7664923E-3,3.8269123E-3,-1.433897E-3,5.1023914E-3,-9.0925413E-4],"categories":[],"categories_nodes":[],"categories_segments":[],"categories_sizes":[],"default_left":[0,0,0,0,0,0,0,0,0,0,0,0,0],"id":90,"left_children":[1,3,5,7,9,-1,11,-1,-1,-1,-1,-1,-1],"loss_changes":[5.6468716E0,3.950735E0,5.626479E0,6.620509E0,1.9361657E0,0E0,3.6776607E0,0E0,0E0,0E0,0E0,0E0,0E0],"parents":[2147483647,0,0,1,1,2,2,3,3,4,4,6,6],"right_children":[2,4,6,8,10,-1,12,-1,-1,-1,-1,-1,-1],"split_conditions":[1.3961656E0,2.6871996E0,1.097516E0,8E-1,1.9828901E1,7.836286E-3,8.284283E0,2.1213607E-4,-5.7664923E-3,3.8269123E-3,-1.433897E-3,5.1023914E-3,-9.0925413E-4],"split_indices":[21,25,18,53,33,0,10,0,0,0,0,0,0],"split_type":[0,0,0,0,0,0,0,0,0,0,0,0,0],"sum_hessian":[1.5966129E2,9.282139E1,6.68399E1,7.004096E1,2.2780426E1,1.048514E1,5.6354755E1,3.021061E1,3.9830357E1,1.2721344E1,1.0059081E1,1.0809422E1,4.5545334E1],"tree_param":{"num_deleted":"0","num_feature":"90","num_nodes":"13","size_leaf_vector":"1"}},{"base_weights":[-5.337442E-2,-3.9075407E-1,4.0948465E-2,3.1342215E-4,-5.7143897E-1,-3.3071208E-1,1.6333732E-1,-8.091098E-3,-1.4579084E-3,-6.363701E-4,-6.865615E-3,6.7162323E-3,3.6391555E-4],"categories":[],"categories_nodes":[],"categories_segments":[],"categories_sizes":[],"default_left":[0,0,0,0,0,0,0,0,0,0,0,0,0],"id":91,"left_children":[1,3,5,-1,7,9,11,-1,-1,-1,-1,-1,-1],"loss_changes":[5.3688016E0,3.1116276E0,5.820294E0,0E0,1.9871874E0,2.5040796E0,5.933777E0,0E0,0E0,0E0,0E0,0E0,0E0],"parents":[2147483647,0,0,1,1,2,2,4,4,5,5,6,6],"right_children":[2,4,6,-1,8,10,12,-1,-1,-1,-1,-1,-1],"split_conditions":[2.6862508E-1,3.0422856E3,5.3132796E-1,