{"learner":{"attributes":{"best_iteration":"368","best_score":"0.605437291264534","scikit_learn":"{\"_estimator_type\": \"classifier\"}"},"feature_names":[],"feature_types":[],"gradient_booster":{"model":{"cats":{"enc":[],"feature_segments":[],"sorted_idx":[]},"gbtree_model_param":{"num_parallel_tree":"1","num_trees":"449"},"iteration_indptr":[0,1,2,3,4,5,6,7,8,9,10,11,12,13,14,15,16,17,18,19,20,21,22,23,24,25,26,27,28,29,30,31,32,33,34,35,36,37,38,39,40,41,42,43,44,45,46,47,48,49,50,51,52,53,54,55,56,57,58,59,60,61,62,63,64,65,66,67,68,69,70,71,72,73,74,75,76,77,78,79,80,81,82,83,84,85,86,87,88,89,90,91,92,93,94,95,96,97,98,99,100,101,102,103,104,105,106,107,108,109,110,111,112,113,114,115,116,117,118,119,120,121,122,123,124,125,126,127,128,129,130,131,132,133,134,135,136,137,138,139,140,141,142,143,144,145,146,147,148,149,150,151,152,153,154,155,156,157,158,159,160,161,162,163,164,165,166,167,168,169,170,171,172,173,174,175,176,177,178,179,180,181,182,183,184,185,186,187,188,189,190,191,192,193,194,195,196,197,198,199,200,201,202,203,204,205,206,207,208,209,210,211,212,213,214,215,216,217,218,219,220,221,222,223,224,225,226,227,228,229,230,231,232,233,234,235,236,237,238,239,240,241,242,243,244,245,246,247,248,249,250,251,252,253,254,255,256,257,258,259,260,261,262,263,264,265,266,267,268,269,270,271,272,273,274,275,276,277,278,279,280,281,282,283,284,285,286,287,288,289,290,291,292,293,294,295,296,297,298,299,300,301,302,303,304,305,306,307,308,309,310,311,312,313,314,315,316,317,318,319,320,321,322,323,324,325,326,327,328,329,330,331,332,333,334,335,336,337,338,339,340,341,342,343,344,345,346,347,348,349,350,351,352,353,354,355,356,357,358,359,360,361,362,363,364,365,366,367,368,369,370,371,372,373,374,375,376,377,378,379,380,381,382,383,384,385,386,387,388,389,390,391,392,393,394,395,396,397,398,399,400,401,402,403,404,405,406,407,408,409,410,411,412,413,414,415,416,417,418,419,420,421,422,423,424,425,426,427,428,429,430,431,432,433,434,435,436,437,438,439,440,441,442,443,444,445,446,447,448,449],"tree_info":[0,0,0,0,0,0,0,0,0,0,0,0,0,0,0,0,0,0,0,0,0,0,0,0,0,0,0,0,0,0,0,0,0,0,0,0,0,0,0,0,0,0,0,0,0,0,0,0,0,0,0,0,0,0,0,0,0,0,0,0,0,0,0,0,0,0,0,0,0,0,0,0,0,0,0,0,0,0,0,0,0,0,0,0,0,0,0,0,0,0,0,0,0,0,0,0,0,0,0,0,0,0,0,0,0,0,0,0,0,0,0,0,0,0,0,0,0,0,0,0,0,0,0,0,0,0,0,0,0,0,0,0,0,0,0,0,0,0,0,0,0,0,0,0,0,0,0,0,0,0,0,0,0,0,0,0,0,0,0,0,0,0,0,0,0,0,0,0,0,0,0,0,0,0,0,0,0,0,0,0,0,0,0,0,0,0,0,0,0,0,0,0,0,0,0,0,0,0,0,0,0,0,0,0,0,0,0,0,0,0,0,0,0,0,0,0,0,0,0,0,0,0,0,0,0,0,0,0,0,0,0,0,0,0,0,0,0,0,0,0,0,0,0,0,0,0,0,0,0,0,0,0,0,0,0,0,0,0,0,0,0,0,0,0,0,0,0,0,0,0,0,0,0,0,0,0,0,0,0,0,0,0,0,0,0,0,0,0,0,0,0,0,0,0,0,0,0,0,0,0,0,0,0,0,0,0,0,0,0,0,0,0,0,0,0,0,0,0,0,0,0,0,0,0,0,0,0,0,0,0,0,0,0,0,0,0,0,0,0,0,0,0,0,0,0,0,0,0,0,0,0,0,0,0,0,0,0,0,0,0,0,0,0,0,0,0,0,0,0,0,0,0,0,0,0,0,0,0,0,0,0,0,0,0,0,0,0,0,0,0,0,0,0,0,0,0,0,0,0,0,0,0,0,0,0,0,0,0,0,0,0,0,0,0,0,0,0,0,0,0,0,0,0,0,0,0,0,0,0,0,0,0,0,0,0,0,0,0,0,0,0,0,0,0,0,0,0,0,0],"trees":[{"base_weights":[9.803534E-3,-2.073067E-1,2.8759358E-2,9.52821E-3,-3.1228724E-1,-1.3993724E-1,-2.2083754E-2,-5.5967313E-1,1.14187986E-1,-5.648344E-3,-2.3430914E-2,-1.35848615E-2,1.1357339E-2],"categories":[],"categories_nodes":[],"categories_segments":[],"categories_sizes":[],"default_left":[0,0,0,0,0,0,0,0,0,0,0,0,0],"id":0,"left_children":[1,3,-1,-1,5,7,-1,9,11,-1,-1,-1,-1],"loss_changes":[2.403611E1,5.326779E0,0E0,0E0,5.155763E0,6.7240725E0,0E0,1.1626234E0,6.0231037E0,0E0,0E0,0E0,0E0],"parents":[2147483647,0,0,1,1,4,4,5,5,7,7,8,8],"right_children":[2,4,-1,-1,6,8,-1,10,12,-1,-1,-1,-1],"split_conditions":[2.5657697E0,5.580233E-1,2.8759358E-2,9.52821E-3,7.432263E-1,3.6753532E-1,-2.2083754E-2,5.462713E-1,-2.956878E0,-5.648344E-3,-2.3430914E-2,-1.35848615E-2,1.1357339E-2],"split_indices":[56,20,0,0,16,59,0,12,52,0,0,0,0],"split_type":[0,0,0,0,0,0,0,0,0,0,0,0,0],"sum_hessian":[1.1092527E2,9.111318E1,1.9812086E1,1.3716363E1,7.739682E1,5.7752357E1,1.9644463E1,2.1614594E1,3.6137764E1,1.02974205E1,1.1317173E1,1.0437232E1,2.5700531E1],"tree_param":{"num_deleted":"0","num_feature":"90","num_nodes":"13","size_leaf_vector":"1"}},{"base_weights":[-7.636812E-2,-3.0517548E-1,2.7524019E-2,-6.271113E-1,-9.601689E-2,-4.0985623E-4,-8.871472E-1,-1.7591568E-2,1.2531687E-1,-9.508524E-3,-3.6363035E-2,1.6504591E-2,-1.8363172E-1,5.8817407E-3,-1.7512139E-2],"categories":[],"categories_nodes":[],"categories_segments":[],"categories_sizes":[],"default_left":[0,0,0,0,0,0,0,0,0,0,0,0,0,0,0],"id":1,"left_children":[1,3,-1,5,7,-1,9,-1,11,-1,-1,-1,13,-1,-1],"loss_changes":[2.5697237E1,5.7708225E0,0E0,5.151226E0,6.845395E0,0E0,2.9445744E0,0E0,5.8985863E0,0E0,0E0,0E0,4.241543E0,0E0,0E0],"parents":[2147483647,0,0,1,1,3,3,4,4,6,6,8,8,12,12],"right_children":[2,4,-1,6,8,-1,10,-1,12,-1,-1,-1,14,-1,-1],"split_conditions":[2.5486484E0,-4.94546E-1,2.7524019E-2,6.8421054E-1,3.895584E0,-4.0985623E-4,1.7303581E0,-1.7591568E-2,2.46842E0,-9.508524E-3,-3.6363035E-2,1.6504591E-2,1.029929E1,5.8817407E-3,-1.7512139E-2],"split_indices":[56,51,0,80,9,0,18,0,35,0,0,0,31,0,0],"split_type":[0,0,0,0,0,0,0,0,0,0,0,0,0,0,0],"sum_hessian":[1.0988988E2,9.086037E1,1.902951E1,3.3267757E1,5.7592606E1,1.1102883E1,2.2164875E1,1.7587524E1,4.0005085E1,1.0038954E1,1.212592E1,1.6867487E1,2.3137596E1,1.1753836E1,1.1383761E1],"tree_param":{"num_deleted":"0","num_feature":"90","num_nodes":"15","size_leaf_vector":"1"}},{"base_weights":[-2.5622142E-2,-2.0903173E-1,2.4144629E-2,1.8808798E-1,-3.4213194E-1,-7.983447E-4,1.1547863E-2,-5.231112E-1,4.466809E-3,-1.6323725E-3,-7.196503E-1,-4.703303E-3,-2.7217366E-2],"categories":[],"categories_nodes":[],"categories_segments":[],"categories_sizes":[],"default_left":[0,0,0,0,0,0,0,0,0,0,0,0,0],"id":2,"left_children":[1,3,-1,5,7,-1,-1,9,-1,-1,11,-1,-1],"loss_changes":[1.7020107E1,5.142742E0,0E0,1.2052402E0,6.706476E0,0E0,0E0,4.463977E0,0E0,0E0,3.0678997E0,0E0,0E0],"parents":[2147483647,0,0,1,1,3,3,4,4,7,7,10,10],"right_children":[2,4,-1,6,8,-1,-1,10,-1,-1,12,-1,-1],"split_conditions":[2.4207559E0,1.4388877E1,2.4144629E-2,2.0380887E2,2.3791277E1,-7.983447E-4,1.1547863E-2,3.248E3,4.466809E-3,-1.6323725E-3,1.0243681E1,-4.703303E-3,-2.7217366E-2],"split_indices":[24,10,0,85,10,0,0,81,0,0,32,0,0],"split_type":[0,0,0,0,0,0,0,0,0,0,0,0,0],"sum_hessian":[1.0949235E2,9.14038E1,1.8088547E1,2.179452E1,6.9609276E1,1.0036706E1,1.1757814E1,5.151118E1,1.8098097E1,1.672464E1,3.478654E1,1.0279618E1,2.4506922E1],"tree_param":{"num_deleted":"0","num_feature":"90","num_nodes":"13","size_leaf_vector":"1"}},{"base_weights":[-0E0,-1.755275E-1,2.6525244E-2,-2.959603E-1,1.2011155E-2,-6.505507E-1,-6.975217E-2,-3.407102E-3,-3.0364068E-2,-3.5943517E-1,2.0903912E-1,1.564098E-3,-2.0012675E-2,-4.599097E-3,1.6538676E-2],"categories":[],"categories_nodes":[],"categories_segments":[],"categories_sizes":[],"default_left":[0,0,0,0,0,0,0,0,0,0,0,0,0,0,0],"id":3,"left_children":[1,3,-1,5,-1,7,9,-1,-1,11,13,-1,-1,-1,-1],"loss_changes":[1.7899399E1,6.8386602E0,0E0,6.063201E0,0E0,5.1349144E0,4.480186E0,0E0,0E0,3.8530133E0,3.7449937E0,0E0,0E0,0E0,0E0],"parents":[2147483647,0,0,1,1,3,3,5,5,6,6,9,9,10,10],"right_children":[2,4,-1,6,-1,8,10,-1,-1,12,14,-1,-1,-1,-1],"split_conditions":[2.3995273E0,8.0949056E-1,2.6525244E-2,-4.68704E-1,1.2011155E-2,3.871E3,-1.417128E0,-3.407102E-3,-3.0364068E-2,1.4943401E0,2.1E1,1.564098E-3,-2.0012675E-2,-4.599097E-3,1.6538676E-2],"split_indices":[24,58,0,51,0,81,50,0,0,24,79,0,0,0,0],"split_type":[0,0,0,0,0,0,0,0,0,0,0,0,0,0,0],"sum_hessian":[1.1105161E2,9.39364E1,1.7115213E1,7.921189E1,1.4724507E1,2.852915E1,5.068274E1,1.3094224E1,1.5434925E1,2.5451668E1,2.5231073E1,1.0902477E1,1.4549191E1,1.2082488E1,1.3148584E1],"tree_param":{"num_deleted":"0","num_feature":"90","num_nodes":"15","size_leaf_vector":"1"}},{"base_weights":[-1.9277845E-2,-1.9372569E-1,2.5162118E-2,5.392539E-2,-3.9446095E-1,1.38629945E-2,-2.573734E-1,-1.0309879E-1,-7.033384E-1,3.261477E-3,-1.9716948E-2,-1.3808046E-2,7.818169E-3,-3.2117315E-2,-4.93256E-3],"categories":[],"categories_nodes":[],"categories_segments":[],"categories_sizes":[],"default_left":[0,0,0,0,0,0,0,0,0,0,0,0,0,0,0],"id":4,"left_children":[1,3,-1,5,7,-1,9,11,13,-1,-1,-1,-1,-1,-1],"loss_changes":[1.6822945E1,4.960264E0,0E0,5.854498E0,4.320589E0,0E0,4.1075044E0,4.368887E0,3.995018E0,0E0,0E0,0E0,0E0,0E0,0E0],"parents":[2147483647,0,0,1,1,3,3,4,4,6,6,7,7,8,8],"right_children":[2,4,-1,6,8,-1,10,12,14,-1,-1,-1,-1,-1,-1],"split_conditions":[2.5751739E0,1.6794665E0,2.5162118E-2,-1.6080966E0,7.2727275E-1,1.38629945E-2,2.7572381E0,-1.138692E-1,-2.6149E-1,3.261477E-3,-1.9716948E-2,-1.3808046E-2,7.818169E-3,-3.2117315E-2,-4.93256E-3],"split_indices":[56,18,0,11,80,0,25,38,51,0,0,0,0,0,0],"split_type":[0,0,0,0,0,0,0,0,0,0,0,0,0,0,0],"sum_hessian":[1.1037711E2,9.3498566E1,1.6878544E1,4.139751E1,5.210106E1,1.8187464E1,2.3210047E1,2.9016403E1,2.3084656E1,1.2224092E1,1.0985955E1,1.5065418E1,1.3950984E1,1.2003927E1,1.1080728E1],"tree_param":{"num_deleted":"0","num_feature":"90","num_nodes":"15","size_leaf_vector":"1"}},{"base_weights":[5.8974832E-2,-9.9765316E-2,2.6226066E-2,9.7359315E-2,-3.950795E-1,-1.936953E-1,4.616927E-1,-6.4712006E-1,8.9911494E-4,-1.6535534E-2,6.0331603E-3,1.4064936E-3,2.675827E-2,-8.918428E-3,-2.7336882E-2],"categories":[],"categories_nodes":[],"categories_segments":[],"categories_sizes":[],"default_left":[0,0,0,0,0,0,0,0,0,0,0,0,0,0,0],"id":5,"left_children":[1,3,-1,5,7,9,11,13,-1,-1,-1,-1,-1,-1,-1],"loss_changes":[1.4967603E1,5.72461E0,0E0,6.382229E0,4.5493236E0,4.9785833E0,4.2250495E0,1.2054014E0,0E0,0E0,0E0,0E0,0E0,0E0,0E0],"parents":[2147483647,0,0,1,1,3,3,4,4,5,5,6,6,7,7],"right_children":[2,4,-1,6,8,10,12,14,-1,-1,-1,-1,-1,-1,-1],"split_conditions":[2.5751739E0,7.3333335E-1,2.6226066E-2,1.2633753E0,1.771235E-1,2.2250298E2,-2.1152184E-3,2.3956876E2,8.9911494E-4,-1.6535534E-2,6.0331603E-3,1.4064936E-3,2.675827E-2,-8.918428E-3,-2.7336882E-2],"split_indices":[56,80,0,34,51,0,30,85,0,0,0,0,0,0,0],"split_type":[0,0,0,0,0,0,0,0,0,0,0,0,0,0,0],"sum_hessian":[1.09320854E2,9.245922E1,1.6861635E1,5.5236156E1,3.722306E1,3.0463865E1,2.4772291E1,2.3449627E1,1.3773434E1,1.6236277E1,1.4227589E1,1.4333357E1,1.0438934E1,1.2730786E1,1.0718841E1],"tree_param":{"num_deleted":"0","num_feature":"90","num_nodes":"15","size_leaf_vector":"1"}},{"base_weights":[-2.1596069E-2,-1.815405E-1,2.1722045E-2,-4.776489E-4,-5.039382E-1,-1.7625882E-1,1.5934486E-2,3.718734E-3,-8.2445085E-1,4.3056514E-2,-4.007537E-1,-3.086318E-2,-1.3359847E-2,-4.937008E-3,9.529347E-3,-2.1153223E-2,-1.0639364E-3],"categories":[],"categories_nodes":[],"categories_segments":[],"categories_sizes":[],"default_left":[0,0,0,0,0,0,0,0,0,0,0,0,0,0,0,0,0],"id":6,"left_children":[1,3,-1,5,7,9,-1,-1,11,13,15,-1,-1,-1,-1,-1,-1],"loss_changes":[1.3423778E1,5.2861204E0,0E0,5.967755E0,7.2217894E0,2.6811082E0,0E0,0E0,1.0675621E-1,1.6652353E0,2.4802017E0,0E0,0E0,0E0,0E0,0E0,0E0],"parents":[2147483647,0,0,1,1,3,3,4,4,5,5,8,8,9,9,10,10],"right_children":[2,4,-1,6,8,10,-1,-1,12,14,16,-1,-1,-1,-1,-1,-1],"split_conditions":[2.5657697E0,7.5E-1,2.1722045E-2,7.042838E-1,1.6093463E0,2.1855307E1,1.5934486E-2,3.718734E-3,4.139211E-1,2.1379465E1,-2.6665876E0,-3.086318E-2,-1.3359847E-2,-4.937008E-3,9.529347E-3,-2.1153223E-2,-1.0639364E-3],"split_indices":[56,80,0,58,18,7,0,0,59,33,50,0,0,0,0,0,0],"split_type":[0,0,0,0,0,0,0,0,0,0,0,0,0,0,0,0,0],"sum_hessian":[1.1062453E2,9.288449E1,1.7740036E1,6.1755573E1,3.1128916E1,4.812168E1,1.3633893E1,1.0407245E1,2.0721672E1,2.4032679E1,2.4089003E1,1.0381029E1,1.0340642E1,1.3104484E1,1.0928195E1,1.1378922E1,1.271008E1],"tree_param":{"num_deleted":"0","num_feature":"90","num_nodes":"17","size_leaf_vector":"1"}},{"base_weights":[-2.2538368E-2,-1.8613267E-1,2.1302734E-2,1.7657833E-2,-4.875165E-1,1.2716205E-2,-2.0235732E-1,-2.6818268E-2,-1.2800056E-1,4.6010516E-3,-4.002931E-1,6.066611E-3,-1.3551531E-2,-1.8867899E-2,-2.4461567E-3],"categories":[],"categories_nodes":[],"categories_segments":[],"categories_sizes":[],"default_left":[0,0,0,0,0,0,0,0,0,0,0,0,0,0,0],"id":7,"left_children":[1,3,-1,5,7,-1,9,-1,11,-1,13,-1,-1,-1,-1],"loss_changes":[1.3511819E1,6.042967E0,0E0,5.3935227E0,4.972496E0,0E0,2.897368E0,0E0,2.8442757E0,0E0,1.411439E0,0E0,0E0,0E0,0E0],"parents":[2147483647,0,0,1,1,3,3,4,4,6,6,8,8,10,10],"right_children":[2,4,-1,6,8,-1,10,-1,12,-1,14,-1,-1,-1,-1],"split_conditions":[2.5751739E0,7.3333335E-1,2.1302734E-2,1.4112809E0,3.499504E-1,1.2716205E-2,1.0941914E1,-2.6818268E-2,1.9427717E1,4.6010516E-3,1.3783686E0,6.066611E-3,-1.3551531E-2,-1.8867899E-2,-2.4461567E-3],"split_indices":[56,80,0,21,59,0,32,0,7,0,3,0,0,0,0],"split_type":[0,0,0,0,0,0,0,0,0,0,0,0,0,0,0],"sum_hessian":[1.10715935E2,9.228359E1,1.8432343E1,5.518933E1,3.709426E1,1.9537163E1,3.5652172E1,1.536295E1,2.173131E1,1.2003679E1,2.364849E1,1.0364577E1,1.1366734E1,1.1724176E1,1.1924315E1],"tree_param":{"num_deleted":"0","num_feature":"90","num_nodes":"15","size_leaf_vector":"1"}},{"base_weights":[-2.4457632E-2,-1.5630886E-1,1.8550871E-2,4.670215E-2,-5.314308E-1,-2.3465769E-1,5.042276E-1,1.1180829E-3,-7.8974026E-1,-4.4355133E-1,2.826798E-3,2.9401819E-3,2.220122E-2,-3.2474436E-2,-9.489279E-3,-1.61541E-3,-2.2716932E-2],"categories":[],"categories_nodes":[],"categories_segments":[],"categories_sizes":[],"default_left":[0,0,0,0,0,0,0,0,0,0,0,0,0,0,0,0,0],"id":8,"left_children":[1,3,-1,5,7,9,11,-1,13,15,-1,-1,-1,-1,-1,-1,-1],"loss_changes":[9.418501E0,7.5130367E0,0E0,8.416832E0,5.477166E0,2.9642754E0,1.8413324E0,0E0,1.9832201E0,2.613997E0,0E0,0E0,0E0,0E0,0E0,0E0,0E0],"parents":[2147483647,0,0,1,1,3,3,4,4,5,5,6,6,8,8,9,9],"right_children":[2,4,-1,6,8,10,12,-1,14,16,-1,-1,-1,-1,-1,-1,-1],"split_conditions":[2.3995273E0,7.5E-1,1.8550871E-2,8.69427E-1,4.8747053E0,6.3632846E0,2.4239244E1,1.1180829E-3,2.2E1,4.3907803E-1,2.826798E-3,2.9401819E-3,2.220122E-2,-3.2474436E-2,-9.489279E-3,-1.61541E-3,-2.2716932E-2],"split_indices":[24,80,0,22,5,5,2,0,79,59,0,0,0,0,0,0,0],"split_type":[0,0,0,0,0,0,0,0,0,0,0,0,0,0,0,0,0],"sum_hessian":[1.095691E2,9.282161E1,1.6747488E1,6.049865E1,3.232296E1,3.738795E1,2.31107E1,1.0025767E1,2.2297194E1,2.3368336E1,1.4019613E1,1.030699E1,1.280371E1,1.1535375E1,1.0761818E1,1.217717E1,1.1191167E1],"tree_param":{"num_deleted":"0","num_feature":"90","num_nodes":"17","size_leaf_vector":"1"}},{"base_weights":[-1.7391106E-2,-1.5978709E-1,1.939255E-2,-5.4103404E-1,4.7903687E-2,-7.4745184E-1,-1.11343594E-4,2.772281E-1,-2.4591908E-1,-9.815364E-3,-2.9277371E-2,1.8545898E-2,-4.988793E-3,3.743621E-3,-1.7635688E-2],"categories":[],"categories_nodes":[],"categories_segments":[],"categories_sizes":[],"default_left":[0,0,0,0,0,0,0,0,0,0,0,0,0,0,0],"id":9,"left_children":[1,3,-1,5,7,9,-1,11,13,-1,-1,-1,-1,-1,-1],"loss_changes":[1.0440606E1,7.701038E0,0E0,3.3878088E0,4.296492E0,1.0015335E0,0E0,5.9425325E0,3.809175E0,0E0,0E0,0E0,0E0,0E0,0E0],"parents":[2147483647,0,0,1,1,3,3,4,4,5,5,7,7,8,8],"right_children":[2,4,-1,6,8,10,-1,12,14,-1,-1,-1,-1,-1,-1],"split_conditions":[2.5486484E0,4.2847E0,1.939255E-2,2.4054195E1,7.2727275E-1,1.6127495E0,-1.11343594E-4,1.6321828E0,2.197299E-1,-9.815364E-3,-2.9277371E-2,1.8545898E-2,-4.988793E-3,3.743621E-3,-1.7635688E-2],"split_indices":[56,9,0,33,80,18,0,21,30,0,0,0,0,0,0],"split_type":[0,0,0,0,0,0,0,0,0,0,0,0,0,0,0],"sum_hessian":[1.08843445E2,9.1489525E1,1.735392E1,3.1981045E1,5.950848E1,2.1867683E1,1.0113362E1,3.444181E1,2.506667E1,1.0184738E1,1.1682944E1,1.9664146E1,1.4777662E1,1.1935175E1,1.31314945E1],"tree_param":{"num_deleted":"0","num_feature":"90","num_nodes":"15","size_leaf_vector":"1"}},{"base_weights":[-4.043586E-2,-3.7093014E-1,1.6007638E-1,3.020234E-3,-5.3006583E-1,-9.726358E-3,3.1934872E-1,-1.335907E-3,-2.38408E-2,6.558927E-2,6.7049074E-1,-1.0931049E-2,1.4264264E-2,6.8261265E-3,2.879804E-2],"categories":[],"categories_nodes":[],"categories_segments":[],"categories_sizes":[],"default_left":[0,0,0,0,0,0,0,0,0,0,0,0,0,0,0],"id":10,"left_children":[1,3,5,-1,7,-1,9,-1,-1,11,13,-1,-1,-1,-1],"loss_changes":[7.8207626E0,3.685967E0,5.7430563E0,0E0,3.9593744E0,0E0,4.517618E0,0E0,0E0,6.648642E0,1.8377523E0,0E0,0E0,0E0,0E0],"parents":[2147483647,0,0,1,1,2,2,4,4,6,6,9,9,10,10],"right_children":[2,4,6,-1,8,-1,10,-1,-1,12,14,-1,-1,-1,-1],"split_conditions":[-4.68704E-1,-5.3011066E-1,6.134285E-1,3.020234E-3,3.5389473E3,-9.726358E-3,1.714443E1,-1.335907E-3,-2.38408E-2,-1.2152715E0,1.4509372E0,-1.0931049E-2,1.4264264E-2,6.8261265E-3,2.879804E-2],"split_indices":[51,39,23,0,81,0,1,0,0,50,3,0,0,0,0],"split_type":[0,0,0,0,0,0,0,0,0,0,0,0,0,0,0],"sum_hessian":[1.1263397E2,4.2831215E1,6.980276E1,1.0198963E1,3.263225E1,1.5985703E1,5.3817055E1,1.3002115E1,1.9630136E1,3.344494E1,2.0372116E1,1.5835868E1,1.760907E1,1.0145519E1,1.0226598E1],"tree_param":{"num_deleted":"0","num_feature":"90","num_nodes":"15","size_leaf_vector":"1"}},{"base_weights":[3.798745E-2,-8.611591E-2,2.0237174E-2,-4.705069E-1,5.5855986E-2,-1.417338E-3,-2.1786632E-2,2.5202557E-1,-3.112895E-1,-2.733E-2,2.288833E-2,-2.0615509E-2,3.6136524E-3,-1.0022686E-2,1.2320165E-2],"categories":[],"categories_nodes":[],"categories_segments":[],"categories_sizes":[],"default_left":[0,0,0,0,0,0,0,0,0,0,0,0,0,0,0],"id":11,"left_children":[1,3,-1,5,7,-1,-1,9,11,13,-1,-1,-1,-1,-1],"loss_changes":[8.933266E0,5.2476664E0,0E0,2.3385987E0,4.994788E0,0E0,0E0,6.9807944E0,4.2696133E0,4.40988E0,0E0,0E0,0E0,0E0,0E0],"parents":[2147483647,0,0,1,1,3,3,4,4,7,7,8,8,9,9],"right_children":[2,4,-1,6,8,-1,-1,10,12,14,-1,-1,-1,-1,-1],"split_conditions":[2.4207559E0,6.284866E-1,2.0237174E-2,3.758489E-1,7.5E-1,-1.417338E-3,-2.1786632E-2,1.483116E-1,1.7756581E0,4E0,2.288833E-2,-2.0615509E-2,3.6136524E-3,-1.0022686E-2,1.2320165E-2],"split_indices":[24,23,0,58,80,0,0,30,24,82,0,0,0,0,0],"split_type":[0,0,0,0,0,0,0,0,0,0,0,0,0,0,0],"sum_hessian":[1.0588103E2,8.939694E1,1.6484087E1,2.3813957E1,6.5582985E1,1.0597546E1,1.3216413E1,4.4040604E1,2.1542381E1,2.9063765E1,1.4976837E1,1.1502579E1,1.0039802E1,1.804311E1,1.1020656E1],"tree_param":{"num_deleted":"0","num_feature":"90","num_nodes":"15","size_leaf_vector":"1"}},{"base_weights":[1.7664285E-2,-1.5355149E-1,2.7624784E-2,2.306215E-1,-2.870523E-1,1.6125232E-2,-1.2387369E-3,7.160424E-3,-4.0120646E-1,-5.656124E-1,-0E0,-0E0,-2.3095194E-2],"categories":[],"categories_nodes":[],"categories_segments":[],"categories_sizes":[],"default_left":[0,0,0,0,0,0,0,0,0,0,0,0,0],"id":12,"left_children":[1,3,-1,5,7,-1,-1,-1,9,11,-1,-1,-1],"loss_changes":[1.8015102E1,5.0616655E0,0E0,2.3608682E0,4.640265E0,0E0,0E0,0E0,3.8326225E0,5.1725903E0,0E0,0E0,0E0],"parents":[2147483647,0,0,1,1,3,3,4,4,8,8,9,9],"right_children":[2,4,-1,6,8,-1,-1,-1,10,12,-1,-1,-1],"split_conditions":[2.5751739E0,1.4388877E1,2.7624784E-2,3.0225635E2,8.351483E-2,1.6125232E-2,-1.2387369E-3,7.160424E-3,3.7477565E0,1.8330286E1,-0E0,-0E0,-2.3095194E-2],"split_indices":[56,10,0,6,14,0,0,0,50,7,0,0,0],"split_type":[0,0,0,0,0,0,0,0,0,0,0,0,0],"sum_hessian":[1.10190735E2,9.356048E1,1.6630253E1,2.2786858E1,7.077362E1,1.0651101E1,1.2135756E1,1.1455221E1,5.93184E1,4.0832428E1,1.8485973E1,1.0983407E1,2.9849022E1],"tree_param":{"num_deleted":"0","num_feature":"90","num_nodes":"13","size_leaf_vector":"1"}},{"base_weights":[-0E0,-1.19667016E-1,1.6135376E-2,1.0109232E-2,-2.4947079E-1,-3.5799608E-1,5.6071253E-3,-1.3326599E-1,-6.867761E-1,-1.1116438E-2,9.128578E-3,-9.694946E-3,-2.6337381E-2],"categories":[],"categories_nodes":[],"categories_segments":[],"categories_sizes":[],"default_left":[0,0,0,0,0,0,0,0,0,0,0,0,0],"id":13,"left_children":[1,3,-1,-1,5,7,-1,9,11,-1,-1,-1,-1],"loss_changes":[7.1594877E0,5.6173534E0,0E0,0E0,3.731473E0,3.9136147E0,0E0,4.3715935E0,4.5689964E-1,0E0,0E0,0E0,0E0],"parents":[2147483647,0,0,1,1,4,4,5,5,7,7,8,8],"right_children":[2,4,-1,-1,6,8,-1,10,12,-1,-1,-1,-1],"split_conditions":[2.5657697E0,2.0906403E0,1.6135376E-2,1.0109232E-2,9.257045E-1,7.5E-1,5.6071253E-3,7.1E1,6.1318803E0,-1.1116438E-2,9.128578E-3,-9.694946E-3,-2.6337381E-2],"split_indices":[56,25,0,0,51,80,0,77,5,0,0,0,0],"split_type":[0,0,0,0,0,0,0,0,0,0,0,0,0],"sum_hessian":[1.0883321E2,9.067125E1,1.8161968E1,1.8510046E1,7.21612E1,5.8994465E1,1.3166737E1,3.761502E1,2.1379444E1,2.5328505E1,1.2286515E1,1.0121712E1,1.1257732E1],"tree_param":{"num_deleted":"0","num_feature":"90","num_nodes":"13","size_leaf_vector":"1"}},{"base_weights":[-1.3235334E-2,-1.9841787E-1,2.504367E-2,1.1497017E-2,-2.9781792E-1,5.6049824E-3,-3.9183408E-1,-5.7065666E-1,1.7526846E-2,-2.3084106E-2,-4.8947623E-3,1.0654636E-2,-8.617179E-3],"categories":[],"categories_nodes":[],"categories_segments":[],"categories_sizes":[],"default_left":[0,0,0,0,0,0,0,0,0,0,0,0,0],"id":14,"left_children":[1,3,-1,-1,5,-1,7,9,11,-1,-1,-1,-1],"loss_changes":[1.749819E1,5.5905724E0,0E0,0E0,3.9716363E0,0E0,5.41617E0,3.2997055E0,2.538049E0,0E0,0E0,0E0,0E0],"parents":[2147483647,0,0,1,1,4,4,6,6,7,7,8,8],"right_children":[2,4,-1,-1,6,-1,8,10,12,-1,-1,-1,-1],"split_conditions":[2.5751739E0,6E-1,2.504367E-2,1.1497017E-2,5.7315614E-2,5.6049824E-3,3.7477565E0,1.771235E-1,1.0268541E1,-2.3084106E-2,-4.8947623E-3,1.0654636E-2,-8.617179E-3],"split_indices":[56,80,0,0,14,0,50,51,50,0,0,0,0],"split_type":[0,0,0,0,0,0,0,0,0,0,0,0,0],"sum_hessian":[1.0934222E2,9.148611E1,1.785611E1,1.1784794E1,7.970131E1,1.1764246E1,6.7937065E1,4.758411E1,2.0352955E1,2.9962292E1,1.7621819E1,1.0277363E1,1.0075592E1],"tree_param":{"num_deleted":"0","num_feature":"90","num_nodes":"13","size_leaf_vector":"1"}},{"base_weights":[-2.7701734E-2,-1.9217457E-1,2.268134E-2,4.04766E-2,-4.8857918E-1,-1.582939E-1,1.4900401E-2,-2.4308048E-3,-7.635294E-1,7.118192E-3,-3.7314877E-1,-3.0465782E-2,-9.005302E-3,-2.681809E-4,-2.026874E-2],"categories":[],"categories_nodes":[],"categories_segments":[],"categories_sizes":[],"default_left":[0,0,0,0,0,0,0,0,0,0,0,0,0,0,0],"id":15,"left_children":[1,3,-1,5,7,9,-1,-1,11,-1,13,-1,-1,-1,-1],"loss_changes":[1.4351468E1,6.7518673E0,0E0,5.188268E0,4.213422E0,3.482903E0,0E0,0E0,1.5806522E0,0E0,2.5412657E0,0E0,0E0,0E0,0E0],"parents":[2147483647,0,0,1,1,3,3,4,4,5,5,8,8,10,10],"right_children":[2,4,-1,6,8,10,-1,-1,12,-1,14,-1,-1,-1,-1],"split_conditions":[2.5657697E0,7.2727275E-1,2.268134E-2,8.9545935E-1,1.7269286E0,3.395432E-1,1.4900401E-2,-2.4308048E-3,1.5036464E0,7.118192E-3,5.903535E-1,-3.0465782E-2,-9.005302E-3,-2.681809E-4,-2.026874E-2],"split_indices":[56,80,0,22,18,12,0,0,21,0,52,0,0,0,0],"split_type":[0,0,0,0,0,0,0,0,0,0,0,0,0,0,0],"sum_hessian":[1.0926658E2,9.208886E1,1.7177715E1,5.1615387E1,4.0473473E1,3.6097523E1,1.5517865E1,1.808073E1,2.2392744E1,1.1812965E1,2.4284557E1,1.2261689E1,1.0131054E1,1.2702131E1,1.1582426E1],"tree_param":{"num_deleted":"0","num_feature":"90","num_nodes":"15","size_leaf_vector":"1"}},{"base_weights":[-4.881503E-2,-2.1202812E-1,4.9475387E-1,9.677805E-3,-3.0546474E-1,2.4720604E-2,1.0841122E-3,-1.329283E-1,-2.0726997E-2,-1.6692089E-2,1.206688E-1,1.54050775E-2,-1.7280334E-3],"categories":[],"categories_nodes":[],"categories_segments":[],"categories_sizes":[],"default_left":[0,0,0,0,0,0,0,0,0,0,0,0,0],"id":16,"left_children":[1,3,5,-1,7,-1,-1,9,-1,-1,11,-1,-1],"loss_changes":[9.698404E0,4.463904E0,3.2792788E0,0E0,4.3706264E0,0E0,0E0,6.254273E0,0E0,0E0,2.7577138E0,0E0,0E0],"parents":[2147483647,0,0,1,1,2,2,4,4,7,7,10,10],"right_children":[2,4,6,-1,8,-1,-1,10,-1,-1,12,-1,-1],"split_conditions":[3.9248576E0,1.368942E1,2.229738E2,9.677805E-3,6.9060576E-1,2.4720604E-2,1.0841122E-3,-2.1538434E0,-2.0726997E-2,-1.6692089E-2,4.70508E-1,1.54050775E-2,-1.7280334E-3],"split_indices":[25,7,0,0,16,0,0,52,0,0,52,0,0],"split_type":[0,0,0,0,0,0,0,0,0,0,0,0,0],"sum_hessian":[1.065463E2,8.3587776E1,2.295852E1,1.0909571E1,7.267821E1,1.1801696E1,1.1156824E1,5.2958725E1,1.9719484E1,1.9679697E1,3.327903E1,1.0089559E1,2.318947E1],"tree_param":{"num_deleted":"0","num_feature":"90","num_nodes":"13","size_leaf_vector":"1"}},{"base_weights":[-2.1481033E-2,-2.1378036E-1,3.9503047E-1,5.662272E-3,-3.379782E-1,2.9359937E-2,6.7661777E-3,-6.3173354E-1,-1.14929825E-1,-1.0251587E-2,1.15926005E-2,-2.6048431E-2,-6.579263E-3,6.274768E-3,-1.2625105E-2],"categories":[],"categories_nodes":[],"categories_segments":[],"categories_sizes":[],"default_left":[0,0,0,0,0,0,0,0,0,0,0,0,0,0,0],"id":17,"left_children":[1,3,5,-1,7,-1,9,11,13,-1,-1,-1,-1,-1,-1],"loss_changes":[8.839118E0,4.049156E0,7.29605E0,0E0,3.4436898E0,0E0,3.356423E0,1.4837799E0,4.027934E0,0E0,0E0,0E0,0E0,0E0,0E0],"parents":[2147483647,0,0,1,1,2,2,4,4,6,6,7,7,8,8],"right_children":[2,4,6,-1,8,-1,10,12,14,-1,-1,-1,-1,-1,-1],"split_conditions":[3.5137677E0,9.420625E0,3.2434765E-1,5.662272E-3,-4.21367E-1,2.9359937E-2,2.3961975E1,-1.7723377E0,-4.8377228E-1,-1.0251587E-2,1.15926005E-2,-2.6048431E-2,-6.579263E-3,6.274768E-3,-1.2625105E-2],"split_indices":[25,31,14,0,51,0,86,15,11,0,0,0,0,0,0],"split_type":[0,0,0,0,0,0,0,0,0,0,0,0,0,0,0],"sum_hessian":[1.0738082E2,7.495072E1,3.24301E1,1.6478622E1,5.84721E1,1.1226121E1,2.120398E1,2.2687021E1,3.5785076E1,1.0473322E1,1.0730657E1,1.2242397E1,1.0444624E1,1.688964E1,1.8895437E1],"tree_param":{"num_deleted":"0","num_feature":"90","num_nodes":"15","size_leaf_vector":"1"}},{"base_weights":[9.895793E-3,-2.8063288E-1,2.8858733E-1,-5.7868373E-1,2.904917E-2,6.114921E-2,3.003268E-2,-2.405221E-2,-3.067255E-3,-8.720293E-3,1.5300464E-2,-2.1008098E-1,3.0181545E-1,1.2076559E-3,-1.3960437E-2,-7.4731E-4,1.7909816E-2],"categories":[],"categories_nodes":[],"categories_segments":[],"categories_sizes":[],"default_left":[0,0,0,0,0,0,0,0,0,0,0,0,0,0,0,0,0],"id":18,"left_children":[1,3,5,7,9,11,-1,-1,-1,-1,-1,13,15,-1,-1,-1,-1],"loss_changes":[9.23496E0,5.382658E0,8.912718E0,2.458745E0,4.7185364E0,3.2674522E0,0E0,0E0,0E0,0E0,0E0,1.6873318E0,2.9118447E0,0E0,0E0,0E0,0E0],"parents":[2147483647,0,0,1,1,2,2,3,3,4,4,5,5,11,11,12,12],"right_children":[2,4,6,8,10,12,-1,-1,-1,-1,-1,14,16,-1,-1,-1,-1],"split_conditions":[-6.58885E-1,1.1594597E1,3.9569187E0,6.6E1,1.2871166E0,1.4173446E0,3.003268E-2,-2.405221E-2,-3.067255E-3,-8.720293E-3,1.5300464E-2,1.551437E0,4.5385888E-1,1.2076559E-3,-1.3960437E-2,-7.4731E-4,1.7909816E-2],"split_indices":[52,32,25,78,34,3,0,0,0,0,0,21,57,0,0,0,0],"split_type":[0,0,0,0,0,0,0,0,0,0,0,0,0,0,0,0,0],"sum_hessian":[1.1000748E2,5.29747E1,5.7032776E1,2.6931751E1,2.6042952E1,4.5410625E1,1.162215E1,1.6698845E1,1.0232905E1,1.5494552E1,1.05484E1,2.0492376E1,2.4918247E1,1.0207709E1,1.0284668E1,1.189229E1,1.3025958E1],"tree_param":{"num_deleted":"0","num_feature":"90","num_nodes":"17","size_leaf_vector":"1"}},{"base_weights":[-3.512617E-2,-1.4766216E-1,1.9806864E-2,5.6422383E-2,-4.2635903E-1,-1.7851725E-1,1.52844945E-2,-7.1350193E-1,-8.0062434E-2,-1.6532142E-2,3.370276E-2,-2.6862772E-2,-1.1152601E-2,6.122218E-3,-1.1789618E-2,-1.2589587E-2,1.2527179E-2],"categories":[],"categories_nodes":[],"categories_segments":[],"categories_sizes":[],"default_left":[0,0,0,0,0,0,0,0,0,0,0,0,0,0,0,0,0],"id":19,"left_children":[1,3,-1,5,7,9,-1,11,13,-1,15,-1,-1,-1,-1,-1,-1],"loss_changes":[8.574003E0,5.763507E0,0E0,6.399779E0,3.702361E0,3.315918E0,0E0,7.6070786E-2,2.2331722E0,0E0,4.7637753E0,0E0,0E0,0E0,0E0,0E0,0E0],"parents":[2147483647,0,0,1,1,3,3,4,4,5,5,7,7,8,8,10,10],"right_children":[2,4,-1,6,8,10,-1,12,14,-1,16,-1,-1,-1,-1,-1,-1],"split_conditions":[1.4798795E0,7.2727275E-1,1.9806864E-2,8.9545935E-1,3.35753E0,2.9675243E0,1.52844945E-2,6.7079015E-2,3.8975182E0,-1.6532142E-2,3.948276E0,-2.6862772E-2,-1.1152601E-2,6.122218E-3,-1.1789618E-2,-1.2589587E-2,1.2527179E-2],"split_indices":[23,80,0,22,28,89,0,39,28,0,9,0,0,0,0,0,0],"split_type":[0,0,0,0,0,0,0,0,0,0,0,0,0,0,0,0,0],"sum_hessian":[1.0835185E2,9.523362E1,1.3118228E1,5.4860977E1,4.0372646E1,3.61983E1,1.8662678E1,2.0122677E1,2.0249968E1,1.2832819E1,2.3365479E1,1.0062669E1,1.0060009E1,1.0140367E1,1.0109601E1,1.00304365E1,1.3335043E1],"tree_param":{"num_deleted":"0","num_feature":"90","num_nodes":"17","size_leaf_vector":"1"}},{"base_weights":[9.7373456E-2,-3.6386136E-2,5.232044E-1,-1.7553365E-1,1.1523697E-2,2.6311897E-2,2.0778938E-3,1.0922379E-2,-2.9568285E-1,3.873854E-3,-4.4514057E-1,-0E0,-1.8413771E-2],"categories":[],"categories_nodes":[],"categories_segments":[],"categories_sizes":[],"default_left":[0,0,0,0,0,0,0,0,0,0,0,0,0],"id":20,"left_children":[1,3,5,7,-1,-1,-1,-1,9,-1,11,-1,-1],"loss_changes":[6.6207E0,5.0432363E0,3.8429995E0,4.5012918E0,0E0,0E0,0E0,0E0,3.8514152E0,0E0,3.105505E0,0E0,0E0],"parents":[2147483647,0,0,1,1,2,2,3,3,8,8,10,10],"right_children":[2,4,6,8,-1,-1,-1,-1,10,-1,12,-1,-1],"split_conditions":[1.1347419E0,1.9028046E1,1.8965571E0,9.830569E0,1.1523697E-2,2.6311897E-2,2.0778938E-3,1.0922379E-2,7E-1,3.873854E-3,1.6919294E-1,-0E0,-1.8413771E-2],"split_indices":[23,1,18,1,0,0,0,0,53,0,14,0,0],"split_type":[0,0,0,0,0,0,0,0,0,0,0,0,0],"sum_hessian":[1.0929442E2,8.366802E1,2.5626394E1,6.46345E1,1.9033531E1,1.2734132E1,1.2892262E1,1.0273284E1,5.436121E1,1.3348029E1,4.1013184E1,1.2146963E1,2.8866219E1],"tree_param":{"num_deleted":"0","num_feature":"90","num_nodes":"13","size_leaf_vector":"1"}},{"base_weights":[-1.0858468E-2,-1.7162561E-1,3.5497788E-1,-3.1552023E-1,1.5784839E-1,-3.2674505E-3,2.411039E-2,2.2476332E-3,-4.5911214E-1,1.6288666E-2,-4.9753874E-3,-2.363354E-2,-1.1157175E-1,4.4183964E-3,-1.1821234E-2],"categories":[],"categories_nodes":[],"categories_segments":[],"categories_sizes":[],"default_left":[0,0,0,0,0,0,0,0,0,0,0,0,0,0,0],"id":21,"left_children":[1,3,5,7,9,-1,-1,-1,11,-1,-1,-1,13,-1,-1],"loss_changes":[6.606478E0,3.97008E0,7.565867E0,3.4783158E0,3.4337184E0,0E0,0E0,0E0,4.3062153E0,0E0,0E0,0E0,1.9982418E0,0E0,0E0],"parents":[2147483647,0,0,1,1,2,2,3,3,4,4,8,8,12,12],"right_children":[2,4,6,8,10,-1,-1,-1,12,-1,-1,-1,14,-1,-1],"split_conditions":[3.5137677E0,4.0285964E0,-7.23076E-1,7E-1,1.0268541E1,-3.2674505E-3,2.411039E-2,2.2476332E-3,3.6753532E-1,1.6288666E-2,-4.9753874E-3,-2.363354E-2,4.572344E-1,4.4183964E-3,-1.1821234E-2],"split_indices":[25,50,52,53,50,0,0,0,59,0,0,0,16,0,0],"split_type":[0,0,0,0,0,0,0,0,0,0,0,0,0,0,0],"sum_hessian":[1.0981447E2,7.797621E1,3.1838257E1,5.5388214E1,2.2587997E1,1.5850911E1,1.5987345E1,1.42138E1,4.117441E1,1.040219E1,1.2185807E1,1.9120136E1,2.2054277E1,1.10840645E1,1.0970213E1],"tree_param":{"num_deleted":"0","num_feature":"90","num_nodes":"15","size_leaf_vector":"1"}},{"base_weights":[-7.114375E-2,-2.2680955E-1,4.2865014E-1,6.612834E-3,-3.093758E-1,2.0645294E-2,1.6576189E-4,-4.3617085E-1,1.0725852E-3,-1.8551592E-3,-5.8290523E-1,-5.3936993E-3,-2.1912033E-2],"categories":[],"categories_nodes":[],"categories_segments":[],"categories_sizes":[],"default_left":[0,0,0,0,0,0,0,0,0,0,0,0,0],"id":22,"left_children":[1,3,5,-1,7,-1,-1,9,-1,-1,11,-1,-1],"loss_changes":[8.546153E0,3.3164277E0,2.4711537E0,0E0,3.4458714E0,0E0,0E0,2.6227522E0,0E0,0E0,1.5574379E0,0E0,0E0],"parents":[2147483647,0,0,1,1,2,2,4,4,7,7,10,10],"right_children":[2,4,6,-1,8,-1,-1,10,-1,-1,12,-1,-1],"split_conditions":[1.1609575E0,3.7194293E0,1.9509298E0,6.612834E-3,7.4445E-1,2.0645294E-2,1.6576189E-4,3.248E3,1.0725852E-3,-1.8551592E-3,6.805159E-1,-5.3936993E-3,-2.1912033E-2],"split_indices":[23,5,18,0,58,0,0,81,0,0,20,0,0],"split_type":[0,0,0,0,0,0,0,0,0,0,0,0,0],"sum_hessian":[1.06644485E2,8.2913155E1,2.373133E1,1.1457274E1,7.145588E1,1.3200315E1,1.0531015E1,5.293099E1,1.8524893E1,1.6665707E1,3.626528E1,1.1811512E1,2.445377E1],"tree_param":{"num_deleted":"0","num_feature":"90","num_nodes":"13","size_leaf_vector":"1"}},{"base_weights":[5.071743E-4,-4.3704465E-1,1.3901104E-1,-4.585862E-4,-2.1089647E-2,2.8067905E-1,-2.301365E-1,-7.9831764E-2,4.67041E-1,-1.8206818E-2,2.4278525E-3,-1.2892898E-2,7.157302E-3,-1.2919332E-3,6.4622056E-1,2.6979316E-2,5.3068097E-3],"categories":[],"categories_nodes":[],"categories_segments":[],"categories_sizes":[],"default_left":[0,0,0,0,0,0,0,0,0,0,0,0,0,0,0,0,0],"id":23,"left_children":[1,3,5,-1,-1,7,9,11,13,-1,-1,-1,-1,-1,15,-1,-1],"loss_changes":[6.8118653E0,2.6196666E0,4.7621326E0,0E0,0E0,4.6722827E0,3.239009E0,2.878076E0,4.417177E0,0E0,0E0,0E0,0E0,0E0,3.149393E0,0E0,0E0],"parents":[2147483647,0,0,1,1,2,2,5,5,6,6,7,7,8,8,14,14],"right_children":[2,4,6,-1,-1,8,10,12,14,-1,-1,-1,-1,-1,16,-1,-1],"split_conditions":[6.134285E-1,2.8321198E-1,1.0973444E1,-4.585862E-4,-2.1089647E-2,1.3108917E1,7.038606E-1,-1.3326E-2,5E0,-1.8206818E-2,2.4278525E-3,-1.2892898E-2,7.157302E-3,-1.2919332E-3,2.2837622E1,2.6979316E-2,5.3068097E-3],"split_indices":[23,16,11,0,0,17,12,52,54,0,0,0,0,0,7,0,0],"split_type":[0,0,0,0,0,0,0,0,0,0,0,0,0,0,0,0,0],"sum_hessian":[1.1085608E2,2.4749195E1,8.610689E1,1.1115788E1,1.3633407E1,6.355148E1,2.2555407E1,2.1132225E1,4.2419254E1,1.0067334E1,1.2488072E1,1.0482643E1,1.0649581E1,1.0696438E1,3.1722816E1,1.872659E1,1.2996227E1],"tree_param":{"num_deleted":"0","num_feature":"90","num_nodes":"17","size_leaf_vector":"1"}},{"base_weights":[-2.1421116E-2,-1.6919509E-1,3.8165545E-1,-4.5674536E-1,2.1746978E-2,-1.664575E-3,2.4163444E-2,-7.1765345E-1,2.684586E-3,3.133326E-1,-2.6239303E-1,-2.8438061E-2,-9.1122E-3,1.7715454E-2,-2.2891616E-3,2.8565943E-3,-2.0925086E-2],"categories":[],"categories_nodes":[],"categories_segments":[],"categories_sizes":[],"default_left":[0,0,0,0,0,0,0,0,0,0,0,0,0,0,0,0,0],"id":24,"left_children":[1,3,5,7,9,-1,-1,11,-1,13,15,-1,-1,-1,-1,-1,-1],"loss_changes":[6.482069E0,4.7199984E0,5.7992744E0,5.2475076E0,4.3264484E0,0E0,0E0,1.0533218E0,0E0,3.2006996E0,4.402819E0,0E0,0E0,0E0,0E0,0E0,0E0],"parents":[2147483647,0,0,1,1,2,2,3,3,4,4,7,7,9,9,10,10],"right_children":[2,4,6,8,10,-1,-1,12,-1,14,16,-1,-1,-1,-1,-1,-1],"split_conditions":[3.6677752E0,3.6050704E0,-7.985435E-1,1.714443E1,4.4173594E0,-1.664575E-3,2.4163444E-2,-1.2152715E0,2.684586E-3,6.267511E0,6.2959135E-1,-2.8438061E-2,-9.1122E-3,1.7715454E-2,-2.2891616E-3,2.8565943E-3,-2.0925086E-2],"split_indices":[25,29,52,1,29,0,0,50,0,19,16,0,0,0,0,0,0],"split_type":[0,0,0,0,0,0,0,0,0,0,0,0,0,0,0,0,0],"sum_hessian":[1.0644011E2,7.964279E1,2.6797312E1,3.1715351E1,4.7927444E1,1.3465746E1,1.3331566E1,2.1658064E1,1.0057287E1,2.4420866E1,2.3506577E1,1.1481795E1,1.0176269E1,1.4416987E1,1.0003879E1,1.3129085E1,1.0377492E1],"tree_param":{"num_deleted":"0","num_feature":"90","num_nodes":"17","size_leaf_vector":"1"}},{"base_weights":[3.0496577E-3,-1.4376658E-1,4.994085E-1,2.288226E-1,-2.7835092E-1,2.657118E-2,-0E0,1.661282E-2,-2.3751727E-3,-4.5366487E-1,8.709377E-3,-8.5407205E-2,-7.088239E-1,-1.5174994E-2,8.777081E-3,-2.7652005E-2,-6.821203E-3],"categories":[],"categories_nodes":[],"categories_segments":[],"categories_sizes":[],"default_left":[0,0,0,0,0,0,0,0,0,0,0,0,0,0,0,0,0],"id":25,"left_children":[1,3,5,7,9,-1,-1,-1,-1,11,-1,13,15,-1,-1,-1,-1],"loss_changes":[8.44636E0,4.5056515E0,5.4060583E0,2.6418333E0,6.8918996E0,0E0,0E0,0E0,0E0,4.334754E0,0E0,4.250582E0,2.0232449E0,0E0,0E0,0E0,0E0],"parents":[2147483647,0,0,1,1,2,2,3,3,4,4,9,9,11,11,12,12],"right_children":[2,4,6,8,10,-1,-1,-1,-1,12,-1,14,16,-1,-1,-1,-1],"split_conditions":[1.1682583E0,1.14568464E-1,5.5907446E-1,-1.3753528E-2,7.8E1,2.657118E-2,-0E0,1.661282E-2,-2.3751727E-3,5.6968517E0,8.709377E-3,1.4473252E0,2.552202E1,-1.5174994E-2,8.777081E-3,-2.7652005E-2,-6.821203E-3],"split_indices":[23,14,14,11,78,0,0,0,0,5,0,3,2,0,0,0,0],"split_type":[0,0,0,0,0,0,0,0,0,0,0,0,0,0,0,0,0],"sum_hessian":[1.0949372E2,8.481884E1,2.4674887E1,2.1150179E1,6.366866E1,1.3372074E1,1.1302812E1,1.0305383E1,1.0844795E1,4.964672E1,1.4021941E1,2.2214584E1,2.7432135E1,1.082271E1,1.1391873E1,1.7032444E1,1.0399692E1],"tree_param":{"num_deleted":"0","num_feature":"90","num_nodes":"17","size_leaf_vector":"1"}},{"base_weights":[-1.7512644E-2,-1.3535224E-1,1.670635E-2,2.0220876E-2,-4.3821156E-1,-1.1766346E-1,1.8442687E-2,-7.0100296E-1,2.5575815E-3,-2.9025805E-1,1.0528273E-2,-2.8385546E-2,-9.451309E-3,4.1723824E-3,-1.633249E-2],"categories":[],"categories_nodes":[],"categories_segments":[],"categories_sizes":[],"default_left":[0,0,0,0,0,0,0,0,0,0,0,0,0,0,0],"id":26,"left_children":[1,3,-1,5,7,9,-1,11,-1,13,-1,-1,-1,-1,-1],"loss_changes":[7.49948E0,4.702985E0,0E0,5.605686E0,5.0246143E0,4.4284353E0,0E0,9.593792E-1,0E0,4.7541695E0,0E0,0E0,0E0,0E0,0E0],"parents":[2147483647,0,0,1,1,3,3,4,4,5,5,7,7,9,9],"right_children":[2,4,-1,6,8,10,-1,12,-1,14,-1,-1,-1,-1,-1],"split_conditions":[2.4088557E0,7.5E-1,1.670635E-2,7.89088E-1,2.21392E-1,2.1925865E-1,1.8442687E-2,3.499504E-1,2.5575815E-3,6.805159E-1,1.0528273E-2,-2.8385546E-2,-9.451309E-3,4.1723824E-3,-1.633249E-2],"split_indices":[24,80,0,58,51,39,0,59,0,20,0,0,0,0,0],"split_type":[0,0,0,0,0,0,0,0,0,0,0,0,0,0,0],"sum_hessian":[1.09684746E2,9.30037E1,1.6681044E1,6.1584465E1,3.1419239E1,5.061017E1,1.0974294E1,2.110226E1,1.0316978E1,3.83233E1,1.2286869E1,1.0337088E1,1.0765174E1,1.3855745E1,2.4467556E1],"tree_param":{"num_deleted":"0","num_feature":"90","num_nodes":"15","size_leaf_vector":"1"}},{"base_weights":[-3.7259806E-3,-2.654508E-1,1.4015009E-1,-5.15745E-1,2.979136E-3,-1.5370752E-1,4.1388372E-1,-5.035546E-3,-2.402543E-2,-1.3640065E-2,5.6519522E-3,6.6575384E-1,-7.444792E-4,6.8484237E-3,2.9143505E-2],"categories":[],"categories_nodes":[],"categories_segments":[],"categories_sizes":[],"default_left":[0,0,0,0,0,0,0,0,0,0,0,0,0,0,0],"id":27,"left_children":[1,3,5,7,-1,9,11,-1,-1,-1,-1,13,-1,-1,-1],"loss_changes":[4.307302E0,4.0727835E0,6.0117483E0,1.7833982E0,0E0,3.9161367E0,4.603132E0,0E0,0E0,0E0,0E0,2.3304882E0,0E0,0E0,0E0],"parents":[2147483647,0,0,1,1,2,2,3,3,5,5,6,6,11,11],"right_children":[2,4,6,8,-1,10,12,-1,-1,-1,-1,14,-1,-1,-1],"split_conditions":[-4.94546E-1,1.692E3,2.1E1,8.56E2,2.979136E-3,-1.9426387E-2,8.901747E0,-5.035546E-3,-2.402543E-2,-1.3640065E-2,5.6519522E-3,1.5270189E1,-7.444792E-4,6.8484237E-3,2.9143505E-2],"split_indices":[51,75,79,75,0,38,37,0,0,0,0,17,0,0,0],"split_type":[0,0,0,0,0,0,0,0,0,0,0,0,0,0,0],"sum_hessian":[1.0874602E2,3.9208E1,6.953802E1,2.3574278E1,1.5633721E1,3.307829E1,3.645973E1,1.283894E1,1.0735338E1,1.802479E1,1.5053498E1,2.3228302E1,1.3231428E1,1.1664583E1,1.1563718E1],"tree_param":{"num_deleted":"0","num_feature":"90","num_nodes":"15","size_leaf_vector":"1"}},{"base_weights":[-0E0,1.4936758E-2,-8.1308104E-2,-3.1643006E-1,1.8466774E-1,-7.5037783E-1,1.8295767E-2,5.475672E-1,-1.7671168E-1,-1.05794575E-2,-3.015552E-2,1.1532238E-2,-7.7200322E-3,2.1875797E-4,2.7817482E-2,9.84528E-4,-1.24879265E-2],"categories":[],"categories_nodes":[],"categories_segments":[],"categories_sizes":[],"default_left":[0,0,0,0,0,0,0,0,0,0,0,0,0,0,0,0,0],"id":28,"left_children":[1,-1,3,5,7,9,11,13,15,-1,-1,-1,-1,-1,-1,-1,-1],"loss_changes":[4.6334076E0,0E0,6.0581594E0,7.8890033E0,6.194991E0,9.6017075E-1,3.3325105E0,4.3000264E0,1.3756189E0,0E0,0E0,0E0,0E0,0E0,0E0,0E0,0E0],"parents":[2147483647,0,0,2,2,3,3,4,4,5,5,6,6,7,7,8,8],"right_children":[2,-1,4,6,8,10,12,14,16,-1,-1,-1,-1,-1,-1,-1,-1],"split_conditions":[3.3685284E1,1.4936758E-2,5.6802705E3,4E1,6.176785E-1,-3.287915E-1,-9.789211E0,2.3605207E1,7.2378447E3,-1.05794575E-2,-3.015552E-2,1.1532238E-2,-7.7200322E-3,2.1875797E-4,2.7817482E-2,9.84528E-4,-1.24879265E-2],"split_indices":[8,0,88,78,15,50,11,33,88,0,0,0,0,0,0,0,0],"split_type":[0,0,0,0,0,0,0,0,0,0,0,0,0,0,0,0,0],"sum_hessian":[1.0613666E2,1.41853695E1,9.1951294E1,4.9602917E1,4.2348373E1,2.116903E1,2.843389E1,2.1305958E1,2.1042416E1,1.0894291E1,1.0274739E1,1.2652557E1,1.5781331E1,1.0178124E1,1.1127832E1,1.1031919E1,1.0010497E1],"tree_param":{"num_deleted":"0","num_feature":"90","num_nodes":"17","size_leaf_vector":"1"}},{"base_weights":[-0E0,1.3189723E-2,-1.0585319E-1,-3.7489602E-1,8.934556E-2,-2.3314536E-2,1.8088847E-3,-1.0208664E-1,1.2752462E-2,-1.3742721E-2,7.439624E-3],"categories":[],"categories_nodes":[],"categories_segments":[],"categories_sizes":[],"default_left":[0,0,0,0,0,0,0,0,0,0,0],"id":29,"left_children":[1,-1,3,5,7,-1,-1,9,-1,-1,-1],"loss_changes":[5.032915E0,0E0,4.970025E0,7.379944E0,3.6590307E0,0E0,0E0,4.627141E0,0E0,0E0,0E0],"parents":[2147483647,0,0,2,2,3,3,4,4,7,7],"right_children":[2,-1,4,6,8,-1,-1,10,-1,-1,-1],"split_conditions":[-1.2917021E1,1.3189723E-2,-1.965948E0,1.1690258E1,6.3E1,-2.3314536E-2,1.8088847E-3,-5.96472E-1,1.2752462E-2,-1.3742721E-2,7.439624E-3],"split_indices":[11,0,50,32,78,0,0,52,0,0,0],"split_type":[0,0,0,0,0,0,0,0,0,0,0],"sum_hessian":[1.07425285E2,1.878273E1,8.8642555E1,3.757423E1,5.106832E1,1.93064E1,1.8267832E1,3.2461716E1,1.8606607E1,1.649672E1,1.5964995E1],"tree_param":{"num_deleted":"0","num_feature":"90","num_nodes":"11","size_leaf_vector":"1"}},{"base_weights":[-2.6388254E-2,-1.2816015E-1,1.4872089E-2,1.1831209E-1,-3.628399E-1,4.1854104E-1,-8.005904E-3,-1.9512126E-2,-1.3429593E-1,-1.5810359E-3,2.1470642E-2,5.1086107E-3,-1.2875573E-2],"categories":[],"categories_nodes":[],"categories_segments":[],"categories_sizes":[],"default_left":[0,0,0,0,0,0,0,0,0,0,0,0,0],"id":30,"left_children":[1,3,-1,5,7,9,-1,-1,11,-1,-1,-1,-1],"loss_changes":[5.8651752E0,5.741056E0,0E0,5.748779E0,2.7539177E0,4.326436E0,0E0,0E0,3.117838E0,0E0,0E0,0E0,0E0],"parents":[2147483647,0,0,1,1,3,3,4,4,5,5,8,8],"right_children":[2,4,-1,6,8,10,-1,-1,12,-1,-1,-1,-1],"split_conditions":[2.4666493E0,8E-1,1.4872089E-2,4.8535566E0,1.4001217E0,6.223035E-1,-8.005904E-3,-1.9512126E-2,1.8487835E0,-1.5810359E-3,2.1470642E-2,5.1086107E-3,-1.2875573E-2],"split_indices":[24,53,0,11,3,23,0,0,18,0,0,0,0],"split_type":[0,0,0,0,0,0,0,0,0,0,0,0,0],"sum_hessian":[1.09444534E2,9.365594E1,1.5788595E1,4.51248E1,4.8531136E1,2.599084E1,1.913396E1,1.8887081E1,2.9644054E1,1.003657E1,1.5954272E1,1.4164007E1,1.5480048E1],"tree_param":{"num_deleted":"0","num_feature":"90","num_nodes":"13","size_leaf_vector":"1"}},{"base_weights":[6.574233E-3,-9.176749E-2,1.5911557E-2,9.739946E-3,-2.1678977E-1,-5.9219915E-1,8.853909E-3,-4.4796737E-3,-2.3698773E-2,-1.4397939E-2,1.865438E-1,-1.3751255E-3,1.3539845E-2],"categories":[],"categories_nodes":[],"categories_segments":[],"categories_sizes":[],"default_left":[0,0,0,0,0,0,0,0,0,0,0,0,0],"id":31,"left_children":[1,3,-1,-1,5,7,9,-1,-1,-1,11,-1,-1],"loss_changes":[5.994321E0,4.9650908E0,0E0,0E0,6.586379E0,1.8091221E0,4.1556125E0,0E0,0E0,0E0,2.5212305E0,0E0,0E0],"parents":[2147483647,0,0,1,1,4,4,5,5,6,6,10,10],"right_children":[2,4,-1,-1,6,8,10,-1,-1,-1,12,-1,-1],"split_conditions":[2.5751739E0,7E-1,1.5911557E-2,9.739946E-3,-4.57056E-1,-1.21857405E-1,6.0041195E-1,-4.4796737E-3,-2.3698773E-2,-1.4397939E-2,1.16338005E1,-1.3751255E-3,1.3539845E-2],"split_indices":[56,53,0,0,51,40,23,0,0,0,32,0,0],"split_type":[0,0,0,0,0,0,0,0,0,0,0,0,0],"sum_hessian":[1.0821928E2,9.16986E1,1.6520676E1,1.9512407E1,7.2186195E1,2.6711863E1,4.547433E1,1.0109791E1,1.6602072E1,1.0466777E1,3.5007553E1,1.8519674E1,1.6487879E1],"tree_param":{"num_deleted":"0","num_feature":"90","num_nodes":"13","size_leaf_vector":"1"}},{"base_weights":[-8.458336E-2,-4.4139838E-1,4.8828907E-2,3.4178098E-5,-2.097821E-2,-1.5918486E-2,1.5820065E-1,3.8939887E-1,-1.126027E-1,8.210079E-2,2.5174389E-2,9.638127E-3,-3.4504348E-1,-7.389229E-3,1.1534138E-2,-5.5597286E-4,-1.639818E-2],"categories":[],"categories_nodes":[],"categories_segments":[],"categories_sizes":[],"default_left":[0,0,0,0,0,0,0,0,0,0,0,0,0,0,0,0,0],"id":32,"left_children":[1,3,5,-1,-1,-1,7,9,11,13,-1,-1,15,-1,-1,-1,-1],"loss_changes":[5.6072974E0,3.9918556E0,5.2326746E0,0E0,0E0,0E0,4.731862E0,4.966717E0,3.632208E0,2.9196599E0,0E0,0E0,1.2541904E0,0E0,0E0,0E0,0E0],"parents":[2147483647,0,0,1,1,2,2,6,6,7,7,8,8,9,9,12,12],"right_children":[2,4,6,-1,-1,-1,8,10,12,14,-1,-1,16,-1,-1,-1,-1],"split_conditions":[1.2061841E0,-3.371739E-1,-6.785749E-1,3.4178098E-5,-2.097821E-2,-1.5918486E-2,2.3106587E2,6.3E1,-2.494376E-1,1.7718214E0,2.5174389E-2,9.638127E-3,3.0067923E2,-7.389229E-3,1.1534138E-2,-5.5597286E-4,-1.639818E-2],"split_indices":[3,39,40,0,0,0,0,78,30,18,0,0,6,0,0,0,0],"split_type":[0,0,0,0,0,0,0,0,0,0,0,0,0,0,0,0,0],"sum_hessian":[1.1076287E2,2.9906849E1,8.085602E1,1.1030222E1,1.8876627E1,1.0889505E1,6.9966515E1,3.8266766E1,3.169975E1,2.4799137E1,1.3467628E1,1.0041287E1,2.1658463E1,1.1272814E1,1.3526323E1,1.004732E1,1.1611143E1],"tree_param":{"num_deleted":"0","num_feature":"90","num_nodes":"17","size_leaf_vector":"1"}},{"base_weights":[-7.091775E-2,-1.7271489E-1,1.16754975E-2,-2.864665E-1,7.7003073E-3,-8.571562E-2,-6.239525E-1,-2.4877791E-1,1.311884E-2,-5.477818E-3,-2.5199752E-2,1.7308696E-3,-1.629138E-2],"categories":[],"categories_nodes":[],"categories_segments":[],"categories_sizes":[],"default_left":[0,0,0,0,0,0,0,0,0,0,0,0,0],"id":33,"left_children":[1,3,-1,5,-1,7,9,11,-1,-1,-1,-1,-1],"loss_changes":[5.300572E0,4.7769785E0,0E0,4.7253566E0,0E0,4.49441E0,1.785861E0,4.009758E0,0E0,0E0,0E0,0E0,0E0],"parents":[2147483647,0,0,1,1,3,3,5,5,6,6,7,7],"right_children":[2,4,-1,6,-1,8,10,12,-1,-1,-1,-1,-1],"split_conditions":[2.5486484E0,9.706975E-1,1.16754975E-2,7.5E-1,7.7003073E-3,7.108553E-1,-6.208365E-2,1.5587186E0,1.311884E-2,-5.477818E-3,-2.5199752E-2,1.7308696E-3,-1.629138E-2],"split_indices":[56,51,0,80,0,58,39,24,0,0,0,0,0],"split_type":[0,0,0,0,0,0,0,0,0,0,0,0,0],"sum_hessian":[1.10611275E2,9.248496E1,1.8126308E1,7.456251E1,1.7922455E1,4.925379E1,2.530872E1,3.907561E1,1.0178181E1,1.0290486E1,1.5018233E1,1.9096146E1,1.9979464E1],"tree_param":{"num_deleted":"0","num_feature":"90","num_nodes":"13","size_leaf_vector":"1"}},{"base_weights":[-9.87308E-3,-4.2758864E-1,1.111207E-1,-1.9418547E-2,-1.7961735E-3,-1.0030814E-2,2.5037265E-1,4.7383147E-1,-1.7470188E-1,2.1184793E-1,2.74707E-2,-1.4580335E-2,4.571048E-3,-2.1026302E-3,2.0653477E-2],"categories":[],"categories_nodes":[],"categories_segments":[],"categories_sizes":[],"default_left":[0,0,0,0,0,0,0,0,0,0,0,0,0,0,0],"id":34,"left_children":[1,3,5,-1,-1,-1,7,9,11,13,-1,-1,-1,-1,-1],"loss_changes":[5.8399606E0,1.6828728E0,5.483356E0,0E0,0E0,0E0,6.755262E0,4.3441277E0,2.7638612E0,4.709934E0,0E0,0E0,0E0,0E0,0E0],"parents":[2147483647,0,0,1,1,2,2,6,6,7,7,8,8,9,9],"right_children":[2,4,6,-1,-1,-1,8,10,12,14,-1,-1,-1,-1,-1],"split_conditions":[6.284866E-1,-1.589E3,2.1305247E-1,-1.9418547E-2,-1.7961735E-3,-1.0030814E-2,-9.29E2,9.591122E-1,-4.3063063E-2,6.223389E3,2.74707E-2,-1.4580335E-2,4.571048E-3,-2.1026302E-3,2.0653477E-2],"split_indices":[23,84,58,0,0,0,84,20,39,88,0,0,0,0,0],"split_type":[0,0,0,0,0,0,0,0,0,0,0,0,0,0,0],"sum_hessian":[1.0853799E2,2.416745E1,8.437054E1,1.33256035E1,1.0841847E1,1.8570086E1,6.580045E1,4.374884E1,2.2051613E1,3.0032606E1,1.3716232E1,1.1583303E1,1.046831E1,1.9282656E1,1.074995E1],"tree_param":{"num_deleted":"0","num_feature":"90","num_nodes":"15","size_leaf_vector":"1"}},{"base_weights":[-2.2530558E-2,1.2935815E-2,-1.07887246E-1,-1.8976665E-1,1.2107864E-2,-3.9308602E-1,8.236543E-2,-1.6257066E-1,-2.4257373E-2,1.85191E-2,-3.027544E-1,5.395217E-3,-1.232791E-2,1.8546019E-3,-1.9950358E-2],"categories":[],"categories_nodes":[],"categories_segments":[],"categories_sizes":[],"default_left":[0,0,0,0,0,0,0,0,0,0,0,0,0,0,0],"id":35,"left_children":[1,-1,3,5,-1,7,9,11,-1,-1,13,-1,-1,-1,-1],"loss_changes":[4.312561E0,0E0,4.139638E0,5.003719E0,0E0,4.124948E0,8.2717905E0,3.3251312E0,0E0,0E0,3.3744605E0,0E0,0E0,0E0,0E0],"parents":[2147483647,0,0,2,2,3,3,5,5,6,6,7,7,10,10],"right_children":[2,-1,4,6,-1,8,10,12,-1,-1,14,-1,-1,-1,-1],"split_conditions":[-1.4538098E1,1.2935815E-2,1.2484845E0,2.121151E0,1.2107864E-2,7.2581415E0,8.773883E0,4.24952E1,-2.4257373E-2,1.85191E-2,8.177924E1,5.395217E-3,-1.232791E-2,1.8546019E-3,-1.9950358E-2],"split_indices":[11,0,51,50,0,19,50,8,0,0,87,0,0,0,0],"split_type":[0,0,0,0,0,0,0,0,0,0,0,0,0,0,0],"sum_hessian":[1.11125565E2,1.5384766E1,9.574081E1,8.445635E1,1.1284453E1,4.888275E1,3.5573597E1,3.400354E1,1.487921E1,1.4929205E1,2.0644394E1,1.3680679E1,2.032286E1,1.0428081E1,1.0216313E1],"tree_param":{"num_deleted":"0","num_feature":"90","num_nodes":"15","size_leaf_vector":"1"}},{"base_weights":[-4.094455E-2,-4.0185776E-1,8.6590596E-2,-2.447947E-3,-2.4792818E-2,-1.5861984E-2,2.001746E-1,3.9140233E-1,-1.0496559E-2,9.689893E-2,7.3635834E-1,-7.198804E-3,1.4921861E-2,3.359508E-2,4.8829215E-3],"categories":[],"categories_nodes":[],"categories_segments":[],"categories_sizes":[],"default_left":[0,0,0,0,0,0,0,0,0,0,0,0,0,0,0],"id":36,"left_children":[1,3,5,-1,-1,-1,7,9,-1,11,13,-1,-1,-1,-1],"loss_changes":[5.292986E0,3.5057898E0,5.7743654E0,0E0,0E0,0E0,7.7954593E0,4.9806604E0,0E0,4.7523656E0,4.279813E0,0E0,0E0,0E0,0E0],"parents":[2147483647,0,0,1,1,2,2,6,6,7,7,9,9,10,10],"right_children":[2,4,6,-1,-1,-1,8,10,-1,12,14,-1,-1,-1,-1],"split_conditions":[2.1305247E-1,3.0056618E1,5.23003E-1,-2.447947E-3,-2.4792818E-2,-1.5861984E-2,8.773883E0,4.0608E3,-1.0496559E-2,3E0,2.2731178E1,-7.198804E-3,1.4921861E-2,3.359508E-2,4.8829215E-3],"split_indices":[58,86,23,0,0,0,50,81,0,55,7,0,0,0,0],"split_type":[0,0,0,0,0,0,0,0,0,0,0,0,0,0,0],"sum_hessian":[1.0805551E2,2.8113987E1,7.994152E1,1.8056059E1,1.0057927E1,1.063205E1,6.930947E1,5.253248E1,1.6776995E1,3.0502491E1,2.202999E1,1.632484E1,1.41776495E1,1.1539145E1,1.0490844E1],"tree_param":{"num_deleted":"0","num_feature":"90","num_nodes":"15","size_leaf_vector":"1"}},{"base_weights":[-7.036134E-2,9.52742E-2,-3.3969888E-1,-2.1171534E-1,2.9956013E-1,-5.292095E-1,-0E0,1.190541E-3,-1.5806613E-2,-5.759657E-4,1.9182933E-2,-1.9512963E-2,-7.5668083E-3,8.584986E-3,-1.0731969E-2],"categories":[],"categories_nodes":[],"categories_segments":[],"categories_sizes":[],"default_left":[0,0,0,0,0,0,0,0,0,0,0,0,0,0,0],"id":37,"left_children":[1,3,5,7,9,11,-1,-1,-1,13,-1,-1,-1,-1,-1],"loss_changes":[5.2013197E0,4.561419E0,3.0065613E0,2.517258E0,4.7925344E0,1.951189E-1,0E0,0E0,0E0,2.749586E0,0E0,0E0,0E0,0E0,0E0],"parents":[2147483647,0,0,1,1,2,2,3,3,4,4,5,5,9,9],"right_children":[2,4,6,8,10,12,-1,-1,-1,14,-1,-1,-1,-1,-1],"split_conditions":[3.139408E2,-4.68704E-1,1.692E3,5.955328E-1,5.1240276E1,1.8566877E0,-0E0,1.190541E-3,-1.5806613E-2,4.2077778E1,1.9182933E-2,-1.9512963E-2,-7.5668083E-3,8.584986E-3,-1.0731969E-2],"split_indices":[6,51,75,16,8,56,0,0,0,8,0,0,0,0,0],"split_type":[0,0,0,0,0,0,0,0,0,0,0,0,0,0,0],"sum_hessian":[1.1040008E2,6.801113E1,4.2388943E1,2.6167614E1,4.184352E1,2.7025064E1,1.5363878E1,1.4646454E1,1.1521161E1,2.2499733E1,1.9343788E1,1.5666731E1,1.1358335E1,1.1924087E1,1.0575645E1],"tree_param":{"num_deleted":"0","num_feature":"90","num_nodes":"15","size_leaf_vector":"1"}},{"base_weights":[-1.012274E-2,1.66131E-1,-2.915974E-1,-0E0,1.8023344E-2,-2.78057E-2,-1.800785E-2,-2.518736E-1,1.2466528E-2,-1.0494321E-2,8.768247E-3,-0E0,-1.7135408E-2],"categories":[],"categories_nodes":[],"categories_segments":[],"categories_sizes":[],"default_left":[0,0,0,0,0,0,0,0,0,0,0,0,0],"id":38,"left_children":[1,3,5,7,-1,9,-1,11,-1,-1,-1,-1,-1],"loss_changes":[5.6072955E0,5.0006375E0,3.24343E0,5.4828615E0,0E0,2.9902623E0,0E0,2.8128955E0,0E0,0E0,0E0,0E0,0E0],"parents":[2147483647,0,0,1,1,2,2,3,3,5,5,7,7],"right_children":[2,4,6,8,-1,10,-1,12,-1,-1,-1,-1,-1],"split_conditions":[3.115501E2,4.0425155E-1,4.8535566E0,2.5045042E1,1.8023344E-2,2.0254066E2,-1.800785E-2,1.6794665E0,1.2466528E-2,-1.0494321E-2,8.768247E-3,-0E0,-1.7135408E-2],"split_indices":[6,39,11,2,0,85,0,18,0,0,0,0,0],"split_type":[0,0,0,0,0,0,0,0,0,0,0,0,0],"sum_hessian":[1.078079E2,6.5706825E1,4.2101078E1,4.8674797E1,1.7032028E1,2.4749569E1,1.735151E1,3.1074726E1,1.760007E1,1.3023805E1,1.1725764E1,1.8021202E1,1.3053525E1],"tree_param":{"num_deleted":"0","num_feature":"90","num_nodes":"13","size_leaf_vector":"1"}},{"base_weights":[5.214497E-2,-5.4818645E-2,1.7528107E-2,2.810618E-1,-1.9079232E-1,2.139596E-2,-2.9035276E-3,-2.0455565E-2,8.389524E-3,-3.1512302E-1,3.6713696E-1,2.6489838E-4,-1.8452268E-2,-0E0,1.9716792E-2],"categories":[],"categories_nodes":[],"categories_segments":[],"categories_sizes":[],"default_left":[0,0,0,0,0,0,0,0,0,0,0,0,0,0,0],"id":39,"left_children":[1,3,-1,5,7,-1,-1,-1,9,11,13,-1,-1,-1,-1],"loss_changes":[6.1363783E0,3.9899504E0,0E0,4.451948E0,6.556246E0,0E0,0E0,0E0,5.643277E0,2.7184548E0,2.455621E0,0E0,0E0,0E0,0E0],"parents":[2147483647,0,0,1,1,3,3,4,4,8,8,9,9,10,10],"right_children":[2,4,-1,6,8,-1,-1,-1,10,12,14,-1,-1,-1,-1],"split_conditions":[2.5657697E0,1.5085432E1,1.7528107E-2,5.7E1,2.981837E0,2.139596E-2,-2.9035276E-3,-2.0455565E-2,1.4001217E0,1.6919294E-1,1.482E3,2.6489838E-4,-1.8452268E-2,-0E0,1.9716792E-2],"split_indices":[56,10,0,78,28,0,0,0,3,14,75,0,0,0,0],"split_type":[0,0,0,0,0,0,0,0,0,0,0,0,0,0,0],"sum_hessian":[1.0003435E2,8.400305E1,1.6031296E1,2.2532446E1,6.1470608E1,1.0300328E1,1.2232118E1,1.7064295E1,4.4406315E1,2.2744848E1,2.1661465E1,1.10667715E1,1.1678076E1,1.0592861E1,1.1068604E1],"tree_param":{"num_deleted":"0","num_feature":"90","num_nodes":"15","size_leaf_vector":"1"}},{"base_weights":[-5.6456108E-2,-2.2114812E-1,3.244851E-1,-3.6530378E-1,1.2859002E-1,-2.285297E-3,2.094232E-2,-5.067452E-1,3.2688363E-3,1.4279222E-2,-7.012728E-3,-2.0564133E-1,-2.4006294E-2,-1.5825717E-2,1.9557283E-3],"categories":[],"categories_nodes":[],"categories_segments":[],"categories_sizes":[],"default_left":[0,0,0,0,0,0,0,0,0,0,0,0,0,0,0],"id":40,"left_children":[1,3,5,7,9,-1,-1,11,-1,-1,-1,13,-1,-1,-1],"loss_changes":[6.9816E0,4.1839647E0,5.363059E0,4.1541657E0,3.29662E0,0E0,0E0,3.1722155E0,0E0,0E0,0E0,2.5577621E0,0E0,0E0,0E0],"parents":[2147483647,0,0,1,1,2,2,3,3,4,4,7,7,11,11],"right_children":[2,4,6,8,10,-1,-1,12,-1,-1,-1,14,-1,-1,-1],"split_conditions":[3.5137677E0,8.2519E-1,-7.985435E-1,9.262935E1,8.32439E0,-2.285297E-3,2.094232E-2,6E0,3.2688363E-3,1.4279222E-2,-7.012728E-3,-2.4715048E-1,-2.4006294E-2,-1.5825717E-2,1.9557283E-3],"split_indices":[25,20,52,4,37,0,0,54,0,0,0,40,0,0,0],"split_type":[0,0,0,0,0,0,0,0,0,0,0,0,0,0,0],"sum_hessian":[1.0781786E2,7.677658E1,3.1041283E1,5.531668E1,2.14599E1,1.5100491E1,1.5940792E1,4.3315784E1,1.2000896E1,1.134047E1,1.011943E1,2.3899454E1,1.9416332E1,1.0897921E1,1.30015335E1],"tree_param":{"num_deleted":"0","num_feature":"90","num_nodes":"15","size_leaf_vector":"1"}},{"base_weights":[-1.0287043E-2,-1.2449208E-1,1.5976373E-2,4.6015773E-3,-4.297864E-1,-1.4680035E-2,1.3643277E-1,-2.003358E-2,-4.817469E-3,1.9462433E-2,-1.2059647E-1,5.445144E-3,-1.284781E-2],"categories":[],"categories_nodes":[],"categories_segments":[],"categories_sizes":[],"default_left":[0,0,0,0,0,0,0,0,0,0,0,0,0],"id":41,"left_children":[1,3,-1,5,7,-1,9,-1,-1,-1,11,-1,-1],"loss_changes":[6.7427807E0,3.8894439E0,0E0,4.275932E0,1.2209282E0,0E0,7.625489E0,0E0,0E0,0E0,3.7617278E0,0E0,0E0],"parents":[2147483647,0,0,1,1,3,3,4,4,6,6,10,10],"right_children":[2,4,-1,6,8,-1,10,-1,-1,-1,12,-1,-1],"split_conditions":[2.5657697E0,6.9719756E-1,1.5976373E-2,5.4059786E-1,5.0138604E3,-1.4680035E-2,1.6184375E0,-2.003358E-2,-4.817469E-3,1.9462433E-2,-1.3753528E-2,5.445144E-3,-1.284781E-2],"split_indices":[56,16,0,23,26,0,56,0,0,0,11,0,0],"split_type":[0,0,0,0,0,0,0,0,0,0,0,0,0],"sum_hessian":[1.0791686E2,9.1193375E1,1.6723492E1,6.4325455E1,2.6867916E1,1.1609899E1,5.2715557E1,1.1702969E1,1.5164947E1,1.7243261E1,3.5472298E1,1.7491755E1,1.7980541E1],"tree_param":{"num_deleted":"0","num_feature":"90","num_nodes":"13","size_leaf_vector":"1"}},{"base_weights":[-8.993629E-3,-4.3035325E-1,1.1711531E-1,-0E0,-1.9861683E-2,-1.7520559E-1,2.8941065E-1,3.7990324E-3,-1.6406378E-2,4.88952E-1,-1.25409E-3,6.9439477E-1,-0E0,1.0324602E-2,2.6607634E-2],"categories":[],"categories_nodes":[],"categories_segments":[],"categories_sizes":[],"default_left":[0,0,0,0,0,0,0,0,0,0,0,0,0,0,0],"id":42,"left_children":[1,3,5,-1,-1,7,9,-1,-1,11,-1,13,-1,-1,-1],"loss_changes":[6.1566954E0,2.375267E0,4.4952497E0,0E0,0E0,3.9498408E0,3.96586E0,0E0,0E0,3.665245E0,0E0,4.9178314E-1,0E0,0E0,0E0],"parents":[2147483647,0,0,1,1,2,2,5,5,6,6,9,9,11,11],"right_children":[2,4,6,-1,-1,8,10,-1,-1,12,-1,14,-1,-1,-1],"split_conditions":[6.2043077E-1,2.5616062E-1,-4.94546E-1,-0E0,-1.9861683E-2,1.2154431E1,2.3952642E-1,3.7990324E-3,-1.6406378E-2,3.4016064E2,-1.25409E-3,-1.752845E-1,-0E0,1.0324602E-2,2.6607634E-2],"split_indices":[23,16,51,0,0,31,40,0,0,6,0,38,0,0,0],"split_type":[0,0,0,0,0,0,0,0,0,0,0,0,0,0,0],"sum_hessian":[1.0901964E2,2.4914421E1,8.410522E1,1.0123147E1,1.4791273E1,3.0100359E1,5.4004856E1,1.6595936E1,1.3504423E1,3.4048985E1,1.9955872E1,2.3474962E1,1.0574021E1,1.1225628E1,1.2249334E1],"tree_param":{"num_deleted":"0","num_feature":"90","num_nodes":"15","size_leaf_vector":"1"}},{"base_weights":[-1.848326E-2,3.9134488E-1,-1.2834457E-1,-0E0,2.177553E-2,-4.1515547E-1,1.7329795E-2,-5.8853468E-5,-1.9449964E-2,-2.068633E-1,2.4619982E-1,6.881883E-3,-1.566329E-2,-4.4890097E-3,1.5398964E-2],"categories":[],"categories_nodes":[],"categories_segments":[],"categories_sizes":[],"default_left":[0,0,0,0,0,0,0,0,0,0,0,0,0,0,0],"id":43,"left_children":[1,3,5,-1,-1,7,9,-1,-1,11,13,-1,-1,-1,-1],"loss_changes":[4.8897314E0,2.8788195E0,3.9174306E0,0E0,0E0,2.668538E0,3.1774907E0,0E0,0E0,4.521319E0,3.6645856E0,0E0,0E0,0E0,0E0],"parents":[2147483647,0,0,1,1,2,2,5,5,6,6,9,9,10,10],"right_children":[2,4,6,-1,-1,8,10,-1,-1,12,14,-1,-1,-1,-1],"split_conditions":[9.230583E0,4.389E3,3.5664487E0,-0E0,2.177553E-2,7E-1,1.281E3,-5.8853468E-5,-1.9449964E-2,5.6212006E0,2.0429213E1,6.881883E-3,-1.566329E-2,-4.4890097E-3,1.5398964E-2],"split_indices":[31,81,29,0,0,80,75,0,0,19,2,0,0,0,0],"split_type":[0,0,0,0,0,0,0,0,0,0,0,0,0,0,0],"sum_hessian":[1.07291695E2,2.0635859E1,8.665584E1,1.059182E1,1.004404E1,2.9098267E1,5.7557568E1,1.1998253E1,1.7100014E1,2.8069412E1,2.9488157E1,1.1337879E1,1.6731533E1,1.148109E1,1.8007067E1],"tree_param":{"num_deleted":"0","num_feature":"90","num_nodes":"15","size_leaf_vector":"1"}},{"base_weights":[1.8397551E-2,-1.1799531E-1,3.865017E-1,-2.378624E-1,1.089174E-2,-3.3097432E-3,2.5325641E-2,-3.2577522E-2,-4.709903E-1,-3.3863303E-1,1.6555702E-2,-1.1846033E-3,-2.0606142E-2,-1.70725E-2,-0E0],"categories":[],"categories_nodes":[],"categories_segments":[],"categories_sizes":[],"default_left":[0,0,0,0,0,0,0,0,0,0,0,0,0,0,0],"id":44,"left_children":[1,3,5,7,-1,-1,-1,9,11,13,-1,-1,-1,-1,-1],"loss_changes":[5.5636086E0,4.6146755E0,7.42126E0,2.8080378E0,0E0,0E0,0E0,6.997686E0,2.279263E0,2.0286825E0,0E0,0E0,0E0,0E0,0E0],"parents":[2147483647,0,0,1,1,2,2,3,3,7,7,8,8,9,9],"right_children":[2,4,6,8,-1,-1,-1,10,12,14,-1,-1,-1,-1,-1],"split_conditions":[3.5500853E0,9.213162E1,-7.23076E-1,1.7088833E0,1.089174E-2,-3.3097432E-3,2.5325641E-2,1.3408786E0,1.6387287E1,-1.4962761E-1,1.6555702E-2,-1.1846033E-3,-2.0606142E-2,-1.70725E-2,-0E0],"split_indices":[25,4,52,3,0,0,0,3,10,13,0,0,0,0,0],"split_type":[0,0,0,0,0,0,0,0,0,0,0,0,0,0,0],"sum_hessian":[1.043232E2,7.6119415E1,2.8203777E1,6.257714E1,1.3542276E1,1.3727637E1,1.4476139E1,3.562827E1,2.694887E1,2.4496614E1,1.1131657E1,1.0547805E1,1.6401066E1,1.364619E1,1.0850425E1],"tree_param":{"num_deleted":"0","num_feature":"90","num_nodes":"15","size_leaf_vector":"1"}},{"base_weights":[-2.9400883E-2,8.9889266E-2,-4.4735935E-1,2.1295374E-2,-6.3555904E-2,-1.5029871E-4,-2.1351987E-2,-2.281447E-1,1.4403128E-2,-7.548056E-2,-2.1760324E-2,-1.2740046E-2,4.8357947E-3],"categories":[],"categories_nodes":[],"categories_segments":[],"categories_sizes":[],"default_left":[0,0,0,0,0,0,0,0,0,0,0,0,0],"id":45,"left_children":[1,3,5,-1,7,-1,-1,9,-1,11,-1,-1,-1],"loss_changes":[5.749077E0,8.632191E0,2.641643E0,0E0,6.3964524E0,0E0,0E0,3.7510219E0,0E0,4.0661106E0,0E0,0E0,0E0],"parents":[2147483647,0,0,1,1,2,2,4,4,7,7,9,9],"right_children":[2,4,6,-1,8,-1,-1,10,-1,12,-1,-1,-1],"split_conditions":[8.916867E0,-4.898465E-1,1.6074001E1,2.1295374E-2,2.121151E0,-1.5029871E-4,-2.1351987E-2,8.7399805E-1,1.4403128E-2,3.7085557E-1,-2.1760324E-2,-1.2740046E-2,4.8357947E-3],"split_indices":[50,38,1,0,50,0,0,13,0,59,0,0,0],"split_type":[0,0,0,0,0,0,0,0,0,0,0,0,0],"sum_hessian":[1.081103E2,8.4396225E1,2.3714077E1,1.5952112E1,6.8444115E1,1.0340887E1,1.337319E1,5.4135437E1,1.4308674E1,4.3949944E1,1.0185493E1,1.7966381E1,2.5983564E1],"tree_param":{"num_deleted":"0","num_feature":"90","num_nodes":"13","size_leaf_vector":"1"}},{"base_weights":[-4.703058E-4,-3.8320974E-1,1.283135E-1,2.3451857E-3,-2.245577E-2,-1.4938569E-2,2.5505507E-1,4.7237026E-3,6.06161E-1,9.167107E-3,-2.1637465E-1,2.7981585E-2,7.968526E-3,2.0440868E-3,-1.4273865E-2],"categories":[],"categories_nodes":[],"categories_segments":[],"categories_sizes":[],"default_left":[0,0,0,0,0,0,0,0,0,0,0,0,0,0,0],"id":46,"left_children":[1,3,5,-1,-1,-1,7,9,11,-1,13,-1,-1,-1,-1],"loss_changes":[5.724186E0,5.435181E0,6.798923E0,0E0,0E0,0E0,6.0028067E0,3.1557195E0,2.1362667E0,0E0,2.1896145E0,0E0,0E0,0E0,0E0],"parents":[2147483647,0,0,1,1,2,2,6,6,7,7,8,8,10,10],"right_children":[2,4,6,-1,-1,-1,8,10,12,-1,14,-1,-1,-1,-1],"split_conditions":[2.1305247E-1,7.501863E-1,5.4059786E-1,2.3451857E-3,-2.245577E-2,-1.4938569E-2,4.3225E3,-4.8377228E-1,-1.5875855E-1,9.167107E-3,2.901635E2,2.7981585E-2,7.968526E-3,2.0440868E-3,-1.4273865E-2],"split_indices":[58,20,23,0,0,0,81,11,30,0,6,0,0,0,0],"split_type":[0,0,0,0,0,0,0,0,0,0,0,0,0,0,0],"sum_hessian":[1.0955051E2,2.7563711E1,8.19868E1,1.227019E1,1.5293521E1,1.2149568E1,6.983723E1,4.278405E1,2.7053179E1,1.8757803E1,2.4026249E1,1.1285276E1,1.5767901E1,1.1243101E1,1.2783148E1],"tree_param":{"num_deleted":"0","num_feature":"90","num_nodes":"15","size_leaf_vector":"1"}},{"base_weights":[2.2777658E-2,2.9933015E-1,-1.777172E-1,5.1947504E-1,-6.709753E-4,-1.83912E-2,2.8637204E-2,1.5050186E-3,2.2826275E-2,-3.1320772E-1,1.8920446E-2,3.1957318E-4,-2.3691228E-2],"categories":[],"categories_nodes":[],"categories_segments":[],"categories_sizes":[],"default_left":[0,0,0,0,0,0,0,0,0,0,0,0,0],"id":47,"left_children":[1,3,5,7,-1,-1,9,-1,-1,11,-1,-1,-1],"loss_changes":[6.1344104E0,3.602003E0,5.950327E0,2.794952E0,0E0,0E0,9.526381E0,0E0,0E0,4.822113E0,0E0,0E0,0E0],"parents":[2147483647,0,0,1,1,2,2,3,3,6,6,9,9],"right_children":[2,4,6,8,-1,-1,10,-1,-1,12,-1,-1,-1],"split_conditions":[1.6794665E0,1.4004165E1,2.4691261E-1,2.5022351E2,-6.709753E-4,-1.83912E-2,1.7720971E0,1.5050186E-3,2.2826275E-2,7.5E-1,1.8920446E-2,3.1957318E-4,-2.3691228E-2],"split_indices":[18,31,58,6,0,0,21,0,0,80,0,0,0],"split_type":[0,0,0,0,0,0,0,0,0,0,0,0,0],"sum_hessian":[1.0561942E2,4.5023792E1,6.059563E1,2.69238E1,1.8099993E1,1.8998344E1,4.159729E1,1.0669019E1,1.625478E1,2.661444E1,1.4982847E1,1.6384468E1,1.0229974E1],"tree_param":{"num_deleted":"0","num_feature":"90","num_nodes":"13","size_leaf_vector":"1"}},{"base_weights":[4.883756E-2,-1.5327684E-2,1.2756209E-1,2.3522128E-1,-1.5303898E-2,-7.5385305E-3,3.3573323E-1,4.4631743E-1,-4.167345E-3,7.7331685E-3,3.0577175E-2],"categories":[],"categories_nodes":[],"categories_segments":[],"categories_sizes":[],"default_left":[0,0,0,0,0,0,0,0,0,0,0],"id":48,"left_children":[1,-1,3,5,-1,-1,7,9,-1,-1,-1],"loss_changes":[4.619052E0,0E0,6.658848E0,4.306028E0,0E0,0E0,4.0103083E0,5.209832E0,0E0,0E0,0E0],"parents":[2147483647,0,0,2,2,3,3,6,6,7,7],"right_children":[2,-1,4,6,-1,-1,8,10,-1,-1,-1],"split_conditions":[7.3925145E-2,-1.5327684E-2,8.664539E0,6.799081E1,-1.5303898E-2,-7.5385305E-3,9.398006E0,7.7695596E-1,-4.167345E-3,7.7331685E-3,3.0577175E-2],"split_indices":[58,0,19,4,0,0,37,57,0,0,0],"split_type":[0,0,0,0,0,0,0,0,0,0,0],"sum_hessian":[1.0421094E2,1.0712174E1,9.3498764E1,8.174449E1,1.1754271E1,1.2631228E1,6.9113266E1,5.7004875E1,1.2108392E1,4.5728477E1,1.1276398E1],"tree_param":{"num_deleted":"0","num_feature":"90","num_nodes":"11","size_leaf_vector":"1"}},{"base_weights":[6.1299395E-2,-2.294289E-1,2.5690338E-1,-4.589462E-1,1.1256958E-2,-6.005775E-3,4.1930926E-1,-2.0906944E-2,-4.604559E-3,1.0612974E-1,6.854666E-1,-9.490577E-3,1.9653928E-2,3.2190144E-2,6.6962247E-3],"categories":[],"categories_nodes":[],"categories_segments":[],"categories_sizes":[],"default_left":[0,0,0,0,0,0,0,0,0,0,0,0,0,0,0],"id":49,"left_children":[1,3,5,7,-1,-1,9,-1,-1,11,13,-1,-1,-1,-1],"loss_changes":[6.2926493E0,6.4375014E0,5.231663E0,1.767118E0,0E0,0E0,3.6843777E0,0E0,0E0,6.7349224E0,3.5620193E0,0E0,0E0,0E0,0E0],"parents":[2147483647,0,0,1,1,2,2,3,3,6,6,9,9,10,10],"right_children":[2,4,6,8,-1,-1,10,-1,-1,12,14,-1,-1,-1,-1],"split_conditions":[3.6753532E-1,4E0,-7.924315E-1,6.4373386E-1,1.1256958E-2,-6.005775E-3,3.2434604E0,-2.0906944E-2,-4.604559E-3,8.2519E-1,8.89279E0,-9.490577E-3,1.9653928E-2,3.2190144E-2,6.6962247E-3],"split_indices":[59,55,51,23,0,0,28,0,0,20,37,0,0,0,0],"split_type":[0,0,0,0,0,0,0,0,0,0,0,0,0,0,0],"sum_hessian":[1.06339874E2,4.1602943E1,6.473693E1,3.1104986E1,1.0497955E1,1.6042063E1,4.869487E1,1.5123826E1,1.598116E1,2.4519537E1,2.4175335E1,1.3820669E1,1.0698868E1,1.1124743E1,1.30505905E1],"tree_param":{"num_deleted":"0","num_feature":"90","num_nodes":"15","size_leaf_vector":"1"}},{"base_weights":[5.9275933E-2,-3.3658928E-1,1.8226062E-1,-0E0,-1.7230164E-2,3.5864088E-1,-1.6761291E-1,6.3516015E-1,-3.0821059E-2,-1.46659175E-2,2.078926E-3,9.1267097E-1,1.5801663E-4,7.3996265E-3,-1.13444235E-2,1.311644E-2,3.6685377E-2],"categories":[],"categories_nodes":[],"categories_segments":[],"categories_sizes":[],"default_left":[0,0,0,0,0,0,0,0,0,0,0,0,0,0,0,0,0],"id":50,"left_children":[1,3,5,-1,-1,7,9,11,13,-1,-1,15,-1,-1,-1,-1,-1],"loss_changes":[5.272251E0,2.1409197E0,5.410002E0,0E0,0E0,6.538798E0,2.456031E0,5.5614986E0,2.6665304E0,0E0,0E0,1.5492077E0,0E0,0E0,0E0,0E0,0E0],"parents":[2147483647,0,0,1,1,2,2,5,5,6,6,7,7,8,8,11,11],"right_children":[2,4,6,-1,-1,8,10,12,14,-1,-1,16,-1,-1,-1,-1,-1],"split_conditions":[6.0396385E-1,3.758489E-1,7.7451468E0,-0E0,-1.7230164E-2,5.924962E0,-4.68704E-1,3.881854E0,6E0,-1.46659175E-2,2.078926E-3,5.968972E-1,1.5801663E-4,7.3996265E-3,-1.13444235E-2,1.311644E-2,3.6685377E-2],"split_indices":[23,58,11,0,0,9,51,28,54,0,0,58,0,0,0,0,0],"split_type":[0,0,0,0,0,0,0,0,0,0,0,0,0,0,0,0,0],"sum_hessian":[1.05357155E2,2.3186102E1,8.217105E1,1.0045631E1,1.3140471E1,5.554723E1,2.6623823E1,3.2496616E1,2.3050615E1,1.1293426E1,1.5330397E1,2.1383902E1,1.1112713E1,1.2335805E1,1.071481E1,1.0981652E1,1.0402249E1],"tree_param":{"num_deleted":"0","num_feature":"90","num_nodes":"17","size_leaf_vector":"1"}},{"base_weights":[-8.464955E-3,-3.5761276E-1,1.06944926E-1,-0E0,-1.9072605E-2,4.4382098E-1,-7.5947896E-2,2.602259E-2,-0E0,-4.1519204E-1,2.2742021E-1,6.990442E-5,-2.17105E-2,1.8233068E-2,-2.675539E-3],"categories":[],"categories_nodes":[],"categories_segments":[],"categories_sizes":[],"default_left":[0,0,0,0,0,0,0,0,0,0,0,0,0,0,0],"id":51,"left_children":[1,3,5,-1,-1,7,9,-1,-1,11,13,-1,-1,-1,-1],"loss_changes":[4.5767136E0,2.743234E0,5.3073864E0,0E0,0E0,5.3185363E0,5.833242E0,0E0,0E0,3.8348312E0,3.8581848E0,0E0,0E0,0E0,0E0],"parents":[2147483647,0,0,1,1,2,2,5,5,6,6,9,9,10,10],"right_children":[2,4,6,-1,-1,8,10,-1,-1,12,14,-1,-1,-1,-1],"split_conditions":[4.5404414E3,1.0941914E1,-2.7495387E-1,-0E0,-1.9072605E-2,4.7E1,2.2538789E-1,2.602259E-2,-0E0,1.8916465E0,2.084802E1,6.990442E-5,-2.17105E-2,1.8233068E-2,-2.675539E-3],"split_indices":[26,32,39,0,0,78,39,0,0,18,27,0,0,0,0],"split_type":[0,0,0,0,0,0,0,0,0,0,0,0,0,0,0],"sum_hessian":[1.0657124E2,2.6509018E1,8.0062225E1,1.2701399E1,1.3807619E1,2.8129713E1,5.1932507E1,1.2956334E1,1.517338E1,2.4946644E1,2.6985865E1,1.0754822E1,1.4191822E1,1.2140733E1,1.4845132E1],"tree_param":{"num_deleted":"0","num_feature":"90","num_nodes":"15","size_leaf_vector":"1"}},{"base_weights":[-8.031987E-2,-1.8384978E-1,1.329843E-2,-0E0,-3.4818015E-1,2.4090151E-1,-1.0998763E-2,-6.1381775E-1,-6.874203E-2,2.0066788E-2,-4.6434505E-3,-3.4929176E-3,-2.7281133E-2,-1.2030739E-2,6.6154986E-3],"categories":[],"categories_nodes":[],"categories_segments":[],"categories_sizes":[],"default_left":[0,0,0,0,0,0,0,0,0,0,0,0,0,0,0],"id":52,"left_children":[1,3,-1,5,7,9,-1,11,13,-1,-1,-1,-1,-1,-1],"loss_changes":[6.031101E0,2.9816117E0,0E0,4.1612215E0,3.3576326E0,5.4300737E0,0E0,2.9445114E0,2.9591465E0,0E0,0E0,0E0,0E0,0E0,0E0],"parents":[2147483647,0,0,1,1,3,3,4,4,5,5,7,7,8,8],"right_children":[2,4,-1,6,8,10,-1,12,14,-1,-1,-1,-1,-1,-1],"split_conditions":[2.5751739E0,1.7137911E0,1.329843E-2,7.033045E-1,3.8921937E-1,2.522767E-1,-1.0998763E-2,1.477729E0,1.4435194E0,2.0066788E-2,-4.6434505E-3,-3.4929176E-3,-2.7281133E-2,-1.2030739E-2,6.6154986E-3],"split_indices":[56,18,0,16,58,11,0,24,34,0,0,0,0,0,0],"split_type":[0,0,0,0,0,0,0,0,0,0,0,0,0,0,0],"sum_hessian":[1.08643875E2,9.258919E1,1.605469E1,4.3621384E1,4.8967804E1,2.732378E1,1.6297606E1,2.2959585E1,2.6008219E1,1.3069653E1,1.42541275E1,1.0227439E1,1.2732145E1,1.2548758E1,1.3459461E1],"tree_param":{"num_deleted":"0","num_feature":"90","num_nodes":"15","size_leaf_vector":"1"}},{"base_weights":[4.148296E-3,-9.673253E-2,3.2296658E-1,-3.8882306E-1,1.3605682E-2,1.9353967E-2,-0E0,-1.7127259E-2,-2.7972278E-3,2.3356777E-1,-2.8758356E-1,4.317086E-1,-3.4942233E-3,3.0868978E-3,-1.8224595E-2,3.0201138E-3,1.9853791E-2],"categories":[],"categories_nodes":[],"categories_segments":[],"categories_sizes":[],"default_left":[0,0,0,0,0,0,0,0,0,0,0,0,0,0,0,0,0],"id":53,"left_children":[1,3,5,7,9,-1,-1,-1,-1,11,13,15,-1,-1,-1,-1,-1],"loss_changes":[3.5998282E0,2.815906E0,3.153469E0,8.30559E-1,4.0587063E0,0E0,0E0,0E0,0E0,2.7920012E0,3.5140092E0,1.3641725E0,0E0,0E0,0E0,0E0,0E0],"parents":[2147483647,0,0,1,1,2,2,3,3,4,4,9,9,10,10,11,11],"right_children":[2,4,6,8,10,-1,-1,-1,-1,12,14,16,-1,-1,-1,-1,-1],"split_conditions":[1.1025089E0,-4.524367E-1,1.229302E0,-1.471544E0,7.2727275E-1,1.9353967E-2,-0E0,-1.7127259E-2,-2.7972278E-3,7.5610776E0,5.448392E0,7.0677996E-1,-3.4942233E-3,3.0868978E-3,-1.8224595E-2,3.0201138E-3,1.9853791E-2],"split_indices":[23,40,59,50,80,0,0,0,0,11,5,23,0,0,0,0,0],"split_type":[0,0,0,0,0,0,0,0,0,0,0,0,0,0,0,0,0],"sum_hessian":[1.04465996E2,7.9223045E1,2.5242952E1,2.1579868E1,5.7643177E1,1.240455E1,1.2838403E1,1.1154136E1,1.0425732E1,3.453267E1,2.3110506E1,2.2664974E1,1.1867696E1,1.031434E1,1.2796167E1,1.1363591E1,1.1301383E1],"tree_param":{"num_deleted":"0","num_feature":"90","num_nodes":"17","size_leaf_vector":"1"}},{"base_weights":[-2.3608789E-2,-1.4039993E-1,1.5134936E-2,-4.3378463E-1,3.496951E-2,9.0923E-6,-1.8964553E-2,-2.0595227E-1,1.40679125E-2,-1.5258397E-2,4.893639E-3],"categories":[],"categories_nodes":[],"categories_segments":[],"categories_sizes":[],"default_left":[0,0,0,0,0,0,0,0,0,0,0],"id":54,"left_children":[1,3,-1,5,7,-1,-1,9,-1,-1,-1],"loss_changes":[6.5480485E0,4.85076E0,0E0,3.3143597E0,6.2837505E0,0E0,0E0,4.5051355E0,0E0,0E0,0E0],"parents":[2147483647,0,0,1,1,3,3,4,4,7,7],"right_children":[2,4,-1,6,8,-1,-1,10,-1,-1,-1],"split_conditions":[2.5657697E0,1.3095884E0,1.5134936E-2,8.783245E-2,1.6705385E1,9.0923E-6,-1.8964553E-2,3.1514342E0,1.40679125E-2,-1.5258397E-2,4.893639E-3],"split_indices":[56,3,0,14,1,0,0,89,0,0,0],"split_type":[0,0,0,0,0,0,0,0,0,0,0],"sum_hessian":[1.0481953E2,8.7814384E1,1.7005142E1,3.2817055E1,5.4997334E1,1.0128714E1,2.2688341E1,3.5299038E1,1.9698296E1,1.972336E1,1.5575677E1],"tree_param":{"num_deleted":"0","num_feature":"90","num_nodes":"11","size_leaf_vector":"1"}},{"base_weights":[-6.362513E-2,-1.4286599E-1,9.221658E-3,1.069128E-1,-2.5061324E-1,-6.771725E-3,1.0653454E-2,-3.8795364E-1,4.4660224E-3,-5.289719E-1,-0E0,-2.4654172E-2,-6.5475055E-3],"categories":[],"categories_nodes":[],"categories_segments":[],"categories_sizes":[],"default_left":[0,0,0,0,0,0,0,0,0,0,0,0,0],"id":55,"left_children":[1,3,-1,5,7,-1,-1,9,-1,11,-1,-1,-1],"loss_changes":[3.2618546E0,2.648346E0,0E0,2.5577571E0,3.9377933E0,0E0,0E0,2.6674805E0,0E0,2.5194092E0,0E0,0E0,0E0],"parents":[2147483647,0,0,1,1,3,3,4,4,7,7,9,9],"right_children":[2,4,-1,6,8,-1,-1,10,-1,12,-1,-1,-1],"split_conditions":[2.5486484E0,1.5085432E1,9.221658E-3,-1.215742E0,7.0271254E-1,-6.771725E-3,1.0653454E-2,4.3165426E0,4.4660224E-3,1.5317395E1,-0E0,-2.4654172E-2,-6.5475055E-3],"split_indices":[56,10,0,52,12,0,0,50,0,17,0,0,0],"split_type":[0,0,0,0,0,0,0,0,0,0,0,0,0],"sum_hessian":[1.0876009E2,9.174317E1,1.7016922E1,2.6254715E1,6.548846E1,1.0435654E1,1.581906E1,4.9708233E1,1.5780224E1,3.5346546E1,1.4361686E1,1.567506E1,1.9671486E1],"tree_param":{"num_deleted":"0","num_feature":"90","num_nodes":"13","size_leaf_vector":"1"}},{"base_weights":[-0E0,-1.1166825E-1,1.887974E-2,6.2559545E-2,-3.6105293E-1,-1.2579729E-2,2.5332752E-1,-5.2220646E-5,-5.718843E-1,2.0122403E-2,-0E0,-2.3678578E-2,-7.84889E-3,9.000183E-3,-7.832878E-3],"categories":[],"categories_nodes":[],"categories_segments":[],"categories_sizes":[],"default_left":[0,0,0,0,0,0,0,0,0,0,0,0,0,0,0],"id":56,"left_children":[1,3,-1,5,7,-1,9,-1,11,-1,13,-1,-1,-1,-1],"loss_changes":[7.474904E0,4.283793E0,0E0,5.271176E0,2.7554007E0,0E0,4.3661804E0,0E0,7.101631E-1,0E0,2.382461E0,0E0,0E0,0E0,0E0],"parents":[2147483647,0,0,1,1,3,3,4,4,6,6,8,8,10,10],"right_children":[2,4,-1,6,8,-1,10,-1,12,-1,14,-1,-1,-1,-1],"split_conditions":[2.5751739E0,7.2727275E-1,1.887974E-2,-5.787489E-1,1.7224071E0,-1.2579729E-2,1.4112809E0,-5.2220646E-5,1.4803439E0,2.0122403E-2,-2.461536E1,-2.3678578E-2,-7.84889E-3,9.000183E-3,-7.832878E-3],"split_indices":[56,80,0,30,18,0,21,0,21,0,27,0,0,0,0],"split_type":[0,0,0,0,0,0,0,0,0,0,0,0,0,0,0],"sum_hessian":[1.0602761E2,9.211728E1,1.3910333E1,5.393205E1,3.818523E1,1.3872548E1,4.00595E1,1.57430315E1,2.24422E1,1.37042055E1,2.6355295E1,1.0432423E1,1.2009778E1,1.234129E1,1.4014004E1],"tree_param":{"num_deleted":"0","num_feature":"90","num_nodes":"15","size_leaf_vector":"1"}},{"base_weights":[-8.612804E-2,8.551793E-3,-1.7776585E-1,8.140026E-2,-3.367337E-1,-6.1449283E-3,1.4014001E-2,-4.691638E-1,3.7489047E-3,-0E0,-6.2193227E-1,-3.231449E-3,-2.4867795E-2],"categories":[],"categories_nodes":[],"categories_segments":[],"categories_sizes":[],"default_left":[0,0,0,0,0,0,0,0,0,0,0,0,0],"id":57,"left_children":[1,-1,3,5,7,-1,-1,9,-1,-1,11,-1,-1],"loss_changes":[3.7500565E0,0E0,3.8741927E0,4.1296163E0,3.7821074E0,0E0,0E0,3.1031332E0,0E0,0E0,2.9723482E0,0E0,0E0],"parents":[2147483647,0,0,2,2,3,3,4,4,7,7,10,10],"right_children":[2,-1,4,6,8,-1,-1,10,-1,-1,12,-1,-1],"split_conditions":[-1.2917021E1,8.551793E-3,1.2874279E1,3.4795642E0,7.4369516E0,-6.1449283E-3,1.4014001E-2,2.992E3,3.7489047E-3,-0E0,3.5705E-1,-3.231449E-3,-2.4867795E-2],"split_indices":[11,0,1,89,5,0,0,81,0,0,57,0,0],"split_type":[0,0,0,0,0,0,0,0,0,0,0,0,0],"sum_hessian":[1.0684534E2,1.9238838E1,8.76065E1,3.2481823E1,5.5124676E1,1.8440144E1,1.4041678E1,4.3653904E1,1.1470772E1,1.1651226E1,3.2002678E1,1.07510605E1,2.1251616E1],"tree_param":{"num_deleted":"0","num_feature":"90","num_nodes":"13","size_leaf_vector":"1"}},{"base_weights":[-6.960247E-2,-3.4942752E-1,3.022529E-2,-1.8085474E-2,1.026487E-3,2.2952539E-1,-2.1644078E-1,-1.06893955E-2,1.6592462E-2,3.7834502E-3,-2.0539237E-2,-1.1503155E-2,7.130235E-3],"categories":[],"categories_nodes":[],"categories_segments":[],"categories_sizes":[],"default_left":[0,0,0,0,0,0,0,0,0,0,0,0,0],"id":58,"left_children":[1,3,5,-1,-1,7,9,11,-1,-1,-1,-1,-1],"loss_changes":[3.206802E0,3.238449E0,4.0568237E0,0E0,0E0,3.9005344E0,6.1975946E0,2.8276217E0,0E0,0E0,0E0,0E0,0E0],"parents":[2147483647,0,0,1,1,2,2,5,5,6,6,7,7],"right_children":[2,4,6,-1,-1,8,10,12,-1,-1,-1,-1,-1],"split_conditions":[-8.176395E-1,2.6212116E1,2.470243E0,-1.8085474E-2,1.026487E-3,-9.00173E-1,2.3117636E2,1.1391007E1,1.6592462E-2,3.7834502E-3,-2.0539237E-2,-1.1503155E-2,7.130235E-3],"split_indices":[51,2,35,0,0,50,0,32,0,0,0,0,0],"split_type":[0,0,0,0,0,0,0,0,0,0,0,0,0],"sum_hessian":[1.0632835E2,2.7960602E1,7.8367744E1,1.6934683E1,1.1025918E1,4.4543613E1,3.382413E1,2.5787254E1,1.8756361E1,1.9760124E1,1.4064006E1,1.0681588E1,1.5105665E1],"tree_param":{"num_deleted":"0","num_feature":"90","num_nodes":"13","size_leaf_vector":"1"}},{"base_weights":[4.123025E-2,-1.569997E-1,3.1046006E-1,1.7020857E-1,-3.7026775E-1,6.4532995E-1,-6.560654E-2,-2.5222893E-3,1.4632415E-2,-5.55963E-1,1.2994534E-3,3.7685372E-3,2.7785234E-2,6.2267617E-3,-1.1240074E-2,-2.1065326E-2,-6.674951E-3],"categories":[],"categories_nodes":[],"categories_segments":[],"categories_sizes":[],"default_left":[0,0,0,0,0,0,0,0,0,0,0,0,0,0,0,0,0],"id":59,"left_children":[1,3,5,7,9,11,13,-1,-1,15,-1,-1,-1,-1,-1,-1,-1],"loss_changes":[5.8909316E0,4.549226E0,6.314148E0,2.2936478E0,3.3043652E0,3.0125017E0,2.2085538E0,0E0,0E0,5.872841E-1,0E0,0E0,0E0,0E0,0E0,0E0,0E0],"parents":[2147483647,0,0,1,1,2,2,3,3,4,4,5,5,6,6,9,9],"right_children":[2,4,6,8,10,12,14,-1,-1,16,-1,-1,-1,-1,-1,-1,-1],"split_conditions":[8.5487976E1,-3.2126257E0,5.3138536E-1,5.412275E3,2.3776102E1,1.235E3,-1.408E3,-2.5222893E-3,1.4632415E-2,3E0,1.2994534E-3,3.7685372E-3,2.7785234E-2,6.2267617E-3,-1.1240074E-2,-2.1065326E-2,-6.674951E-3],"split_indices":[87,15,16,88,33,75,84,0,0,55,0,0,0,0,0,0,0],"split_type":[0,0,0,0,0,0,0,0,0,0,0,0,0,0,0,0,0],"sum_hessian":[1.0511598E2,5.995129E1,4.5164692E1,2.2890574E1,3.7060715E1,2.3836735E1,2.1327957E1,1.2653496E1,1.0237079E1,2.5936066E1,1.1124649E1,1.0002219E1,1.3834517E1,1.0811371E1,1.0516585E1,1.5450606E1,1.0485459E1],"tree_param":{"num_deleted":"0","num_feature":"90","num_nodes":"17","size_leaf_vector":"1"}},{"base_weights":[-2.95993E-2,7.9460956E-2,-3.4339276E-1,-2.470391E-1,2.0626776E-1,-2.1375176E-2,-1.4141834E-3,3.2275767E-4,-1.5159702E-2,5.426614E-1,-3.101568E-2,-0E0,2.625086E-2,-1.0676488E-2,8.5314205E-3],"categories":[],"categories_nodes":[],"categories_segments":[],"categories_sizes":[],"default_left":[0,0,0,0,0,0,0,0,0,0,0,0,0,0,0],"id":60,"left_children":[1,3,5,7,9,-1,-1,-1,-1,11,13,-1,-1,-1,-1],"loss_changes":[3.9229145E0,3.454253E0,2.8026114E0,1.762647E0,5.14793E0,0E0,0E0,0E0,0E0,4.634967E0,3.9997058E0,0E0,0E0,0E0,0E0],"parents":[2147483647,0,0,1,1,2,2,3,3,4,4,9,9,10,10],"right_children":[2,4,6,8,10,-1,-1,-1,-1,12,14,-1,-1,-1,-1],"split_conditions":[1.0422618E1,4.4251914E3,1.7468662E1,8E-1,2.443796E0,-2.1375176E-2,-1.4141834E-3,3.2275767E-4,-1.5159702E-2,4.679553E0,1.510528E0,-0E0,2.625086E-2,-1.0676488E-2,8.5314205E-3],"split_indices":[11,26,1,53,35,0,0,0,0,19,34,0,0,0,0],"split_type":[0,0,0,0,0,0,0,0,0,0,0,0,0,0,0],"sum_hessian":[1.0717927E2,7.946204E1,2.7717228E1,2.0595018E1,5.8867023E1,1.03383875E1,1.7378841E1,1.029763E1,1.0297388E1,2.4155424E1,3.47116E1,1.0042515E1,1.4112909E1,1.775353E1,1.695807E1],"tree_param":{"num_deleted":"0","num_feature":"90","num_nodes":"15","size_leaf_vector":"1"}},{"base_weights":[3.6969252E-2,-7.899073E-2,2.9667258E-1,8.477789E-3,-2.1895085E-1,-2.2250954E-3,1.6553892E-2,-4.349162E-1,3.7611826E-4,-1.8657753E-2,-8.636031E-4,8.666336E-3,-1.1010177E-2],"categories":[],"categories_nodes":[],"categories_segments":[],"categories_sizes":[],"default_left":[0,0,0,0,0,0,0,0,0,0,0,0,0],"id":61,"left_children":[1,3,5,-1,7,-1,-1,9,11,-1,-1,-1,-1],"loss_changes":[3.3742437E0,3.8435783E0,3.607583E0,0E0,2.84974E0,0E0,0E0,1.8527355E0,3.1851785E0,0E0,0E0,0E0,0E0],"parents":[2147483647,0,0,1,1,2,2,4,4,7,7,8,8],"right_children":[2,4,6,-1,8,-1,-1,10,12,-1,-1,-1,-1],"split_conditions":[6.8E1,1.4854781E1,-3.3119345E0,8.477789E-3,-1.3735554E-1,-2.2250954E-3,1.6553892E-2,1.9426295E0,5.619649E0,-1.8657753E-2,-8.636031E-4,8.666336E-3,-1.1010177E-2],"split_indices":[78,10,50,0,13,0,0,56,11,0,0,0,0],"split_type":[0,0,0,0,0,0,0,0,0,0,0,0,0],"sum_hessian":[1.048741E2,7.213262E1,3.274148E1,1.856353E1,5.3569088E1,1.3123773E1,1.9617708E1,2.7149496E1,2.6419594E1,1.7018995E1,1.0130502E1,1.5800197E1,1.0619396E1],"tree_param":{"num_deleted":"0","num_feature":"90","num_nodes":"13","size_leaf_vector":"1"}},{"base_weights":[-2.8445998E-2,-9.44544E-2,1.2369576E-2,1.8764925E-1,-1.9447571E-1,1.5559052E-2,-4.4712177E-3,7.027727E-3,-2.7861598E-1,1.5184038E-3,-3.9775652E-1,-1.6840804E-2,-0E0],"categories":[],"categories_nodes":[],"categories_segments":[],"categories_sizes":[],"default_left":[0,0,0,0,0,0,0,0,0,0,0,0,0],"id":62,"left_children":[1,3,-1,5,7,-1,-1,-1,9,-1,11,-1,-1],"loss_changes":[3.0679855E0,2.806376E0,0E0,3.1291838E0,2.8119752E0,0E0,0E0,0E0,2.7050648E0,0E0,2.917911E0,0E0,0E0],"parents":[2147483647,0,0,1,1,3,3,4,4,8,8,10,10],"right_children":[2,4,-1,6,8,-1,-1,-1,10,-1,12,-1,-1],"split_conditions":[5.4622856E3,1.432408E-1,1.2369576E-2,2.6941208E-2,-1.6502852E0,1.5559052E-2,-4.4712177E-3,7.027727E-3,3.2870648E0,1.5184038E-3,6.7E1,-1.6840804E-2,-0E0],"split_indices":[81,14,0,39,13,0,0,0,29,0,77,0,0],"split_type":[0,0,0,0,0,0,0,0,0,0,0,0,0],"sum_hessian":[1.0623554E2,9.475148E1,1.14840555E1,2.3034119E1,7.171736E1,1.1819306E1,1.1214812E1,1.0205407E1,6.151196E1,1.5535435E1,4.5976524E1,3.1346386E1,1.4630138E1],"tree_param":{"num_deleted":"0","num_feature":"90","num_nodes":"13","size_leaf_vector":"1"}},{"base_weights":[-4.9674947E-2,-1.649866E-1,3.3308887E-1,-4.39911E-1,3.5776243E-2,-0E0,1.8413201E-2,-2.2048417E-2,-2.0388535E-3,2.655902E-1,-2.4022916E-1,-6.3701747E-3,2.2238985E-2,-1.1414565E-2,-5.561894E-4],"categories":[],"categories_nodes":[],"categories_segments":[],"categories_sizes":[],"default_left":[0,0,0,0,0,0,0,0,0,0,0,0,0,0,0],"id":63,"left_children":[1,3,5,7,9,-1,-1,-1,-1,11,13,-1,-1,-1,-1],"loss_changes":[4.613961E0,4.771991E0,2.075545E0,3.4388065E0,3.205301E0,0E0,0E0,0E0,0E0,7.0146728E0,4.7092915E-1,0E0,0E0,0E0,0E0],"parents":[2147483647,0,0,1,1,2,2,3,3,4,4,9,9,10,10],"right_children":[2,4,6,8,10,-1,-1,-1,-1,12,14,-1,-1,-1,-1],"split_conditions":[1.1609575E0,-3.61054E-1,-1.709E3,2.238208E2,2.459838E0,-0E0,1.8413201E-2,-2.2048417E-2,-2.0388535E-3,1.2364564E0,1.5342712E1,-6.3701747E-3,2.2238985E-2,-1.1414565E-2,-5.561894E-4],"split_indices":[23,51,84,0,35,0,0,0,0,3,1,0,0,0,0],"split_type":[0,0,0,0,0,0,0,0,0,0,0,0,0,0,0],"sum_hessian":[1.0195108E2,8.022627E1,2.1724806E1,3.390496E1,4.6321316E1,1.1228001E1,1.0496806E1,1.706923E1,1.6835733E1,2.6305367E1,2.0015947E1,1.31501045E1,1.3155262E1,1.000076E1,1.0015186E1],"tree_param":{"num_deleted":"0","num_feature":"90","num_nodes":"15","size_leaf_vector":"1"}},{"base_weights":[-1.1221454E-2,6.807912E-2,-1.1956185E-2,-2.7966288E-1,1.858351E-1,-4.4262928E-5,-1.3758966E-2,2.0587655E-2,4.8924707E-2,1.4356295E-2,-9.788301E-2,-1.344985E-2,8.261719E-3],"categories":[],"categories_nodes":[],"categories_segments":[],"categories_sizes":[],"default_left":[0,0,0,0,0,0,0,0,0,0,0,0,0],"id":64,"left_children":[1,3,-1,5,7,-1,-1,-1,9,-1,11,-1,-1],"loss_changes":[3.5668066E0,3.7873282E0,0E0,9.021884E-1,4.383623E0,0E0,0E0,0E0,3.9521332E0,0E0,6.1073313E0,0E0,0E0],"parents":[2147483647,0,0,1,1,3,3,4,4,8,8,10,10],"right_children":[2,4,-1,6,8,-1,-1,-1,10,-1,12,-1,-1],"split_conditions":[3.2832867E1,4.511107E3,-1.1956185E-2,1.117678E0,1.368178E0,-4.4262928E-5,-1.3758966E-2,2.0587655E-2,-3.853849E-1,1.4356295E-2,2.531151E-1,-1.344985E-2,8.261719E-3],"split_indices":[7,26,0,34,18,0,0,0,39,0,39,0,0],"split_type":[0,0,0,0,0,0,0,0,0,0,0,0,0],"sum_hessian":[1.0698134E2,8.909692E1,1.788442E1,2.0768896E1,6.832802E1,1.0013819E1,1.0755078E1,1.2169708E1,5.615831E1,1.4019145E1,4.2139164E1,2.2217644E1,1.9921522E1],"tree_param":{"num_deleted":"0","num_feature":"90","num_nodes":"13","size_leaf_vector":"1"}},{"base_weights":[-3.6629378E-3,-9.179209E-2,1.6337497E-2,6.022005E-3,-1.4747279E-2,-1.11729294E-1,1.9129694E-2,-2.501735E-1,9.940058E-3,-1.7561752E-2,-4.158038E-4],"categories":[],"categories_nodes":[],"categories_segments":[],"categories_sizes":[],"default_left":[0,0,0,0,0,0,0,0,0,0,0],"id":65,"left_children":[1,3,-1,5,-1,7,-1,9,-1,-1,-1],"loss_changes":[5.0052133E0,3.9244232E0,0E0,6.0945425E0,0E0,4.143362E0,0E0,3.7963095E0,0E0,0E0,0E0],"parents":[2147483647,0,0,1,1,3,3,5,5,7,7],"right_children":[2,4,-1,6,-1,8,-1,10,-1,-1,-1],"split_conditions":[2.6595588E0,1.0268541E1,1.6337497E-2,4.0285964E0,-1.4747279E-2,4E0,1.9129694E-2,3.6753532E-1,9.940058E-3,-1.7561752E-2,-4.158038E-4],"split_indices":[56,50,0,50,0,55,0,59,0,0,0],"split_type":[0,0,0,0,0,0,0,0,0,0,0],"sum_hessian":[1.0420873E2,9.199751E1,1.2211219E1,7.449115E1,1.7506361E1,6.350666E1,1.09844885E1,4.9910397E1,1.3596265E1,1.8540247E1,3.137015E1],"tree_param":{"num_deleted":"0","num_feature":"90","num_nodes":"11","size_leaf_vector":"1"}},{"base_weights":[-7.626696E-2,-1.89151E-1,1.9339721E-1,5.8949515E-3,-2.865969E-1,-3.473606E-2,1.8526627E-2,-1.3746095E-1,-1.811798E-2,-1.1804056E-2,8.5584745E-3,6.6580796E-3,-3.523425E-1,-1.3659077E-4,-1.8555589E-2],"categories":[],"categories_nodes":[],"categories_segments":[],"categories_sizes":[],"default_left":[0,0,0,0,0,0,0,0,0,0,0,0,0,0,0],"id":66,"left_children":[1,3,5,-1,7,9,-1,11,-1,-1,-1,-1,13,-1,-1],"loss_changes":[3.476943E0,3.208738E0,3.4982882E0,0E0,2.6180449E0,2.8488665E0,0E0,4.0064945E0,0E0,0E0,0E0,0E0,2.6743379E0,0E0,0E0],"parents":[2147483647,0,0,1,1,2,2,4,4,5,5,7,7,12,12],"right_children":[2,4,6,-1,8,10,-1,12,-1,-1,-1,-1,14,-1,-1],"split_conditions":[3.5500853E0,5.704915E-1,1.7073141E1,5.8949515E-3,7.432263E-1,-3.335965E-1,1.8526627E-2,1.6326653E0,-1.811798E-2,-1.1804056E-2,8.5584745E-3,6.6580796E-3,3.962182E3,-1.3659077E-4,-1.8555589E-2],"split_indices":[25,20,1,0,16,52,0,18,0,0,0,0,81,0,0],"split_type":[0,0,0,0,0,0,0,0,0,0,0,0,0,0,0],"sum_hessian":[1.09886185E2,7.918843E1,3.0697752E1,1.4528152E1,6.466028E1,2.0388943E1,1.0308809E1,4.700952E1,1.7650757E1,1.0133229E1,1.02557125E1,1.6694635E1,3.0314886E1,1.4838903E1,1.5475984E1],"tree_param":{"num_deleted":"0","num_feature":"90","num_nodes":"15","size_leaf_vector":"1"}},{"base_weights":[-3.2995492E-2,1.4480203E-2,-1.24646544E-1,-4.400272E-1,-0E0,-1.4562263E-3,-2.2337839E-2,1.3072656E-1,-2.7750564E-1,-9.282211E-3,3.4246925E-1,-1.9026736E-2,1.0378342E-3,2.3369618E-2,-0E0],"categories":[],"categories_nodes":[],"categories_segments":[],"categories_sizes":[],"default_left":[0,0,0,0,0,0,0,0,0,0,0,0,0,0,0],"id":67,"left_children":[1,-1,3,5,7,-1,-1,9,11,-1,13,-1,-1,-1,-1],"loss_changes":[5.1673355E0,0E0,3.579033E0,2.6564975E0,2.7567487E0,0E0,0E0,4.8149447E0,3.1132298E0,0E0,4.8589845E0,0E0,0E0,0E0,0E0],"parents":[2147483647,0,0,2,2,3,3,4,4,7,7,8,8,10,10],"right_children":[2,-1,4,6,8,-1,-1,10,12,-1,14,-1,-1,-1,-1],"split_conditions":[-5.996454E-1,1.4480203E-2,1.9766162E2,3.8413333E3,-9.29E2,-1.4562263E-3,-2.2337839E-2,3.2452607E0,-1.2700797E-2,-9.282211E-3,-2.6516697E-1,-1.9026736E-2,1.0378342E-3,2.3369618E-2,-0E0],"split_indices":[38,0,85,81,84,0,0,29,38,0,39,0,0,0,0],"split_type":[0,0,0,0,0,0,0,0,0,0,0,0,0,0,0],"sum_hessian":[1.08576485E2,1.427436E1,9.4302124E1,2.4211922E1,7.00902E1,1.2327179E1,1.1884744E1,4.7213856E1,2.2876345E1,1.4269365E1,3.2944492E1,1.0459424E1,1.2416922E1,1.2761277E1,2.0183216E1],"tree_param":{"num_deleted":"0","num_feature":"90","num_nodes":"15","size_leaf_vector":"1"}},{"base_weights":[1.3001671E-3,-1.389908E-1,2.3504917E-1,3.9153498E-2,-4.5780215E-1,1.7134078E-2,-4.6238303E-2,1.2899768E-2,-1.1634157E-1,-2.317205E-2,-2.1187118E-3,7.6847235E-3,-1.1374896E-2,6.061373E-3,-1.2708182E-2],"categories":[],"categories_nodes":[],"categories_segments":[],"categories_sizes":[],"default_left":[0,0,0,0,0,0,0,0,0,0,0,0,0,0,0],"id":68,"left_children":[1,3,5,7,9,-1,11,-1,13,-1,-1,-1,-1,-1,-1],"loss_changes":[3.6303542E0,4.0471573E0,4.3147073E0,2.9176686E0,2.5341282E0,0E0,2.6790712E0,0E0,3.4105258E0,0E0,0E0,0E0,0E0,0E0,0E0],"parents":[2147483647,0,0,1,1,2,2,3,3,4,4,6,6,8,8],"right_children":[2,4,6,8,10,-1,12,-1,14,-1,-1,-1,-1,-1,-1],"split_conditions":[8.456362E-1,7.5E-1,8.945079E-1,1.2493358E1,3.6047466E0,1.7134078E-2,5.567312E0,1.2899768E-2,-1.5248546E-1,-2.317205E-2,-2.1187118E-3,7.6847235E-3,-1.1374896E-2,6.061373E-3,-1.2708182E-2],"split_indices":[20,80,57,1,29,0,5,0,15,0,0,0,0,0,0],"split_type":[0,0,0,0,0,0,0,0,0,0,0,0,0,0,0],"sum_hessian":[1.0524847E2,6.49429E1,4.030557E1,4.1782097E1,2.3160805E1,1.8234894E1,2.2070673E1,1.1802154E1,2.9979944E1,1.0967738E1,1.2193066E1,1.1020281E1,1.1050392E1,1.4260664E1,1.571928E1],"tree_param":{"num_deleted":"0","num_feature":"90","num_nodes":"15","size_leaf_vector":"1"}},{"base_weights":[-2.3236953E-2,1.7914329E-2,-1.3792786E-1,9.117199E-3,-2.4180835E-1,1.00209415E-2,-3.538936E-1,2.7287267E-3,-4.469686E-1,-7.6975366E-3,-2.3815976E-2],"categories":[],"categories_nodes":[],"categories_segments":[],"categories_sizes":[],"default_left":[0,0,0,0,0,0,0,0,0,0,0],"id":69,"left_children":[1,-1,3,-1,5,-1,7,-1,9,-1,-1],"loss_changes":[7.536273E0,0E0,4.359943E0,0E0,5.2093844E0,0E0,2.9946651E0,0E0,2.7592964E0,0E0,0E0],"parents":[2147483647,0,0,2,2,4,4,6,6,8,8],"right_children":[2,-1,4,-1,6,-1,8,-1,10,-1,-1],"split_conditions":[-1.4538098E1,1.7914329E-2,5.727782E-1,9.117199E-3,7.253412E-2,1.00209415E-2,2.1939907E0,2.7287267E-3,3.6268115E-1,-7.6975366E-3,-2.3815976E-2],"split_indices":[11,0,22,0,14,0,25,0,38,0,0],"split_type":[0,0,0,0,0,0,0,0,0,0,0],"sum_hessian":[1.0482969E2,1.4363359E1,9.0466324E1,1.5571559E1,7.489477E1,1.0830696E1,6.406407E1,1.0163099E1,5.3900974E1,3.7978367E1,1.5922606E1],"tree_param":{"num_deleted":"0","num_feature":"90","num_nodes":"11","size_leaf_vector":"1"}},{"base_weights":[-3.6589835E-2,-1.52677E-1,2.4841835E-1,9.851588E-3,-2.4316321E-1,1.7493397E-2,-2.6684967E-3,-1.8547053E-2,-1.3003305E-1,1.2990427E-2,-3.0916092E-1,-1.4992324E-2,-1.477049E-4],"categories":[],"categories_nodes":[],"categories_segments":[],"categories_sizes":[],"default_left":[0,0,0,0,0,0,0,0,0,0,0,0,0],"id":70,"left_children":[1,3,5,-1,7,-1,-1,-1,9,-1,11,-1,-1],"loss_changes":[3.6510074E0,3.612342E0,3.8746722E0,0E0,2.418672E0,0E0,0E0,0E0,5.958166E0,0E0,2.358307E0,0E0,0E0],"parents":[2147483647,0,0,1,1,2,2,4,4,8,8,10,10],"right_children":[2,4,6,-1,8,-1,-1,-1,10,-1,12,-1,-1],"split_conditions":[3.5500853E0,5.522963E-1,5.242393E-1,9.851588E-3,1.3181677E0,1.7493397E-2,-2.6684967E-3,-1.8547053E-2,2.330057E0,1.2990427E-2,1.8091164E0,-1.4992324E-2,-1.477049E-4],"split_indices":[25,20,14,0,24,0,0,0,25,0,24,0,0],"split_type":[0,0,0,0,0,0,0,0,0,0,0,0,0],"sum_hessian":[1.07503876E2,7.829597E1,2.9207912E1,1.0688322E1,6.760764E1,1.4674711E1,1.4533201E1,1.2573181E1,5.5034462E1,1.1924992E1,4.310947E1,2.4704912E1,1.8404558E1],"tree_param":{"num_deleted":"0","num_feature":"90","num_nodes":"13","size_leaf_vector":"1"}},{"base_weights":[-1.9989025E-2,-2.4755388E-1,8.636345E-2,4.4406904E-3,-4.9705547E-1,-7.809283E-2,4.5760226E-1,-0E0,-2.7086472E-2,1.0581566E-2,-2.1038343E-1,2.3139438E-2,-0E0,-4.5398292E-1,5.5881627E-3,-2.365669E-3,-2.0151248E-2],"categories":[],"categories_nodes":[],"categories_segments":[],"categories_sizes":[],"default_left":[0,0,0,0,0,0,0,0,0,0,0,0,0,0,0,0,0],"id":71,"left_children":[1,3,5,-1,7,9,11,-1,-1,-1,13,-1,-1,15,-1,-1,-1],"loss_changes":[2.7619436E0,3.9476476E0,4.7964983E0,0E0,4.6316347E0,3.0553617E0,3.1971884E0,0E0,0E0,0E0,4.372747E0,0E0,0E0,1.7613053E0,0E0,0E0,0E0],"parents":[2147483647,0,0,1,1,2,2,4,4,5,5,6,6,10,10,13,13],"right_children":[2,4,6,-1,8,10,12,-1,-1,-1,14,-1,-1,16,-1,-1,-1],"split_conditions":[-2.0999625E0,-2.6259825E0,1.4385958E0,4.4406904E-3,1.8566157E0,5.8678424E-1,2.9984802E2,-0E0,-2.7086472E-2,1.0581566E-2,4.4753294E-2,2.3139438E-2,-0E0,1.1124016E0,5.5881627E-3,-2.365669E-3,-2.0151248E-2],"split_indices":[52,15,34,0,18,22,6,0,0,0,13,0,0,34,0,0,0],"split_type":[0,0,0,0,0,0,0,0,0,0,0,0,0,0,0,0,0],"sum_hessian":[1.0702322E2,3.4738483E1,7.228474E1,1.29755745E1,2.1762909E1,5.0254692E1,2.2030045E1,1.0879395E1,1.0883513E1,1.0135577E1,4.0119114E1,1.1832093E1,1.0197951E1,2.5456753E1,1.4662363E1,1.11929035E1,1.4263849E1],"tree_param":{"num_deleted":"0","num_feature":"90","num_nodes":"17","size_leaf_vector":"1"}},{"base_weights":[-2.49913E-2,1.4431652E-2,-9.869927E-2,-2.017873E-1,7.4951747E-3,8.524383E-3,-3.0812222E-1,-1.17432386E-1,-5.755965E-1,-9.685314E-3,9.935954E-3,-6.4866086E-3,-2.3449056E-2],"categories":[],"categories_nodes":[],"categories_segments":[],"categories_sizes":[],"default_left":[0,0,0,0,0,0,0,0,0,0,0,0,0],"id":72,"left_children":[1,-1,3,5,-1,-1,7,9,11,-1,-1,-1,-1],"loss_changes":[3.8608882E0,0E0,3.4946108E0,4.0947294E0,0E0,0E0,2.7749743E0,3.976892E0,1.0120459E0,0E0,0E0,0E0,0E0],"parents":[2147483647,0,0,2,2,3,3,6,6,7,7,8,8],"right_children":[2,-1,4,6,-1,-1,8,10,12,-1,-1,-1,-1],"split_conditions":[8.123828E0,1.4431652E-2,1.0029584E0,5.422053E-1,7.4951747E-3,8.524383E-3,7.5E-1,1.8566877E0,1.2119815E0,-9.685314E-3,9.935954E-3,-6.4866086E-3,-2.3449056E-2],"split_indices":[31,0,20,20,0,0,80,56,34,0,0,0,0],"split_type":[0,0,0,0,0,0,0,0,0,0,0,0,0],"sum_hessian":[1.0408964E2,1.0965923E1,9.312372E1,7.362434E1,1.9499382E1,1.1773745E1,6.185059E1,3.887964E1,2.2970951E1,2.7818047E1,1.1061591E1,1.0748607E1,1.2222344E1],"tree_param":{"num_deleted":"0","num_feature":"90","num_nodes":"13","size_leaf_vector":"1"}},{"base_weights":[-3.019954E-2,-1.1836097E-1,2.4257192E-1,-4.0991998E-1,2.3724176E-2,1.8160703E-2,-1.353135E-3,-1.8752817E-2,-6.0347974E-4,2.3034877E-1,-2.2313118E-1,1.7452473E-2,-9.6701767E-4,6.86305E-4,-1.53028E-2],"categories":[],"categories_nodes":[],"categories_segments":[],"categories_sizes":[],"default_left":[0,0,0,0,0,0,0,0,0,0,0,0,0,0,0],"id":73,"left_children":[1,3,5,7,9,-1,-1,-1,-1,11,13,-1,-1,-1,-1],"loss_changes":[2.5739148E0,3.6826358E0,2.9920604E0,2.0601945E0,3.0166767E0,0E0,0E0,0E0,0E0,3.3707063E0,2.096127E0,0E0,0E0,0E0,0E0],"parents":[2147483647,0,0,1,1,2,2,3,3,4,4,9,9,10,10],"right_children":[2,4,6,8,10,-1,-1,-1,-1,12,14,-1,-1,-1,-1],"split_conditions":[9.213162E1,1.295405E0,9.942119E0,4E1,3.295661E0,1.8160703E-2,-1.353135E-3,-1.8752817E-2,-6.0347974E-4,1.8377149E0,1.397E3,1.7452473E-2,-9.6701767E-4,6.86305E-4,-1.53028E-2],"split_indices":[4,3,37,78,11,0,0,0,0,3,75,0,0,0,0],"split_type":[0,0,0,0,0,0,0,0,0,0,0,0,0,0,0],"sum_hessian":[1.0522748E2,8.176554E1,2.3461933E1,2.6708534E1,5.5057007E1,1.0168299E1,1.3293635E1,1.5604722E1,1.1103812E1,3.1146097E1,2.391091E1,1.3094976E1,1.805112E1,1.2926984E1,1.0983927E1],"tree_param":{"num_deleted":"0","num_feature":"90","num_nodes":"15","size_leaf_vector":"1"}},{"base_weights":[-0E0,-2.3831241E-1,1.1282175E-1,-4.3109152E-1,4.344934E-3,4.4201496E-1,-6.551438E-2,-2.1410257E-2,-3.0579672E-3,2.2359774E-2,-5.464974E-4,-1.401816E-2,1.547108E-1,-3.6938759E-3,1.3712775E-2],"categories":[],"categories_nodes":[],"categories_segments":[],"categories_sizes":[],"default_left":[0,0,0,0,0,0,0,0,0,0,0,0,0,0,0],"id":74,"left_children":[1,3,5,7,-1,9,11,-1,-1,-1,-1,-1,13,-1,-1],"loss_changes":[2.9844677E0,2.9363544E0,4.548215E0,1.8097267E0,0E0,4.15868E0,4.573199E0,0E0,0E0,0E0,0E0,0E0,2.9586554E0,0E0,0E0],"parents":[2147483647,0,0,1,1,2,2,3,3,5,5,6,6,12,12],"right_children":[2,4,6,8,-1,10,12,-1,-1,-1,-1,-1,14,-1,-1],"split_conditions":[1.295405E0,6.3E1,1.6724107E0,2.1752573E1,4.344934E-3,2.4064827E2,-2.0999625E0,-2.1410257E-2,-3.0579672E-3,2.2359774E-2,-5.464974E-4,-1.401816E-2,-3.2873206E-2,-3.6938759E-3,1.3712775E-2],"split_indices":[3,78,3,33,0,85,52,0,0,0,0,0,39,0,0],"split_type":[0,0,0,0,0,0,0,0,0,0,0,0,0,0,0],"sum_hessian":[1.0540609E2,3.4126163E1,7.127992E1,2.3404747E1,1.0721417E1,2.49925E1,4.6287422E1,1.051889E1,1.2885857E1,1.4972514E1,1.0019987E1,1.6398462E1,2.988896E1,1.5332726E1,1.4556234E1],"tree_param":{"num_deleted":"0","num_feature":"90","num_nodes":"15","size_leaf_vector":"1"}},{"base_weights":[-4.8139248E-2,-1.4661673E-2,3.484407E-2,1.5718315E-2,-6.540343E-2,-2.3994361E-1,1.8954472E-1,4.718394E-3,-5.3908795E-1,-6.6461023E-3,1.4056123E-2,-0E0,-2.4286963E-2],"categories":[],"categories_nodes":[],"categories_segments":[],"categories_sizes":[],"default_left":[0,0,0,0,0,0,0,0,0,0,0,0,0],"id":75,"left_children":[1,-1,3,-1,5,7,9,-1,11,-1,-1,-1,-1],"loss_changes":[4.295617E0,0E0,4.8956566E0,0E0,3.6205666E0,6.1586905E0,3.996284E0,0E0,3.8411388E0,0E0,0E0,0E0,0E0],"parents":[2147483647,0,0,2,2,4,4,5,5,6,6,8,8],"right_children":[2,-1,4,-1,6,8,10,-1,12,-1,-1,-1,-1],"split_conditions":[5.289529E-1,-1.4661673E-2,-1.2917021E1,1.5718315E-2,6.3E1,3.395432E-1,-3.3687334E0,4.718394E-3,-1.2243916E0,-6.6461023E-3,1.4056123E-2,-0E0,-2.4286963E-2],"split_indices":[23,0,11,0,78,12,50,0,15,0,0,0,0],"split_type":[0,0,0,0,0,0,0,0,0,0,0,0,0],"sum_hessian":[1.0835292E2,1.6578613E1,9.177431E1,1.5021284E1,7.675303E1,4.6795338E1,2.9957687E1,1.9791683E1,2.7003654E1,1.1553669E1,1.8404018E1,1.0282062E1,1.6721594E1],"tree_param":{"num_deleted":"0","num_feature":"90","num_nodes":"13","size_leaf_vector":"1"}},{"base_weights":[2.301471E-2,1.3281737E-1,-1.1318496E-2,-1.998618E-2,5.1083356E-1,-1.9207606E-1,2.3638725E-1,2.377402E-2,2.7015917E-3,1.24393E-3,-1.3231511E-2,1.8817049E-2,-3.1233507E-3],"categories":[],"categories_nodes":[],"categories_segments":[],"categories_sizes":[],"default_left":[0,0,0,0,0,0,0,0,0,0,0,0,0],"id":76,"left_children":[1,3,-1,5,7,9,11,-1,-1,-1,-1,-1,-1],"loss_changes":[4.5219736E0,5.094014E0,0E0,2.7382274E0,2.3880086E0,2.4735637E0,3.5904713E0,0E0,0E0,0E0,0E0,0E0,0E0],"parents":[2147483647,0,0,1,1,3,3,4,4,5,5,6,6],"right_children":[2,4,-1,6,8,10,12,-1,-1,-1,-1,-1,-1],"split_conditions":[9.559228E0,3.5137677E0,-1.1318496E-2,-1.2152715E0,5.5907446E-1,1.5587186E0,1.3967462E-1,2.377402E-2,2.7015917E-3,1.24393E-3,-1.3231511E-2,1.8817049E-2,-3.1233507E-3],"split_indices":[50,25,0,50,14,24,38,0,0,0,0,0,0],"split_type":[0,0,0,0,0,0,0,0,0,0,0,0,0],"sum_hessian":[1.01381035E2,8.1587006E1,1.979403E1,5.850813E1,2.3078876E1,3.647576E1,2.203237E1,1.2055233E1,1.10236435E1,1.8645126E1,1.7830633E1,1.0157327E1,1.1875042E1],"tree_param":{"num_deleted":"0","num_feature":"90","num_nodes":"13","size_leaf_vector":"1"}},{"base_weights":[-2.9789591E-2,4.914529E-2,-1.237405E-2,-3.3088986E-2,1.821296E-2,1.7959034E-1,-2.6304567E-1,-0E0,1.81019E-2,-4.9077448E-1,4.127568E-3,-8.330301E-3,6.1120116E-3,-2.7776768E-3,-2.053865E-2],"categories":[],"categories_nodes":[],"categories_segments":[],"categories_sizes":[],"default_left":[0,0,0,0,0,0,0,0,0,0,0,0,0,0,0],"id":77,"left_children":[1,3,-1,5,-1,7,9,11,-1,13,-1,-1,-1,-1,-1],"loss_changes":[3.5091426E0,4.4984736E0,0E0,4.06586E0,0E0,3.4286594E0,4.011015E0,1.8791459E0,0E0,1.575314E0,0E0,0E0,0E0,0E0,0E0],"parents":[2147483647,0,0,1,1,3,3,5,5,6,6,7,7,9,9],"right_children":[2,4,-1,6,-1,8,10,12,-1,14,-1,-1,-1,-1,-1],"split_conditions":[3.2832867E1,2.4088557E0,-1.237405E-2,6E0,1.821296E-2,2.4077312E1,2.0937454E1,5E0,1.81019E-2,3.5814703E-1,4.127568E-3,-8.330301E-3,6.1120116E-3,-2.7776768E-3,-2.053865E-2],"split_indices":[7,24,0,54,0,33,10,54,0,12,0,0,0,0,0],"split_type":[0,0,0,0,0,0,0,0,0,0,0,0,0,0,0],"sum_hessian":[1.068149E2,8.891172E1,1.7903187E1,7.834941E1,1.0562313E1,3.9801785E1,3.8547623E1,2.8681648E1,1.1120136E1,2.508609E1,1.3461533E1,1.2681452E1,1.6000196E1,1.0026042E1,1.5060049E1],"tree_param":{"num_deleted":"0","num_feature":"90","num_nodes":"15","size_leaf_vector":"1"}},{"base_weights":[-4.1410428E-2,-2.0600691E-1,1.5995291E-1,-8.003209E-2,-1.9617595E-2,4.9250245E-1,-2.1701775E-1,6.5977395E-2,-1.4891169E-2,-0E0,2.489963E-2,2.617176E-3,-1.55334E-2,-1.123808E-2,3.8900182E-1,1.9343479E-2,5.604944E-4],"categories":[],"categories_nodes":[],"categories_segments":[],"categories_sizes":[],"default_left":[0,0,0,0,0,0,0,0,0,0,0,0,0,0,0,0,0],"id":78,"left_children":[1,3,5,7,-1,9,11,13,-1,-1,-1,-1,-1,-1,15,-1,-1],"loss_changes":[3.61846E0,2.9610572E0,6.3257294E0,3.3585825E0,0E0,4.5310845E0,2.4121273E0,5.7582326E0,0E0,0E0,0E0,0E0,0E0,0E0,1.8956549E0,0E0,0E0],"parents":[2147483647,0,0,1,1,2,2,3,3,5,5,6,6,7,7,14,14],"right_children":[2,4,6,8,-1,10,12,14,-1,-1,-1,-1,-1,-1,16,-1,-1],"split_conditions":[8.5487976E1,4.4580693E0,2.2575642E1,6.936902E-1,-1.9617595E-2,1.706639E1,5.2109995E0,4.1466698E1,-1.4891169E-2,-0E0,2.489963E-2,2.617176E-3,-1.55334E-2,-1.123808E-2,1.7782719E0,1.9343479E-2,5.604944E-4],"split_indices":[87,29,33,15,0,7,36,8,0,0,0,0,0,0,3,0,0],"split_type":[0,0,0,0,0,0,0,0,0,0,0,0,0,0,0,0,0],"sum_hessian":[1.04491745E2,5.8835747E1,4.5656E1,4.8631775E1,1.020397E1,2.4636238E1,2.101976E1,3.6361874E1,1.22699E1,1.0679988E1,1.395625E1,1.0328592E1,1.0691169E1,1.4592131E1,2.1769745E1,1.1200799E1,1.0568946E1],"tree_param":{"num_deleted":"0","num_feature":"90","num_nodes":"17","size_leaf_vector":"1"}},{"base_weights":[1.1685919E-2,-1.610939E-1,2.3983832E-1,1.0392819E-2,-2.9913756E-1,5.478833E-1,-5.3024227E-3,-5.439695E-1,8.196921E-3,5.144351E-3,2.684365E-2,-4.1969963E-3,-2.1910565E-2,1.0893686E-2,-9.445825E-3],"categories":[],"categories_nodes":[],"categories_segments":[],"categories_sizes":[],"default_left":[0,0,0,0,0,0,0,0,0,0,0,0,0,0,0],"id":79,"left_children":[1,3,5,-1,7,9,-1,11,13,-1,-1,-1,-1,-1,-1],"loss_changes":[4.288278E0,4.399093E0,6.494727E0,0E0,3.975184E0,2.891179E0,0E0,1.4912758E0,2.8737836E0,0E0,0E0,0E0,0E0,0E0,0E0],"parents":[2147483647,0,0,1,1,2,2,4,4,5,5,7,7,8,8],"right_children":[2,4,6,-1,8,10,-1,12,14,-1,-1,-1,-1,-1,-1],"split_conditions":[8.5487976E1,-1.04990486E2,9.357879E0,1.0392819E-2,4E0,4.67524E-1,-5.3024227E-3,-3.018004E0,1.2307257E1,5.144351E-3,2.684365E-2,-4.1969963E-3,-2.1910565E-2,1.0893686E-2,-9.445825E-3],"split_indices":[87,27,37,0,82,59,0,15,31,0,0,0,0,0,0],"split_type":[0,0,0,0,0,0,0,0,0,0,0,0,0,0,0],"sum_hessian":[1.0382493E2,5.816949E1,4.5655437E1,1.1018508E1,4.7150986E1,2.6574654E1,1.9080784E1,2.629253E1,2.0858454E1,1.4870043E1,1.1704612E1,1.0251525E1,1.6041006E1,1.0558299E1,1.0300155E1],"tree_param":{"num_deleted":"0","num_feature":"90","num_nodes":"15","size_leaf_vector":"1"}},{"base_weights":[-1.0071821E-1,-2.8427938E-1,6.305196E-2,-2.3488615E-2,-9.817183E-2,-9.8343976E-2,1.5327039E-2,8.130231E-3,-3.0871582E-1,8.50007E-3,-3.575671E-1,1.6344815E-3,-1.6746707E-2,1.1545952E-3,-2.3472754E-2],"categories":[],